<?xml version="1.0"?>
<MethodSetup Method="BDT::BDT">
  <GeneralInfo>
    <Info name="TMVA Release" value="4.2.0 [262656]"/>
    <Info name="ROOT Release" value="6.02/05 [393733]"/>
    <Info name="Creator" value="milee"/>
    <Info name="Date" value="Tue Aug  6 16:21:16 2019"/>
    <Info name="Host" value="Linux vocms029.cern.ch 2.6.32-504.12.2.el6.x86_64 #1 SMP Thu Mar 12 07:33:00 CET 2015 x86_64 x86_64 x86_64 GNU/Linux"/>
    <Info name="Dir" value="/afs/cern.ch/work/m/milee/MYcode"/>
    <Info name="Training events" value="63280"/>
    <Info name="TrainingTime" value="7.50781939e+01"/>
    <Info name="AnalysisType" value="Classification"/>
  </GeneralInfo>
  <Options>
    <Option name="V" modified="Yes">False</Option>
    <Option name="VerbosityLevel" modified="No">Default</Option>
    <Option name="VarTransform" modified="No">None</Option>
    <Option name="H" modified="Yes">False</Option>
    <Option name="CreateMVAPdfs" modified="No">False</Option>
    <Option name="IgnoreNegWeightsInTraining" modified="Yes">True</Option>
    <Option name="NTrees" modified="Yes">1000</Option>
    <Option name="MaxDepth" modified="Yes">4</Option>
    <Option name="MinNodeSize" modified="No">0.0632113.2</Option>
    <Option name="nCuts" modified="Yes">20</Option>
    <Option name="BoostType" modified="Yes">AdaBoost</Option>
    <Option name="AdaBoostR2Loss" modified="No">quadratic</Option>
    <Option name="UseBaggedBoost" modified="No">False</Option>
    <Option name="Shrinkage" modified="No">1.000000e+00</Option>
    <Option name="AdaBoostBeta" modified="Yes">5.000000e-01</Option>
    <Option name="UseRandomisedTrees" modified="No">False</Option>
    <Option name="UseNvars" modified="No">3</Option>
    <Option name="UsePoissonNvars" modified="No">True</Option>
    <Option name="BaggedSampleFraction" modified="No">6.000000e-01</Option>
    <Option name="UseYesNoLeaf" modified="No">True</Option>
    <Option name="NegWeightTreatment" modified="No">inverseboostnegweights</Option>
    <Option name="Css" modified="No">1.000000e+00</Option>
    <Option name="Cts_sb" modified="No">1.000000e+00</Option>
    <Option name="Ctb_ss" modified="No">1.000000e+00</Option>
    <Option name="Cbb" modified="No">1.000000e+00</Option>
    <Option name="NodePurityLimit" modified="No">5.000000e-01</Option>
    <Option name="SeparationType" modified="Yes">giniindex</Option>
    <Option name="DoBoostMonitor" modified="No">False</Option>
    <Option name="UseFisherCuts" modified="No">False</Option>
    <Option name="MinLinCorrForFisher" modified="No">8.000000e-01</Option>
    <Option name="UseExclusiveVars" modified="No">False</Option>
    <Option name="DoPreselection" modified="No">False</Option>
    <Option name="SigToBkgFraction" modified="No">1.000000e+00</Option>
    <Option name="PruneMethod" modified="No">nopruning</Option>
    <Option name="PruneStrength" modified="No">0.000000e+00</Option>
    <Option name="PruningValFraction" modified="Yes">6.000000e-01</Option>
    <Option name="nEventsMin" modified="Yes">40</Option>
    <Option name="UseBaggedGrad" modified="No">False</Option>
    <Option name="GradBaggingFraction" modified="No">6.000000e-01</Option>
    <Option name="UseNTrainEvents" modified="No">0</Option>
    <Option name="NNodesMax" modified="No">0</Option>
  </Options>
  <Variables NVar="10">
    <Variable VarIndex="0" Expression="absdEta_jj" Label="absdEta_jj" Title="#Delta#eta_{jj}" Unit="" Internal="absdEta_jj" Type="F" Min="1.57475471e-04" Max="9.25178719e+00"/>
    <Variable VarIndex="1" Expression="absdPhi_jj" Label="absdPhi_jj" Title="#Delta#phi_{jj}" Unit="" Internal="absdPhi_jj" Type="F" Min="3.79681587e-05" Max="3.14149642e+00"/>
    <Variable VarIndex="2" Expression="absdPhi_Zgjj" Label="absdPhi_Zgjj" Title="#Delta#phi_{Z#gammajj}" Unit="" Internal="absdPhi_Zgjj" Type="F" Min="2.63902330e-04" Max="3.14159179e+00"/>
    <Variable VarIndex="3" Expression="dR_phojet" Label="dR_phojet" Title="#Delta R(#gamma,j)" Unit="" Internal="dR_phojet" Type="F" Min="4.00033593e-01" Max="6.36954165e+00"/>
    <Variable VarIndex="4" Expression="ZgPTt" Label="ZgPTt" Title="pT_{t}^{Z#gamma}" Unit="" Internal="ZgPTt" Type="F" Min="2.69433949e-03" Max="1.46810074e+02"/>
    <Variable VarIndex="5" Expression="VBFPt1" Label="VBFPt1" Title="pT_{j1}" Unit="" Internal="VBFPt1" Type="F" Min="3.01188240e+01" Max="1.84898267e+03"/>
    <Variable VarIndex="6" Expression="VBFPt2" Label="VBFPt2" Title="pT_{j2}" Unit="" Internal="VBFPt2" Type="F" Min="3.00015831e+01" Max="1.61133337e+03"/>
    <Variable VarIndex="7" Expression="HZgMVA" Label="HZgMVA" Title="kinematic MVA" Unit="" Internal="HZgMVA" Type="F" Min="-6.87166691e-01" Max="4.51583564e-01"/>
    <Variable VarIndex="8" Expression="abssysbal" Label="abssysbal" Title="system balance" Unit="" Internal="abssysbal" Type="F" Min="2.71590966e-06" Max="1.33478391e+00"/>
    <Variable VarIndex="9" Expression="absZeppen_pho" Label="absZeppen_pho" Title="Zeppenfeld #gamma" Unit="" Internal="absZeppen_pho" Type="F" Min="1.23977661e-05" Max="6.42805862e+00"/>
  </Variables>
  <Spectators NSpec="0"/>
  <Classes NClass="2">
    <Class Name="Signal" Index="0"/>
    <Class Name="Background" Index="1"/>
  </Classes>
  <Transformations NTransformations="0"/>
  <MVAPdfs/>
  <Weights NTrees="1000" AnalysisType="0">
    <BinaryTree type="DecisionTree" boostWeight="9.0026184058701231e-01" itree="0">
      <Node pos="s" depth="0" NCoef="0" IVar="0" Cut="2.6434803009033203e+00" cType="0" res="-9.9000000000000000e+01" rms="0.0000000000000000e+00" purity="5.0000000000000000e-01" nType="0">
        <Node pos="l" depth="1" NCoef="0" IVar="2" Cut="2.6928300857543945e+00" cType="0" res="-9.9000000000000000e+01" rms="0.0000000000000000e+00" purity="7.7139222621917725e-01" nType="0">
          <Node pos="l" depth="2" NCoef="0" IVar="7" Cut="-9.1312818229198456e-02" cType="0" res="-9.9000000000000000e+01" rms="0.0000000000000000e+00" purity="8.5791456699371338e-01" nType="0">
            <Node pos="l" depth="3" NCoef="0" IVar="9" Cut="2.4930438995361328e+00" cType="1" res="-9.9000000000000000e+01" rms="0.0000000000000000e+00" purity="8.8134330511093140e-01" nType="0">
              <Node pos="l" depth="4" NCoef="0" IVar="-1" Cut="0.0000000000000000e+00" cType="1" res="-9.9000000000000000e+01" rms="0.0000000000000000e+00" purity="8.9964437484741211e-01" nType="1"/>
              <Node pos="r" depth="4" NCoef="0" IVar="-1" Cut="0.0000000000000000e+00" cType="1" res="-9.9000000000000000e+01" rms="0.0000000000000000e+00" purity="4.5001515746116638e-01" nType="-1"/>
            </Node>
            <Node pos="r" depth="3" NCoef="0" IVar="0" Cut="4.7596163749694824e+00" cType="0" res="-9.9000000000000000e+01" rms="0.0000000000000000e+00" purity="2.7515068650245667e-01" nType="0">
              <Node pos="l" depth="4" NCoef="0" IVar="-1" Cut="0.0000000000000000e+00" cType="1" res="-9.9000000000000000e+01" rms="0.0000000000000000e+00" purity="5.4100865125656128e-01" nType="1"/>
              <Node pos="r" depth="4" NCoef="0" IVar="-1" Cut="0.0000000000000000e+00" cType="1" res="-9.9000000000000000e+01" rms="0.0000000000000000e+00" purity="1.8114271759986877e-01" nType="-1"/>
            </Node>
          </Node>
          <Node pos="r" depth="2" NCoef="0" IVar="1" Cut="2.2438931465148926e+00" cType="0" res="-9.9000000000000000e+01" rms="0.0000000000000000e+00" purity="4.3040299415588379e-01" nType="0">
            <Node pos="l" depth="3" NCoef="0" IVar="9" Cut="2.1255893707275391e+00" cType="1" res="-9.9000000000000000e+01" rms="0.0000000000000000e+00" purity="5.6183868646621704e-01" nType="0">
              <Node pos="l" depth="4" NCoef="0" IVar="-1" Cut="0.0000000000000000e+00" cType="1" res="-9.9000000000000000e+01" rms="0.0000000000000000e+00" purity="6.2566626071929932e-01" nType="1"/>
              <Node pos="r" depth="4" NCoef="0" IVar="-1" Cut="0.0000000000000000e+00" cType="1" res="-9.9000000000000000e+01" rms="0.0000000000000000e+00" purity="1.8760164082050323e-01" nType="-1"/>
            </Node>
            <Node pos="r" depth="3" NCoef="0" IVar="-1" Cut="2.5649619102478027e+00" cType="0" res="-9.9000000000000000e+01" rms="0.0000000000000000e+00" purity="1.9877730309963226e-01" nType="-1"/>
          </Node>
        </Node>
        <Node pos="r" depth="1" NCoef="0" IVar="0" Cut="1.7621037960052490e+00" cType="0" res="-9.9000000000000000e+01" rms="0.0000000000000000e+00" purity="1.5053465962409973e-01" nType="0">
          <Node pos="l" depth="2" NCoef="0" IVar="2" Cut="2.8427259922027588e+00" cType="0" res="-9.9000000000000000e+01" rms="0.0000000000000000e+00" purity="3.4065517783164978e-01" nType="0">
            <Node pos="l" depth="3" NCoef="0" IVar="7" Cut="4.0250245481729507e-02" cType="0" res="-9.9000000000000000e+01" rms="0.0000000000000000e+00" purity="5.0299721956253052e-01" nType="0">
              <Node pos="l" depth="4" NCoef="0" IVar="-1" Cut="0.0000000000000000e+00" cType="1" res="-9.9000000000000000e+01" rms="0.0000000000000000e+00" purity="6.2698656320571899e-01" nType="1"/>
              <Node pos="r" depth="4" NCoef="0" IVar="-1" Cut="0.0000000000000000e+00" cType="1" res="-9.9000000000000000e+01" rms="0.0000000000000000e+00" purity="2.7265045046806335e-01" nType="-1"/>
            </Node>
            <Node pos="r" depth="3" NCoef="0" IVar="-1" Cut="1.6086338758468628e+00" cType="1" res="-9.9000000000000000e+01" rms="0.0000000000000000e+00" purity="1.7581607401371002e-01" nType="-1"/>
          </Node>
          <Node pos="r" depth="2" NCoef="0" IVar="-1" Cut="1.3425034284591675e+00" cType="0" res="-9.9000000000000000e+01" rms="0.0000000000000000e+00" purity="6.4805477857589722e-02" nType="-1"/>
        </Node>
      </Node>
    </BinaryTree>
    <BinaryTree type="DecisionTree" boostWeight="6.3213097789494210e-01" itree="1">
      <Node pos="s" depth="0" NCoef="0" IVar="0" Cut="3.5245878696441650e+00" cType="0" res="-9.9000000000000000e+01" rms="0.0000000000000000e+00" purity="4.8478552699089050e-01" nType="0">
        <Node pos="l" depth="1" NCoef="0" IVar="2" Cut="2.8427574634552002e+00" cType="0" res="-9.9000000000000000e+01" rms="0.0000000000000000e+00" purity="7.5744926929473877e-01" nType="0">
          <Node pos="l" depth="2" NCoef="0" IVar="8" Cut="1.9252179563045502e-01" cType="1" res="-9.9000000000000000e+01" rms="0.0000000000000000e+00" purity="8.6680889129638672e-01" nType="0">
            <Node pos="l" depth="3" NCoef="0" IVar="-1" Cut="-6.4962342381477356e-02" cType="0" res="-9.9000000000000000e+01" rms="0.0000000000000000e+00" purity="8.9153581857681274e-01" nType="1"/>
            <Node pos="r" depth="3" NCoef="0" IVar="7" Cut="4.8206813633441925e-02" cType="0" res="-9.9000000000000000e+01" rms="0.0000000000000000e+00" purity="4.5259663462638855e-01" nType="0">
              <Node pos="l" depth="4" NCoef="0" IVar="-1" Cut="0.0000000000000000e+00" cType="1" res="-9.9000000000000000e+01" rms="0.0000000000000000e+00" purity="6.9874536991119385e-01" nType="1"/>
              <Node pos="r" depth="4" NCoef="0" IVar="-1" Cut="0.0000000000000000e+00" cType="1" res="-9.9000000000000000e+01" rms="0.0000000000000000e+00" purity="1.9037519395351410e-01" nType="-1"/>
            </Node>
          </Node>
          <Node pos="r" depth="2" NCoef="0" IVar="2" Cut="2.1667864322662354e+00" cType="0" res="-9.9000000000000000e+01" rms="0.0000000000000000e+00" purity="5.0165081024169922e-01" nType="0">
            <Node pos="l" depth="3" NCoef="0" IVar="7" Cut="-9.3274772167205811e-02" cType="0" res="-9.9000000000000000e+01" rms="0.0000000000000000e+00" purity="6.0724270343780518e-01" nType="0">
              <Node pos="l" depth="4" NCoef="0" IVar="-1" Cut="0.0000000000000000e+00" cType="1" res="-9.9000000000000000e+01" rms="0.0000000000000000e+00" purity="6.5083551406860352e-01" nType="1"/>
              <Node pos="r" depth="4" NCoef="0" IVar="-1" Cut="0.0000000000000000e+00" cType="1" res="-9.9000000000000000e+01" rms="0.0000000000000000e+00" purity="1.6946439445018768e-01" nType="-1"/>
            </Node>
            <Node pos="r" depth="3" NCoef="0" IVar="-1" Cut="4.5677932739257812e+01" cType="0" res="-9.9000000000000000e+01" rms="0.0000000000000000e+00" purity="2.6383844017982483e-01" nType="-1"/>
          </Node>
        </Node>
        <Node pos="r" depth="1" NCoef="0" IVar="0" Cut="1.3427052497863770e+00" cType="0" res="-9.9000000000000000e+01" rms="0.0000000000000000e+00" purity="2.9628151655197144e-01" nType="0">
          <Node pos="l" depth="2" NCoef="0" IVar="8" Cut="1.8083666265010834e-01" cType="1" res="-9.9000000000000000e+01" rms="0.0000000000000000e+00" purity="4.0412607789039612e-01" nType="0">
            <Node pos="l" depth="3" NCoef="0" IVar="9" Cut="1.3399167060852051e+00" cType="1" res="-9.9000000000000000e+01" rms="0.0000000000000000e+00" purity="4.8530802130699158e-01" nType="0">
              <Node pos="l" depth="4" NCoef="0" IVar="-1" Cut="0.0000000000000000e+00" cType="1" res="-9.9000000000000000e+01" rms="0.0000000000000000e+00" purity="5.7037293910980225e-01" nType="1"/>
              <Node pos="r" depth="4" NCoef="0" IVar="-1" Cut="0.0000000000000000e+00" cType="1" res="-9.9000000000000000e+01" rms="0.0000000000000000e+00" purity="2.9858690500259399e-01" nType="-1"/>
            </Node>
            <Node pos="r" depth="3" NCoef="0" IVar="-1" Cut="1.0779000818729401e-01" cType="0" res="-9.9000000000000000e+01" rms="0.0000000000000000e+00" purity="2.0569385588169098e-01" nType="-1"/>
          </Node>
          <Node pos="r" depth="2" NCoef="0" IVar="-1" Cut="7.2000145912170410e-02" cType="0" res="-9.9000000000000000e+01" rms="0.0000000000000000e+00" purity="9.5656678080558777e-02" nType="-1"/>
        </Node>
      </Node>
    </BinaryTree>
    <BinaryTree type="DecisionTree" boostWeight="5.3627509422240305e-01" itree="2">
      <Node pos="s" depth="0" NCoef="0" IVar="0" Cut="3.9651415348052979e+00" cType="0" res="-9.9000000000000000e+01" rms="0.0000000000000000e+00" purity="4.6573075652122498e-01" nType="0">
        <Node pos="l" depth="1" NCoef="0" IVar="8" Cut="1.9038386642932892e-01" cType="1" res="-9.9000000000000000e+01" rms="0.0000000000000000e+00" purity="7.3394054174423218e-01" nType="0">
          <Node pos="l" depth="2" NCoef="0" IVar="7" Cut="3.1587779521942139e-02" cType="0" res="-9.9000000000000000e+01" rms="0.0000000000000000e+00" purity="8.0253118276596069e-01" nType="0">
            <Node pos="l" depth="3" NCoef="0" IVar="4" Cut="6.7638145446777344e+01" cType="1" res="-9.9000000000000000e+01" rms="0.0000000000000000e+00" purity="8.7516713142395020e-01" nType="0">
              <Node pos="l" depth="4" NCoef="0" IVar="-1" Cut="0.0000000000000000e+00" cType="1" res="-9.9000000000000000e+01" rms="0.0000000000000000e+00" purity="8.8550311326980591e-01" nType="1"/>
              <Node pos="r" depth="4" NCoef="0" IVar="-1" Cut="0.0000000000000000e+00" cType="1" res="-9.9000000000000000e+01" rms="0.0000000000000000e+00" purity="2.4500048160552979e-01" nType="-1"/>
            </Node>
            <Node pos="r" depth="3" NCoef="0" IVar="7" Cut="-1.2382398545742035e-01" cType="0" res="-9.9000000000000000e+01" rms="0.0000000000000000e+00" purity="6.2011402845382690e-01" nType="0">
              <Node pos="l" depth="4" NCoef="0" IVar="-1" Cut="0.0000000000000000e+00" cType="1" res="-9.9000000000000000e+01" rms="0.0000000000000000e+00" purity="6.7004787921905518e-01" nType="1"/>
              <Node pos="r" depth="4" NCoef="0" IVar="-1" Cut="0.0000000000000000e+00" cType="1" res="-9.9000000000000000e+01" rms="0.0000000000000000e+00" purity="2.4430902302265167e-01" nType="-1"/>
            </Node>
          </Node>
          <Node pos="r" depth="2" NCoef="0" IVar="7" Cut="3.1800664961338043e-02" cType="0" res="-9.9000000000000000e+01" rms="0.0000000000000000e+00" purity="3.9454233646392822e-01" nType="0">
            <Node pos="l" depth="3" NCoef="0" IVar="0" Cut="5.4126272201538086e+00" cType="0" res="-9.9000000000000000e+01" rms="0.0000000000000000e+00" purity="5.3847223520278931e-01" nType="0">
              <Node pos="l" depth="4" NCoef="0" IVar="-1" Cut="0.0000000000000000e+00" cType="1" res="-9.9000000000000000e+01" rms="0.0000000000000000e+00" purity="7.0379710197448730e-01" nType="1"/>
              <Node pos="r" depth="4" NCoef="0" IVar="-1" Cut="0.0000000000000000e+00" cType="1" res="-9.9000000000000000e+01" rms="0.0000000000000000e+00" purity="4.4373053312301636e-01" nType="-1"/>
            </Node>
            <Node pos="r" depth="3" NCoef="0" IVar="-1" Cut="1.6466100215911865e+00" cType="0" res="-9.9000000000000000e+01" rms="0.0000000000000000e+00" purity="2.4451903998851776e-01" nType="-1"/>
          </Node>
        </Node>
        <Node pos="r" depth="1" NCoef="0" IVar="0" Cut="2.0769808292388916e+00" cType="0" res="-9.9000000000000000e+01" rms="0.0000000000000000e+00" purity="3.4243929386138916e-01" nType="0">
          <Node pos="l" depth="2" NCoef="0" IVar="7" Cut="1.5050075016915798e-02" cType="0" res="-9.9000000000000000e+01" rms="0.0000000000000000e+00" purity="4.5304352045059204e-01" nType="0">
            <Node pos="l" depth="3" NCoef="0" IVar="5" Cut="7.4477600097656250e+01" cType="0" res="-9.9000000000000000e+01" rms="0.0000000000000000e+00" purity="5.4043716192245483e-01" nType="0">
              <Node pos="l" depth="4" NCoef="0" IVar="-1" Cut="0.0000000000000000e+00" cType="1" res="-9.9000000000000000e+01" rms="0.0000000000000000e+00" purity="6.3097161054611206e-01" nType="1"/>
              <Node pos="r" depth="4" NCoef="0" IVar="-1" Cut="0.0000000000000000e+00" cType="1" res="-9.9000000000000000e+01" rms="0.0000000000000000e+00" purity="3.8947394490242004e-01" nType="-1"/>
            </Node>
            <Node pos="r" depth="3" NCoef="0" IVar="-1" Cut="5.7416259765625000e+01" cType="0" res="-9.9000000000000000e+01" rms="0.0000000000000000e+00" purity="2.6127991080284119e-01" nType="-1"/>
          </Node>
          <Node pos="r" depth="2" NCoef="0" IVar="7" Cut="1.2622635066509247e-01" cType="0" res="-9.9000000000000000e+01" rms="0.0000000000000000e+00" purity="2.1554523706436157e-01" nType="0">
            <Node pos="l" depth="3" NCoef="0" IVar="0" Cut="1.0879803895950317e+00" cType="0" res="-9.9000000000000000e+01" rms="0.0000000000000000e+00" purity="4.2596724629402161e-01" nType="0">
              <Node pos="l" depth="4" NCoef="0" IVar="-1" Cut="0.0000000000000000e+00" cType="1" res="-9.9000000000000000e+01" rms="0.0000000000000000e+00" purity="5.1978343725204468e-01" nType="1"/>
              <Node pos="r" depth="4" NCoef="0" IVar="-1" Cut="0.0000000000000000e+00" cType="1" res="-9.9000000000000000e+01" rms="0.0000000000000000e+00" purity="2.7836179733276367e-01" nType="-1"/>
            </Node>
            <Node pos="r" depth="3" NCoef="0" IVar="-1" Cut="-6.7451737821102142e-02" cType="0" res="-9.9000000000000000e+01" rms="0.0000000000000000e+00" purity="1.8059623241424561e-01" nType="-1"/>
          </Node>
        </Node>
      </Node>
    </BinaryTree>
    <BinaryTree type="DecisionTree" boostWeight="3.7644801601633887e-01" itree="3">
      <Node pos="s" depth="0" NCoef="0" IVar="0" Cut="3.9651415348052979e+00" cType="0" res="-9.9000000000000000e+01" rms="0.0000000000000000e+00" purity="4.7720637917518616e-01" nType="0">
        <Node pos="l" depth="1" NCoef="0" IVar="2" Cut="2.9921741485595703e+00" cType="0" res="-9.9000000000000000e+01" rms="0.0000000000000000e+00" purity="6.7647475004196167e-01" nType="0">
          <Node pos="l" depth="2" NCoef="0" IVar="7" Cut="-1.8609182909131050e-02" cType="0" res="-9.9000000000000000e+01" rms="0.0000000000000000e+00" purity="8.4069502353668213e-01" nType="0">
            <Node pos="l" depth="3" NCoef="0" IVar="-1" Cut="7.2711206972599030e-02" cType="1" res="-9.9000000000000000e+01" rms="0.0000000000000000e+00" purity="8.7846046686172485e-01" nType="1"/>
            <Node pos="r" depth="3" NCoef="0" IVar="9" Cut="1.0655745267868042e+00" cType="1" res="-9.9000000000000000e+01" rms="0.0000000000000000e+00" purity="5.1288998126983643e-01" nType="0">
              <Node pos="l" depth="4" NCoef="0" IVar="-1" Cut="0.0000000000000000e+00" cType="1" res="-9.9000000000000000e+01" rms="0.0000000000000000e+00" purity="7.3286783695220947e-01" nType="1"/>
              <Node pos="r" depth="4" NCoef="0" IVar="-1" Cut="0.0000000000000000e+00" cType="1" res="-9.9000000000000000e+01" rms="0.0000000000000000e+00" purity="3.1806623935699463e-01" nType="-1"/>
            </Node>
          </Node>
          <Node pos="r" depth="2" NCoef="0" IVar="6" Cut="4.5649227142333984e+01" cType="0" res="-9.9000000000000000e+01" rms="0.0000000000000000e+00" purity="5.3260886669158936e-01" nType="0">
            <Node pos="l" depth="3" NCoef="0" IVar="-1" Cut="1.2974350452423096e+00" cType="1" res="-9.9000000000000000e+01" rms="0.0000000000000000e+00" purity="6.8722391128540039e-01" nType="1"/>
            <Node pos="r" depth="3" NCoef="0" IVar="9" Cut="1.4254014492034912e+00" cType="1" res="-9.9000000000000000e+01" rms="0.0000000000000000e+00" purity="4.1115787625312805e-01" nType="0">
              <Node pos="l" depth="4" NCoef="0" IVar="-1" Cut="0.0000000000000000e+00" cType="1" res="-9.9000000000000000e+01" rms="0.0000000000000000e+00" purity="5.0043445825576782e-01" nType="1"/>
              <Node pos="r" depth="4" NCoef="0" IVar="-1" Cut="0.0000000000000000e+00" cType="1" res="-9.9000000000000000e+01" rms="0.0000000000000000e+00" purity="2.6204580068588257e-01" nType="-1"/>
            </Node>
          </Node>
        </Node>
        <Node pos="r" depth="1" NCoef="0" IVar="7" Cut="-3.6452259868383408e-02" cType="0" res="-9.9000000000000000e+01" rms="0.0000000000000000e+00" purity="3.9004981517791748e-01" nType="0">
          <Node pos="l" depth="2" NCoef="0" IVar="4" Cut="6.2205642700195312e+01" cType="1" res="-9.9000000000000000e+01" rms="0.0000000000000000e+00" purity="4.3274924159049988e-01" nType="0">
            <Node pos="l" depth="3" NCoef="0" IVar="4" Cut="3.5546443939208984e+01" cType="0" res="-9.9000000000000000e+01" rms="0.0000000000000000e+00" purity="4.5862767100334167e-01" nType="0">
              <Node pos="l" depth="4" NCoef="0" IVar="-1" Cut="0.0000000000000000e+00" cType="1" res="-9.9000000000000000e+01" rms="0.0000000000000000e+00" purity="5.7197040319442749e-01" nType="1"/>
              <Node pos="r" depth="4" NCoef="0" IVar="-1" Cut="0.0000000000000000e+00" cType="1" res="-9.9000000000000000e+01" rms="0.0000000000000000e+00" purity="3.8322827219963074e-01" nType="-1"/>
            </Node>
            <Node pos="r" depth="3" NCoef="0" IVar="-1" Cut="7.8003463745117188e+01" cType="1" res="-9.9000000000000000e+01" rms="0.0000000000000000e+00" purity="8.4148056805133820e-02" nType="-1"/>
          </Node>
          <Node pos="r" depth="2" NCoef="0" IVar="-1" Cut="1.8881787061691284e+00" cType="0" res="-9.9000000000000000e+01" rms="0.0000000000000000e+00" purity="1.9351382553577423e-01" nType="-1"/>
        </Node>
      </Node>
    </BinaryTree>
    <BinaryTree type="DecisionTree" boostWeight="3.1544752781604102e-01" itree="4">
      <Node pos="s" depth="0" NCoef="0" IVar="0" Cut="2.2029263973236084e+00" cType="0" res="-9.9000000000000000e+01" rms="0.0000000000000000e+00" purity="4.8055079579353333e-01" nType="0">
        <Node pos="l" depth="1" NCoef="0" IVar="2" Cut="2.9920041561126709e+00" cType="0" res="-9.9000000000000000e+01" rms="0.0000000000000000e+00" purity="5.5728626251220703e-01" nType="0">
          <Node pos="l" depth="2" NCoef="0" IVar="8" Cut="8.2089498639106750e-02" cType="1" res="-9.9000000000000000e+01" rms="0.0000000000000000e+00" purity="6.9932210445404053e-01" nType="0">
            <Node pos="l" depth="3" NCoef="0" IVar="-1" Cut="3.8114132881164551e+00" cType="0" res="-9.9000000000000000e+01" rms="0.0000000000000000e+00" purity="7.6386183500289917e-01" nType="1"/>
            <Node pos="r" depth="3" NCoef="0" IVar="7" Cut="1.7459441721439362e-01" cType="0" res="-9.9000000000000000e+01" rms="0.0000000000000000e+00" purity="5.3715986013412476e-01" nType="0">
              <Node pos="l" depth="4" NCoef="0" IVar="-1" Cut="0.0000000000000000e+00" cType="1" res="-9.9000000000000000e+01" rms="0.0000000000000000e+00" purity="8.5671520233154297e-01" nType="1"/>
              <Node pos="r" depth="4" NCoef="0" IVar="-1" Cut="0.0000000000000000e+00" cType="1" res="-9.9000000000000000e+01" rms="0.0000000000000000e+00" purity="4.8956301808357239e-01" nType="-1"/>
            </Node>
          </Node>
          <Node pos="r" depth="2" NCoef="0" IVar="6" Cut="6.0824047088623047e+01" cType="0" res="-9.9000000000000000e+01" rms="0.0000000000000000e+00" purity="4.5865327119827271e-01" nType="0">
            <Node pos="l" depth="3" NCoef="0" IVar="3" Cut="1.3517431020736694e+00" cType="0" res="-9.9000000000000000e+01" rms="0.0000000000000000e+00" purity="5.9960150718688965e-01" nType="0">
              <Node pos="l" depth="4" NCoef="0" IVar="-1" Cut="0.0000000000000000e+00" cType="1" res="-9.9000000000000000e+01" rms="0.0000000000000000e+00" purity="6.4111280441284180e-01" nType="1"/>
              <Node pos="r" depth="4" NCoef="0" IVar="-1" Cut="0.0000000000000000e+00" cType="1" res="-9.9000000000000000e+01" rms="0.0000000000000000e+00" purity="3.9657342433929443e-01" nType="-1"/>
            </Node>
            <Node pos="r" depth="3" NCoef="0" IVar="-1" Cut="3.7340053558349609e+01" cType="0" res="-9.9000000000000000e+01" rms="0.0000000000000000e+00" purity="4.1108569502830505e-01" nType="-1"/>
          </Node>
        </Node>
        <Node pos="r" depth="1" NCoef="0" IVar="-1" Cut="3.8137692213058472e-01" cType="1" res="-9.9000000000000000e+01" rms="0.0000000000000000e+00" purity="3.2827830314636230e-01" nType="-1"/>
      </Node>
    </BinaryTree>
    <BinaryTree type="DecisionTree" boostWeight="2.2162351958210036e-01" itree="5">
      <Node pos="s" depth="0" NCoef="0" IVar="0" Cut="4.8462491035461426e+00" cType="0" res="-9.9000000000000000e+01" rms="0.0000000000000000e+00" purity="5.1453453302383423e-01" nType="0">
        <Node pos="l" depth="1" NCoef="0" IVar="7" Cut="4.8238776624202728e-02" cType="0" res="-9.9000000000000000e+01" rms="0.0000000000000000e+00" purity="7.1676731109619141e-01" nType="0">
          <Node pos="l" depth="2" NCoef="0" IVar="8" Cut="1.2692600488662720e-01" cType="1" res="-9.9000000000000000e+01" rms="0.0000000000000000e+00" purity="8.3268636465072632e-01" nType="0">
            <Node pos="l" depth="3" NCoef="0" IVar="-1" Cut="7.8492119908332825e-02" cType="1" res="-9.9000000000000000e+01" rms="0.0000000000000000e+00" purity="8.9267891645431519e-01" nType="1"/>
            <Node pos="r" depth="3" NCoef="0" IVar="2" Cut="2.2552382946014404e+00" cType="0" res="-9.9000000000000000e+01" rms="0.0000000000000000e+00" purity="6.7045557498931885e-01" nType="0">
              <Node pos="l" depth="4" NCoef="0" IVar="-1" Cut="0.0000000000000000e+00" cType="1" res="-9.9000000000000000e+01" rms="0.0000000000000000e+00" purity="7.1385169029235840e-01" nType="1"/>
              <Node pos="r" depth="4" NCoef="0" IVar="-1" Cut="0.0000000000000000e+00" cType="1" res="-9.9000000000000000e+01" rms="0.0000000000000000e+00" purity="4.8298195004463196e-01" nType="-1"/>
            </Node>
          </Node>
          <Node pos="r" depth="2" NCoef="0" IVar="1" Cut="1.3479162454605103e+00" cType="0" res="-9.9000000000000000e+01" rms="0.0000000000000000e+00" purity="5.6444561481475830e-01" nType="0">
            <Node pos="l" depth="3" NCoef="0" IVar="-1" Cut="2.8426403999328613e+00" cType="0" res="-9.9000000000000000e+01" rms="0.0000000000000000e+00" purity="6.2923449277877808e-01" nType="1"/>
            <Node pos="r" depth="3" NCoef="0" IVar="2" Cut="2.9926095008850098e+00" cType="0" res="-9.9000000000000000e+01" rms="0.0000000000000000e+00" purity="3.2073375582695007e-01" nType="0">
              <Node pos="l" depth="4" NCoef="0" IVar="-1" Cut="0.0000000000000000e+00" cType="1" res="-9.9000000000000000e+01" rms="0.0000000000000000e+00" purity="5.1043629646301270e-01" nType="1"/>
              <Node pos="r" depth="4" NCoef="0" IVar="-1" Cut="0.0000000000000000e+00" cType="1" res="-9.9000000000000000e+01" rms="0.0000000000000000e+00" purity="1.5526351332664490e-01" nType="-1"/>
            </Node>
          </Node>
        </Node>
        <Node pos="r" depth="1" NCoef="0" IVar="4" Cut="6.2920303344726562e+01" cType="1" res="-9.9000000000000000e+01" rms="0.0000000000000000e+00" purity="4.7351619601249695e-01" nType="0">
          <Node pos="l" depth="2" NCoef="0" IVar="7" Cut="-1.3921716809272766e-01" cType="0" res="-9.9000000000000000e+01" rms="0.0000000000000000e+00" purity="4.9398073554039001e-01" nType="0">
            <Node pos="l" depth="3" NCoef="0" IVar="8" Cut="3.8136878609657288e-01" cType="1" res="-9.9000000000000000e+01" rms="0.0000000000000000e+00" purity="5.1287317276000977e-01" nType="0">
              <Node pos="l" depth="4" NCoef="0" IVar="-1" Cut="0.0000000000000000e+00" cType="1" res="-9.9000000000000000e+01" rms="0.0000000000000000e+00" purity="5.3177088499069214e-01" nType="1"/>
              <Node pos="r" depth="4" NCoef="0" IVar="-1" Cut="0.0000000000000000e+00" cType="1" res="-9.9000000000000000e+01" rms="0.0000000000000000e+00" purity="2.0404660701751709e-01" nType="-1"/>
            </Node>
            <Node pos="r" depth="3" NCoef="0" IVar="-1" Cut="-1.9039987027645111e-01" cType="0" res="-9.9000000000000000e+01" rms="0.0000000000000000e+00" purity="1.4435154199600220e-01" nType="-1"/>
          </Node>
          <Node pos="r" depth="2" NCoef="0" IVar="-1" Cut="7.8911598205566406e+01" cType="1" res="-9.9000000000000000e+01" rms="0.0000000000000000e+00" purity="1.1757685244083405e-01" nType="-1"/>
        </Node>
      </Node>
    </BinaryTree>
    <BinaryTree type="DecisionTree" boostWeight="2.5749751346245553e-01" itree="6">
      <Node pos="s" depth="0" NCoef="0" IVar="0" Cut="4.8462491035461426e+00" cType="0" res="-9.9000000000000000e+01" rms="0.0000000000000000e+00" purity="4.7435835003852844e-01" nType="0">
        <Node pos="l" depth="1" NCoef="0" IVar="7" Cut="4.8238776624202728e-02" cType="0" res="-9.9000000000000000e+01" rms="0.0000000000000000e+00" purity="6.8010133504867554e-01" nType="0">
          <Node pos="l" depth="2" NCoef="0" IVar="-1" Cut="6.3468150794506073e-02" cType="1" res="-9.9000000000000000e+01" rms="0.0000000000000000e+00" purity="8.0566835403442383e-01" nType="1"/>
          <Node pos="r" depth="2" NCoef="0" IVar="5" Cut="4.5085815429687500e+01" cType="0" res="-9.9000000000000000e+01" rms="0.0000000000000000e+00" purity="5.2234381437301636e-01" nType="0">
            <Node pos="l" depth="3" NCoef="0" IVar="8" Cut="4.5274245738983154e-01" cType="1" res="-9.9000000000000000e+01" rms="0.0000000000000000e+00" purity="5.8555662631988525e-01" nType="0">
              <Node pos="l" depth="4" NCoef="0" IVar="-1" Cut="0.0000000000000000e+00" cType="1" res="-9.9000000000000000e+01" rms="0.0000000000000000e+00" purity="6.0786259174346924e-01" nType="1"/>
              <Node pos="r" depth="4" NCoef="0" IVar="-1" Cut="0.0000000000000000e+00" cType="1" res="-9.9000000000000000e+01" rms="0.0000000000000000e+00" purity="8.1516847014427185e-02" nType="-1"/>
            </Node>
            <Node pos="r" depth="3" NCoef="0" IVar="-1" Cut="2.3409642279148102e-01" cType="1" res="-9.9000000000000000e+01" rms="0.0000000000000000e+00" purity="3.1818532943725586e-01" nType="-1"/>
          </Node>
        </Node>
        <Node pos="r" depth="1" NCoef="0" IVar="0" Cut="9.2321181297302246e-01" cType="0" res="-9.9000000000000000e+01" rms="0.0000000000000000e+00" purity="4.3423122167587280e-01" nType="0">
          <Node pos="l" depth="2" NCoef="0" IVar="4" Cut="6.2921070098876953e+01" cType="1" res="-9.9000000000000000e+01" rms="0.0000000000000000e+00" purity="4.6435442566871643e-01" nType="0">
            <Node pos="l" depth="3" NCoef="0" IVar="7" Cut="1.2141297012567520e-01" cType="0" res="-9.9000000000000000e+01" rms="0.0000000000000000e+00" purity="4.7996285557746887e-01" nType="0">
              <Node pos="l" depth="4" NCoef="0" IVar="-1" Cut="0.0000000000000000e+00" cType="1" res="-9.9000000000000000e+01" rms="0.0000000000000000e+00" purity="6.1466968059539795e-01" nType="1"/>
              <Node pos="r" depth="4" NCoef="0" IVar="-1" Cut="0.0000000000000000e+00" cType="1" res="-9.9000000000000000e+01" rms="0.0000000000000000e+00" purity="4.4440096616744995e-01" nType="-1"/>
            </Node>
            <Node pos="r" depth="3" NCoef="0" IVar="-1" Cut="7.8912307739257812e+01" cType="1" res="-9.9000000000000000e+01" rms="0.0000000000000000e+00" purity="1.5068152546882629e-01" nType="-1"/>
          </Node>
          <Node pos="r" depth="2" NCoef="0" IVar="1" Cut="1.4959691762924194e+00" cType="0" res="-9.9000000000000000e+01" rms="0.0000000000000000e+00" purity="2.4718548357486725e-01" nType="0">
            <Node pos="l" depth="3" NCoef="0" IVar="7" Cut="9.0495340526103973e-02" cType="0" res="-9.9000000000000000e+01" rms="0.0000000000000000e+00" purity="3.1397479772567749e-01" nType="0">
              <Node pos="l" depth="4" NCoef="0" IVar="-1" Cut="0.0000000000000000e+00" cType="1" res="-9.9000000000000000e+01" rms="0.0000000000000000e+00" purity="5.1339179277420044e-01" nType="1"/>
              <Node pos="r" depth="4" NCoef="0" IVar="-1" Cut="0.0000000000000000e+00" cType="1" res="-9.9000000000000000e+01" rms="0.0000000000000000e+00" purity="2.5759655237197876e-01" nType="-1"/>
            </Node>
            <Node pos="r" depth="3" NCoef="0" IVar="-1" Cut="2.7608340978622437e-01" cType="1" res="-9.9000000000000000e+01" rms="0.0000000000000000e+00" purity="8.5121743381023407e-02" nType="-1"/>
          </Node>
        </Node>
      </Node>
    </BinaryTree>
    <BinaryTree type="DecisionTree" boostWeight="1.8092474401716005e-01" itree="7">
      <Node pos="s" depth="0" NCoef="0" IVar="0" Cut="8.8126504421234131e-01" cType="0" res="-9.9000000000000000e+01" rms="0.0000000000000000e+00" purity="4.9926796555519104e-01" nType="0">
        <Node pos="l" depth="1" NCoef="0" IVar="4" Cut="6.2920143127441406e+01" cType="1" res="-9.9000000000000000e+01" rms="0.0000000000000000e+00" purity="5.2585017681121826e-01" nType="0">
          <Node pos="l" depth="2" NCoef="0" IVar="7" Cut="-1.4449426531791687e-01" cType="0" res="-9.9000000000000000e+01" rms="0.0000000000000000e+00" purity="5.4072350263595581e-01" nType="0">
            <Node pos="l" depth="3" NCoef="0" IVar="-1" Cut="5.2658605575561523e+00" cType="0" res="-9.9000000000000000e+01" rms="0.0000000000000000e+00" purity="5.5358791351318359e-01" nType="1"/>
            <Node pos="r" depth="3" NCoef="0" IVar="-1" Cut="-1.9517864286899567e-01" cType="0" res="-9.9000000000000000e+01" rms="0.0000000000000000e+00" purity="2.1959587931632996e-01" nType="-1"/>
          </Node>
          <Node pos="r" depth="2" NCoef="0" IVar="-1" Cut="7.8900856018066406e+01" cType="1" res="-9.9000000000000000e+01" rms="0.0000000000000000e+00" purity="1.9117633998394012e-01" nType="-1"/>
        </Node>
        <Node pos="r" depth="1" NCoef="0" IVar="1" Cut="1.6455419063568115e+00" cType="0" res="-9.9000000000000000e+01" rms="0.0000000000000000e+00" purity="2.7759850025177002e-01" nType="0">
          <Node pos="l" depth="2" NCoef="0" IVar="2" Cut="2.5434982776641846e+00" cType="0" res="-9.9000000000000000e+01" rms="0.0000000000000000e+00" purity="3.5084959864616394e-01" nType="0">
            <Node pos="l" depth="3" NCoef="0" IVar="9" Cut="1.1690899133682251e+00" cType="1" res="-9.9000000000000000e+01" rms="0.0000000000000000e+00" purity="4.2997062206268311e-01" nType="0">
              <Node pos="l" depth="4" NCoef="0" IVar="-1" Cut="0.0000000000000000e+00" cType="1" res="-9.9000000000000000e+01" rms="0.0000000000000000e+00" purity="5.0986635684967041e-01" nType="1"/>
              <Node pos="r" depth="4" NCoef="0" IVar="-1" Cut="0.0000000000000000e+00" cType="1" res="-9.9000000000000000e+01" rms="0.0000000000000000e+00" purity="2.6407542824745178e-01" nType="-1"/>
            </Node>
            <Node pos="r" depth="3" NCoef="0" IVar="-1" Cut="1.6610972583293915e-01" cType="1" res="-9.9000000000000000e+01" rms="0.0000000000000000e+00" purity="1.9291871786117554e-01" nType="-1"/>
          </Node>
          <Node pos="r" depth="2" NCoef="0" IVar="-1" Cut="2.7608340978622437e-01" cType="1" res="-9.9000000000000000e+01" rms="0.0000000000000000e+00" purity="1.1286669969558716e-01" nType="-1"/>
        </Node>
      </Node>
    </BinaryTree>
    <BinaryTree type="DecisionTree" boostWeight="2.3614995566453717e-01" itree="8">
      <Node pos="s" depth="0" NCoef="0" IVar="0" Cut="3.0840339660644531e+00" cType="0" res="-9.9000000000000000e+01" rms="0.0000000000000000e+00" purity="4.6667343378067017e-01" nType="0">
        <Node pos="l" depth="1" NCoef="0" IVar="2" Cut="2.9920041561126709e+00" cType="0" res="-9.9000000000000000e+01" rms="0.0000000000000000e+00" purity="5.3748500347137451e-01" nType="0">
          <Node pos="l" depth="2" NCoef="0" IVar="9" Cut="2.0422363281250000e+00" cType="1" res="-9.9000000000000000e+01" rms="0.0000000000000000e+00" purity="6.6448462009429932e-01" nType="0">
            <Node pos="l" depth="3" NCoef="0" IVar="-1" Cut="4.5794105529785156e+01" cType="0" res="-9.9000000000000000e+01" rms="0.0000000000000000e+00" purity="7.0771825313568115e-01" nType="1"/>
            <Node pos="r" depth="3" NCoef="0" IVar="0" Cut="5.0040798187255859e+00" cType="0" res="-9.9000000000000000e+01" rms="0.0000000000000000e+00" purity="4.1324636340141296e-01" nType="0">
              <Node pos="l" depth="4" NCoef="0" IVar="-1" Cut="0.0000000000000000e+00" cType="1" res="-9.9000000000000000e+01" rms="0.0000000000000000e+00" purity="6.4281791448593140e-01" nType="1"/>
              <Node pos="r" depth="4" NCoef="0" IVar="-1" Cut="0.0000000000000000e+00" cType="1" res="-9.9000000000000000e+01" rms="0.0000000000000000e+00" purity="3.2043728232383728e-01" nType="-1"/>
            </Node>
          </Node>
          <Node pos="r" depth="2" NCoef="0" IVar="9" Cut="7.4793177843093872e-01" cType="1" res="-9.9000000000000000e+01" rms="0.0000000000000000e+00" purity="4.5469573140144348e-01" nType="0">
            <Node pos="l" depth="3" NCoef="0" IVar="5" Cut="5.9242454528808594e+01" cType="0" res="-9.9000000000000000e+01" rms="0.0000000000000000e+00" purity="5.4449200630187988e-01" nType="0">
              <Node pos="l" depth="4" NCoef="0" IVar="-1" Cut="0.0000000000000000e+00" cType="1" res="-9.9000000000000000e+01" rms="0.0000000000000000e+00" purity="6.0707962512969971e-01" nType="1"/>
              <Node pos="r" depth="4" NCoef="0" IVar="-1" Cut="0.0000000000000000e+00" cType="1" res="-9.9000000000000000e+01" rms="0.0000000000000000e+00" purity="4.1966256499290466e-01" nType="-1"/>
            </Node>
            <Node pos="r" depth="3" NCoef="0" IVar="-1" Cut="1.6457657814025879e+00" cType="0" res="-9.9000000000000000e+01" rms="0.0000000000000000e+00" purity="3.9585262537002563e-01" nType="-1"/>
          </Node>
        </Node>
        <Node pos="r" depth="1" NCoef="0" IVar="-1" Cut="1.7951570749282837e+00" cType="0" res="-9.9000000000000000e+01" rms="0.0000000000000000e+00" purity="4.0588524937629700e-01" nType="-1"/>
      </Node>
    </BinaryTree>
    <BinaryTree type="DecisionTree" boostWeight="1.6516499384343211e-01" itree="9">
      <Node pos="s" depth="0" NCoef="0" IVar="8" Cut="5.0849080085754395e-01" cType="1" res="-9.9000000000000000e+01" rms="0.0000000000000000e+00" purity="4.9752074480056763e-01" nType="0">
        <Node pos="l" depth="1" NCoef="0" IVar="9" Cut="1.8365970849990845e+00" cType="1" res="-9.9000000000000000e+01" rms="0.0000000000000000e+00" purity="5.0630104541778564e-01" nType="0">
          <Node pos="l" depth="2" NCoef="0" IVar="4" Cut="6.2920143127441406e+01" cType="1" res="-9.9000000000000000e+01" rms="0.0000000000000000e+00" purity="5.3230941295623779e-01" nType="0">
            <Node pos="l" depth="3" NCoef="0" IVar="7" Cut="-2.2453583776950836e-01" cType="0" res="-9.9000000000000000e+01" rms="0.0000000000000000e+00" purity="5.4445683956146240e-01" nType="0">
              <Node pos="l" depth="4" NCoef="0" IVar="-1" Cut="0.0000000000000000e+00" cType="1" res="-9.9000000000000000e+01" rms="0.0000000000000000e+00" purity="5.5121177434921265e-01" nType="1"/>
              <Node pos="r" depth="4" NCoef="0" IVar="-1" Cut="0.0000000000000000e+00" cType="1" res="-9.9000000000000000e+01" rms="0.0000000000000000e+00" purity="8.9017674326896667e-02" nType="-1"/>
            </Node>
            <Node pos="r" depth="3" NCoef="0" IVar="-1" Cut="7.8900856018066406e+01" cType="1" res="-9.9000000000000000e+01" rms="0.0000000000000000e+00" purity="2.5266519188880920e-01" nType="-1"/>
          </Node>
          <Node pos="r" depth="2" NCoef="0" IVar="-1" Cut="1.2644524574279785e+00" cType="0" res="-9.9000000000000000e+01" rms="0.0000000000000000e+00" purity="3.7505540251731873e-01" nType="-1"/>
        </Node>
        <Node pos="r" depth="1" NCoef="0" IVar="0" Cut="3.3242864608764648e+00" cType="0" res="-9.9000000000000000e+01" rms="0.0000000000000000e+00" purity="5.4183814674615860e-02" nType="0">
          <Node pos="l" depth="2" NCoef="0" IVar="0" Cut="3.5815117359161377e+00" cType="1" res="-9.9000000000000000e+01" rms="0.0000000000000000e+00" purity="1.4699742197990417e-01" nType="0">
            <Node pos="l" depth="3" NCoef="0" IVar="-1" Cut="0.0000000000000000e+00" cType="1" res="-9.9000000000000000e+01" rms="0.0000000000000000e+00" purity="5.7886445522308350e-01" nType="1"/>
            <Node pos="r" depth="3" NCoef="0" IVar="-1" Cut="2.5304899215698242e+00" cType="0" res="-9.9000000000000000e+01" rms="0.0000000000000000e+00" purity="5.1230058073997498e-02" nType="-1"/>
          </Node>
          <Node pos="r" depth="2" NCoef="0" IVar="-1" Cut="7.9283287048339844e+01" cType="0" res="-9.9000000000000000e+01" rms="0.0000000000000000e+00" purity="1.7909536836668849e-03" nType="-1"/>
        </Node>
      </Node>
    </BinaryTree>
    <BinaryTree type="DecisionTree" boostWeight="1.5553710400297521e-01" itree="10">
      <Node pos="s" depth="0" NCoef="0" IVar="8" Cut="5.0849080085754395e-01" cType="1" res="-9.9000000000000000e+01" rms="0.0000000000000000e+00" purity="4.7459030151367188e-01" nType="0">
        <Node pos="l" depth="1" NCoef="0" IVar="0" Cut="5.2868032455444336e+00" cType="0" res="-9.9000000000000000e+01" rms="0.0000000000000000e+00" purity="4.8234024643898010e-01" nType="0">
          <Node pos="l" depth="2" NCoef="0" IVar="2" Cut="2.8427574634552002e+00" cType="0" res="-9.9000000000000000e+01" rms="0.0000000000000000e+00" purity="6.4244097471237183e-01" nType="0">
            <Node pos="l" depth="3" NCoef="0" IVar="7" Cut="-6.1969574540853500e-02" cType="0" res="-9.9000000000000000e+01" rms="0.0000000000000000e+00" purity="7.5116723775863647e-01" nType="0">
              <Node pos="l" depth="4" NCoef="0" IVar="-1" Cut="0.0000000000000000e+00" cType="1" res="-9.9000000000000000e+01" rms="0.0000000000000000e+00" purity="7.8298830986022949e-01" nType="1"/>
              <Node pos="r" depth="4" NCoef="0" IVar="-1" Cut="0.0000000000000000e+00" cType="1" res="-9.9000000000000000e+01" rms="0.0000000000000000e+00" purity="3.2326903939247131e-01" nType="-1"/>
            </Node>
            <Node pos="r" depth="3" NCoef="0" IVar="4" Cut="3.3088157653808594e+01" cType="0" res="-9.9000000000000000e+01" rms="0.0000000000000000e+00" purity="4.7275373339653015e-01" nType="0">
              <Node pos="l" depth="4" NCoef="0" IVar="-1" Cut="0.0000000000000000e+00" cType="1" res="-9.9000000000000000e+01" rms="0.0000000000000000e+00" purity="6.1788898706436157e-01" nType="1"/>
              <Node pos="r" depth="4" NCoef="0" IVar="-1" Cut="0.0000000000000000e+00" cType="1" res="-9.9000000000000000e+01" rms="0.0000000000000000e+00" purity="3.7345305085182190e-01" nType="-1"/>
            </Node>
          </Node>
          <Node pos="r" depth="2" NCoef="0" IVar="1" Cut="1.4960316419601440e+00" cType="0" res="-9.9000000000000000e+01" rms="0.0000000000000000e+00" purity="4.6337205171585083e-01" nType="0">
            <Node pos="l" depth="3" NCoef="0" IVar="9" Cut="2.7548899650573730e+00" cType="1" res="-9.9000000000000000e+01" rms="0.0000000000000000e+00" purity="5.0098514556884766e-01" nType="0">
              <Node pos="l" depth="4" NCoef="0" IVar="-1" Cut="0.0000000000000000e+00" cType="1" res="-9.9000000000000000e+01" rms="0.0000000000000000e+00" purity="5.1218688488006592e-01" nType="1"/>
              <Node pos="r" depth="4" NCoef="0" IVar="-1" Cut="0.0000000000000000e+00" cType="1" res="-9.9000000000000000e+01" rms="0.0000000000000000e+00" purity="2.3006834089756012e-01" nType="-1"/>
            </Node>
            <Node pos="r" depth="3" NCoef="0" IVar="-1" Cut="4.4052665710449219e+01" cType="0" res="-9.9000000000000000e+01" rms="0.0000000000000000e+00" purity="3.7606599926948547e-01" nType="-1"/>
          </Node>
        </Node>
        <Node pos="r" depth="1" NCoef="0" IVar="0" Cut="3.3242864608764648e+00" cType="0" res="-9.9000000000000000e+01" rms="0.0000000000000000e+00" purity="5.6660242378711700e-02" nType="0">
          <Node pos="l" depth="2" NCoef="0" IVar="0" Cut="3.5815117359161377e+00" cType="1" res="-9.9000000000000000e+01" rms="0.0000000000000000e+00" purity="1.5131130814552307e-01" nType="0">
            <Node pos="l" depth="3" NCoef="0" IVar="-1" Cut="0.0000000000000000e+00" cType="1" res="-9.9000000000000000e+01" rms="0.0000000000000000e+00" purity="5.3816270828247070e-01" nType="1"/>
            <Node pos="r" depth="3" NCoef="0" IVar="-1" Cut="2.5304899215698242e+00" cType="0" res="-9.9000000000000000e+01" rms="0.0000000000000000e+00" purity="5.9879437088966370e-02" nType="-1"/>
          </Node>
          <Node pos="r" depth="2" NCoef="0" IVar="-1" Cut="7.9283287048339844e+01" cType="0" res="-9.9000000000000000e+01" rms="0.0000000000000000e+00" purity="2.1119078155606985e-03" nType="-1"/>
        </Node>
      </Node>
    </BinaryTree>
    <BinaryTree type="DecisionTree" boostWeight="1.4796405600270934e-01" itree="11">
      <Node pos="s" depth="0" NCoef="0" IVar="8" Cut="1.2712474167346954e-01" cType="1" res="-9.9000000000000000e+01" rms="0.0000000000000000e+00" purity="4.6125027537345886e-01" nType="0">
        <Node pos="l" depth="1" NCoef="0" IVar="0" Cut="5.2868032455444336e+00" cType="0" res="-9.9000000000000000e+01" rms="0.0000000000000000e+00" purity="5.0533366203308105e-01" nType="0">
          <Node pos="l" depth="2" NCoef="0" IVar="7" Cut="3.1720302999019623e-02" cType="0" res="-9.9000000000000000e+01" rms="0.0000000000000000e+00" purity="7.2067612409591675e-01" nType="0">
            <Node pos="l" depth="3" NCoef="0" IVar="-1" Cut="2.8575930595397949e+00" cType="0" res="-9.9000000000000000e+01" rms="0.0000000000000000e+00" purity="8.1996816396713257e-01" nType="1"/>
            <Node pos="r" depth="3" NCoef="0" IVar="6" Cut="4.1835426330566406e+01" cType="0" res="-9.9000000000000000e+01" rms="0.0000000000000000e+00" purity="5.4038190841674805e-01" nType="0">
              <Node pos="l" depth="4" NCoef="0" IVar="-1" Cut="0.0000000000000000e+00" cType="1" res="-9.9000000000000000e+01" rms="0.0000000000000000e+00" purity="7.4354308843612671e-01" nType="1"/>
              <Node pos="r" depth="4" NCoef="0" IVar="-1" Cut="0.0000000000000000e+00" cType="1" res="-9.9000000000000000e+01" rms="0.0000000000000000e+00" purity="4.1648408770561218e-01" nType="-1"/>
            </Node>
          </Node>
          <Node pos="r" depth="2" NCoef="0" IVar="7" Cut="-3.6452259868383408e-02" cType="0" res="-9.9000000000000000e+01" rms="0.0000000000000000e+00" purity="4.8028108477592468e-01" nType="0">
            <Node pos="l" depth="3" NCoef="0" IVar="4" Cut="8.2940437316894531e+01" cType="1" res="-9.9000000000000000e+01" rms="0.0000000000000000e+00" purity="5.0002670288085938e-01" nType="0">
              <Node pos="l" depth="4" NCoef="0" IVar="-1" Cut="0.0000000000000000e+00" cType="1" res="-9.9000000000000000e+01" rms="0.0000000000000000e+00" purity="5.0440460443496704e-01" nType="1"/>
              <Node pos="r" depth="4" NCoef="0" IVar="-1" Cut="0.0000000000000000e+00" cType="1" res="-9.9000000000000000e+01" rms="0.0000000000000000e+00" purity="5.9202399104833603e-02" nType="-1"/>
            </Node>
            <Node pos="r" depth="3" NCoef="0" IVar="-1" Cut="4.0484252929687500e+01" cType="1" res="-9.9000000000000000e+01" rms="0.0000000000000000e+00" purity="3.6496844887733459e-01" nType="-1"/>
          </Node>
        </Node>
        <Node pos="r" depth="1" NCoef="0" IVar="-1" Cut="1.2932573556900024e+00" cType="0" res="-9.9000000000000000e+01" rms="0.0000000000000000e+00" purity="3.9111673831939697e-01" nType="-1"/>
      </Node>
    </BinaryTree>
    <BinaryTree type="DecisionTree" boostWeight="1.4574163298759688e-01" itree="12">
      <Node pos="s" depth="0" NCoef="0" IVar="0" Cut="5.2868032455444336e+00" cType="0" res="-9.9000000000000000e+01" rms="0.0000000000000000e+00" purity="4.5971399545669556e-01" nType="0">
        <Node pos="l" depth="1" NCoef="0" IVar="2" Cut="2.8427574634552002e+00" cType="0" res="-9.9000000000000000e+01" rms="0.0000000000000000e+00" purity="6.2633216381072998e-01" nType="0">
          <Node pos="l" depth="2" NCoef="0" IVar="8" Cut="7.7014893293380737e-02" cType="1" res="-9.9000000000000000e+01" rms="0.0000000000000000e+00" purity="7.1898758411407471e-01" nType="0">
            <Node pos="l" depth="3" NCoef="0" IVar="-1" Cut="2.4678066372871399e-02" cType="0" res="-9.9000000000000000e+01" rms="0.0000000000000000e+00" purity="8.1802582740783691e-01" nType="1"/>
            <Node pos="r" depth="3" NCoef="0" IVar="3" Cut="2.8452982902526855e+00" cType="0" res="-9.9000000000000000e+01" rms="0.0000000000000000e+00" purity="6.0281974077224731e-01" nType="0">
              <Node pos="l" depth="4" NCoef="0" IVar="-1" Cut="0.0000000000000000e+00" cType="1" res="-9.9000000000000000e+01" rms="0.0000000000000000e+00" purity="7.1784019470214844e-01" nType="1"/>
              <Node pos="r" depth="4" NCoef="0" IVar="-1" Cut="0.0000000000000000e+00" cType="1" res="-9.9000000000000000e+01" rms="0.0000000000000000e+00" purity="4.5733487606048584e-01" nType="-1"/>
            </Node>
          </Node>
          <Node pos="r" depth="2" NCoef="0" IVar="1" Cut="1.6449081897735596e+00" cType="0" res="-9.9000000000000000e+01" rms="0.0000000000000000e+00" purity="4.9028825759887695e-01" nType="0">
            <Node pos="l" depth="3" NCoef="0" IVar="4" Cut="3.4537284851074219e+01" cType="0" res="-9.9000000000000000e+01" rms="0.0000000000000000e+00" purity="5.3945606946945190e-01" nType="0">
              <Node pos="l" depth="4" NCoef="0" IVar="-1" Cut="0.0000000000000000e+00" cType="1" res="-9.9000000000000000e+01" rms="0.0000000000000000e+00" purity="6.6052812337875366e-01" nType="1"/>
              <Node pos="r" depth="4" NCoef="0" IVar="-1" Cut="0.0000000000000000e+00" cType="1" res="-9.9000000000000000e+01" rms="0.0000000000000000e+00" purity="4.6757629513740540e-01" nType="-1"/>
            </Node>
            <Node pos="r" depth="3" NCoef="0" IVar="7" Cut="7.9741857945919037e-02" cType="0" res="-9.9000000000000000e+01" rms="0.0000000000000000e+00" purity="2.9379144310951233e-01" nType="0">
              <Node pos="l" depth="4" NCoef="0" IVar="-1" Cut="0.0000000000000000e+00" cType="1" res="-9.9000000000000000e+01" rms="0.0000000000000000e+00" purity="6.5893995761871338e-01" nType="1"/>
              <Node pos="r" depth="4" NCoef="0" IVar="-1" Cut="0.0000000000000000e+00" cType="1" res="-9.9000000000000000e+01" rms="0.0000000000000000e+00" purity="1.8179565668106079e-01" nType="-1"/>
            </Node>
          </Node>
        </Node>
        <Node pos="r" depth="1" NCoef="0" IVar="-1" Cut="1.0071362257003784e+00" cType="0" res="-9.9000000000000000e+01" rms="0.0000000000000000e+00" purity="4.4086939096450806e-01" nType="-1"/>
      </Node>
    </BinaryTree>
    <BinaryTree type="DecisionTree" boostWeight="1.1368887931042981e-01" itree="13">
      <Node pos="s" depth="0" NCoef="0" IVar="0" Cut="8.8126504421234131e-01" cType="0" res="-9.9000000000000000e+01" rms="0.0000000000000000e+00" purity="4.9145883321762085e-01" nType="0">
        <Node pos="l" depth="1" NCoef="0" IVar="8" Cut="5.0766843557357788e-01" cType="1" res="-9.9000000000000000e+01" rms="0.0000000000000000e+00" purity="5.0961148738861084e-01" nType="0">
          <Node pos="l" depth="2" NCoef="0" IVar="4" Cut="6.9910972595214844e+01" cType="1" res="-9.9000000000000000e+01" rms="0.0000000000000000e+00" purity="5.1545137166976929e-01" nType="0">
            <Node pos="l" depth="3" NCoef="0" IVar="7" Cut="-1.9767571985721588e-01" cType="0" res="-9.9000000000000000e+01" rms="0.0000000000000000e+00" purity="5.2240395545959473e-01" nType="0">
              <Node pos="l" depth="4" NCoef="0" IVar="-1" Cut="0.0000000000000000e+00" cType="1" res="-9.9000000000000000e+01" rms="0.0000000000000000e+00" purity="5.2798843383789062e-01" nType="1"/>
              <Node pos="r" depth="4" NCoef="0" IVar="-1" Cut="0.0000000000000000e+00" cType="1" res="-9.9000000000000000e+01" rms="0.0000000000000000e+00" purity="2.0076967775821686e-01" nType="-1"/>
            </Node>
            <Node pos="r" depth="3" NCoef="0" IVar="-1" Cut="7.3581680297851562e+01" cType="1" res="-9.9000000000000000e+01" rms="0.0000000000000000e+00" purity="1.9102813303470612e-01" nType="-1"/>
          </Node>
          <Node pos="r" depth="2" NCoef="0" IVar="-1" Cut="3.1233782768249512e+00" cType="0" res="-9.9000000000000000e+01" rms="0.0000000000000000e+00" purity="1.0128976404666901e-01" nType="-1"/>
        </Node>
        <Node pos="r" depth="1" NCoef="0" IVar="1" Cut="1.7951145172119141e+00" cType="0" res="-9.9000000000000000e+01" rms="0.0000000000000000e+00" purity="3.2888248562812805e-01" nType="0">
          <Node pos="l" depth="2" NCoef="0" IVar="-1" Cut="2.1989944577217102e-01" cType="1" res="-9.9000000000000000e+01" rms="0.0000000000000000e+00" purity="3.8932290673255920e-01" nType="-1"/>
          <Node pos="r" depth="2" NCoef="0" IVar="5" Cut="6.0300788879394531e+01" cType="0" res="-9.9000000000000000e+01" rms="0.0000000000000000e+00" purity="1.9968704879283905e-01" nType="0">
            <Node pos="l" depth="3" NCoef="0" IVar="9" Cut="2.7821362018585205e-01" cType="1" res="-9.9000000000000000e+01" rms="0.0000000000000000e+00" purity="2.8313902020454407e-01" nType="0">
              <Node pos="l" depth="4" NCoef="0" IVar="-1" Cut="0.0000000000000000e+00" cType="1" res="-9.9000000000000000e+01" rms="0.0000000000000000e+00" purity="5.2720069885253906e-01" nType="1"/>
              <Node pos="r" depth="4" NCoef="0" IVar="-1" Cut="0.0000000000000000e+00" cType="1" res="-9.9000000000000000e+01" rms="0.0000000000000000e+00" purity="2.0096376538276672e-01" nType="-1"/>
            </Node>
            <Node pos="r" depth="3" NCoef="0" IVar="-1" Cut="5.1425296068191528e-01" cType="1" res="-9.9000000000000000e+01" rms="0.0000000000000000e+00" purity="4.2868066579103470e-02" nType="-1"/>
          </Node>
        </Node>
      </Node>
    </BinaryTree>
    <BinaryTree type="DecisionTree" boostWeight="1.0215797141090296e-01" itree="14">
      <Node pos="s" depth="0" NCoef="0" IVar="8" Cut="5.0849080085754395e-01" cType="1" res="-9.9000000000000000e+01" rms="0.0000000000000000e+00" purity="4.7090297937393188e-01" nType="0">
        <Node pos="l" depth="1" NCoef="0" IVar="4" Cut="7.6901794433593750e+01" cType="1" res="-9.9000000000000000e+01" rms="0.0000000000000000e+00" purity="4.7670039534568787e-01" nType="0">
          <Node pos="l" depth="2" NCoef="0" IVar="0" Cut="5.2868542671203613e+00" cType="0" res="-9.9000000000000000e+01" rms="0.0000000000000000e+00" purity="4.8181611299514771e-01" nType="0">
            <Node pos="l" depth="3" NCoef="0" IVar="-1" Cut="7.8565239906311035e-02" cType="0" res="-9.9000000000000000e+01" rms="0.0000000000000000e+00" purity="6.1193364858627319e-01" nType="1"/>
            <Node pos="r" depth="3" NCoef="0" IVar="-1" Cut="3.3670842647552490e+00" cType="1" res="-9.9000000000000000e+01" rms="0.0000000000000000e+00" purity="4.6759948134422302e-01" nType="-1"/>
          </Node>
          <Node pos="r" depth="2" NCoef="0" IVar="4" Cut="8.0230819702148438e+01" cType="1" res="-9.9000000000000000e+01" rms="0.0000000000000000e+00" purity="8.5595712065696716e-02" nType="0">
            <Node pos="l" depth="3" NCoef="0" IVar="0" Cut="3.3731803894042969e+00" cType="0" res="-9.9000000000000000e+01" rms="0.0000000000000000e+00" purity="2.5655677914619446e-01" nType="0">
              <Node pos="l" depth="4" NCoef="0" IVar="-1" Cut="0.0000000000000000e+00" cType="1" res="-9.9000000000000000e+01" rms="0.0000000000000000e+00" purity="5.4873204231262207e-01" nType="1"/>
              <Node pos="r" depth="4" NCoef="0" IVar="-1" Cut="0.0000000000000000e+00" cType="1" res="-9.9000000000000000e+01" rms="0.0000000000000000e+00" purity="3.5398479551076889e-02" nType="-1"/>
            </Node>
            <Node pos="r" depth="3" NCoef="0" IVar="-1" Cut="2.9921398162841797e+00" cType="0" res="-9.9000000000000000e+01" rms="0.0000000000000000e+00" purity="4.8838626593351364e-02" nType="-1"/>
          </Node>
        </Node>
        <Node pos="r" depth="1" NCoef="0" IVar="0" Cut="3.3242864608764648e+00" cType="0" res="-9.9000000000000000e+01" rms="0.0000000000000000e+00" purity="8.4520757198333740e-02" nType="0">
          <Node pos="l" depth="2" NCoef="0" IVar="0" Cut="3.5815117359161377e+00" cType="1" res="-9.9000000000000000e+01" rms="0.0000000000000000e+00" purity="2.1094512939453125e-01" nType="0">
            <Node pos="l" depth="3" NCoef="0" IVar="-1" Cut="0.0000000000000000e+00" cType="1" res="-9.9000000000000000e+01" rms="0.0000000000000000e+00" purity="5.9984177350997925e-01" nType="1"/>
            <Node pos="r" depth="3" NCoef="0" IVar="-1" Cut="2.5304899215698242e+00" cType="0" res="-9.9000000000000000e+01" rms="0.0000000000000000e+00" purity="9.3843691051006317e-02" nType="-1"/>
          </Node>
          <Node pos="r" depth="2" NCoef="0" IVar="-1" Cut="7.9283287048339844e+01" cType="0" res="-9.9000000000000000e+01" rms="0.0000000000000000e+00" purity="3.6933440715074539e-03" nType="-1"/>
        </Node>
      </Node>
    </BinaryTree>
    <BinaryTree type="DecisionTree" boostWeight="8.5153354569351858e-02" itree="15">
      <Node pos="s" depth="0" NCoef="0" IVar="8" Cut="5.0849080085754395e-01" cType="1" res="-9.9000000000000000e+01" rms="0.0000000000000000e+00" purity="4.9136927723884583e-01" nType="0">
        <Node pos="l" depth="1" NCoef="0" IVar="4" Cut="7.6901794433593750e+01" cType="1" res="-9.9000000000000000e+01" rms="0.0000000000000000e+00" purity="4.9719259142875671e-01" nType="0">
          <Node pos="l" depth="2" NCoef="0" IVar="0" Cut="4.4082525372505188e-01" cType="0" res="-9.9000000000000000e+01" rms="0.0000000000000000e+00" purity="5.0231617689132690e-01" nType="0">
            <Node pos="l" depth="3" NCoef="0" IVar="9" Cut="2.9219064712524414e+00" cType="1" res="-9.9000000000000000e+01" rms="0.0000000000000000e+00" purity="5.1125490665435791e-01" nType="0">
              <Node pos="l" depth="4" NCoef="0" IVar="-1" Cut="0.0000000000000000e+00" cType="1" res="-9.9000000000000000e+01" rms="0.0000000000000000e+00" purity="5.1856839656829834e-01" nType="1"/>
              <Node pos="r" depth="4" NCoef="0" IVar="-1" Cut="0.0000000000000000e+00" cType="1" res="-9.9000000000000000e+01" rms="0.0000000000000000e+00" purity="2.5750419497489929e-01" nType="-1"/>
            </Node>
            <Node pos="r" depth="3" NCoef="0" IVar="-1" Cut="1.6468183994293213e+00" cType="0" res="-9.9000000000000000e+01" rms="0.0000000000000000e+00" purity="3.0157622694969177e-01" nType="-1"/>
          </Node>
          <Node pos="r" depth="2" NCoef="0" IVar="-1" Cut="2.5623204708099365e+00" cType="0" res="-9.9000000000000000e+01" rms="0.0000000000000000e+00" purity="8.9549772441387177e-02" nType="-1"/>
        </Node>
        <Node pos="r" depth="1" NCoef="0" IVar="0" Cut="3.3242864608764648e+00" cType="0" res="-9.9000000000000000e+01" rms="0.0000000000000000e+00" purity="8.7165124714374542e-02" nType="0">
          <Node pos="l" depth="2" NCoef="0" IVar="0" Cut="3.5815117359161377e+00" cType="1" res="-9.9000000000000000e+01" rms="0.0000000000000000e+00" purity="2.1489524841308594e-01" nType="0">
            <Node pos="l" depth="3" NCoef="0" IVar="-1" Cut="0.0000000000000000e+00" cType="1" res="-9.9000000000000000e+01" rms="0.0000000000000000e+00" purity="5.7508975267410278e-01" nType="1"/>
            <Node pos="r" depth="3" NCoef="0" IVar="-1" Cut="2.5304899215698242e+00" cType="0" res="-9.9000000000000000e+01" rms="0.0000000000000000e+00" purity="1.0289875417947769e-01" nType="-1"/>
          </Node>
          <Node pos="r" depth="2" NCoef="0" IVar="-1" Cut="7.9283287048339844e+01" cType="0" res="-9.9000000000000000e+01" rms="0.0000000000000000e+00" purity="4.0889699012041092e-03" nType="-1"/>
        </Node>
      </Node>
    </BinaryTree>
    <BinaryTree type="DecisionTree" boostWeight="5.2914121548240739e-02" itree="16">
      <Node pos="s" depth="0" NCoef="0" IVar="8" Cut="5.0849080085754395e-01" cType="1" res="-9.9000000000000000e+01" rms="0.0000000000000000e+00" purity="4.7394520044326782e-01" nType="0">
        <Node pos="l" depth="1" NCoef="0" IVar="4" Cut="7.6901794433593750e+01" cType="1" res="-9.9000000000000000e+01" rms="0.0000000000000000e+00" purity="4.7929874062538147e-01" nType="0">
          <Node pos="l" depth="2" NCoef="0" IVar="7" Cut="-1.9913086295127869e-01" cType="0" res="-9.9000000000000000e+01" rms="0.0000000000000000e+00" purity="4.8395183682441711e-01" nType="0">
            <Node pos="l" depth="3" NCoef="0" IVar="-1" Cut="2.9219064712524414e+00" cType="1" res="-9.9000000000000000e+01" rms="0.0000000000000000e+00" purity="4.8918125033378601e-01" nType="-1"/>
            <Node pos="r" depth="3" NCoef="0" IVar="8" Cut="2.4304943159222603e-02" cType="1" res="-9.9000000000000000e+01" rms="0.0000000000000000e+00" purity="1.8790347874164581e-01" nType="0">
              <Node pos="l" depth="4" NCoef="0" IVar="-1" Cut="0.0000000000000000e+00" cType="1" res="-9.9000000000000000e+01" rms="0.0000000000000000e+00" purity="5.3784000873565674e-01" nType="1"/>
              <Node pos="r" depth="4" NCoef="0" IVar="-1" Cut="0.0000000000000000e+00" cType="1" res="-9.9000000000000000e+01" rms="0.0000000000000000e+00" purity="1.0954178869724274e-01" nType="-1"/>
            </Node>
          </Node>
          <Node pos="r" depth="2" NCoef="0" IVar="-1" Cut="2.5623204708099365e+00" cType="0" res="-9.9000000000000000e+01" rms="0.0000000000000000e+00" purity="9.6739321947097778e-02" nType="-1"/>
        </Node>
        <Node pos="r" depth="1" NCoef="0" IVar="0" Cut="3.3242864608764648e+00" cType="0" res="-9.9000000000000000e+01" rms="0.0000000000000000e+00" purity="8.9552707970142365e-02" nType="0">
          <Node pos="l" depth="2" NCoef="0" IVar="0" Cut="3.5815117359161377e+00" cType="1" res="-9.9000000000000000e+01" rms="0.0000000000000000e+00" purity="2.1839199960231781e-01" nType="0">
            <Node pos="l" depth="3" NCoef="0" IVar="-1" Cut="0.0000000000000000e+00" cType="1" res="-9.9000000000000000e+01" rms="0.0000000000000000e+00" purity="5.5416029691696167e-01" nType="1"/>
            <Node pos="r" depth="3" NCoef="0" IVar="-1" Cut="2.5304899215698242e+00" cType="0" res="-9.9000000000000000e+01" rms="0.0000000000000000e+00" purity="1.1102933436632156e-01" nType="-1"/>
          </Node>
          <Node pos="r" depth="2" NCoef="0" IVar="-1" Cut="7.9283287048339844e+01" cType="0" res="-9.9000000000000000e+01" rms="0.0000000000000000e+00" purity="4.4507961720228195e-03" nType="-1"/>
        </Node>
      </Node>
    </BinaryTree>
    <BinaryTree type="DecisionTree" boostWeight="5.9590382398672495e-02" itree="17">
      <Node pos="s" depth="0" NCoef="0" IVar="8" Cut="5.0849080085754395e-01" cType="1" res="-9.9000000000000000e+01" rms="0.0000000000000000e+00" purity="4.8703563213348389e-01" nType="0">
        <Node pos="l" depth="1" NCoef="0" IVar="4" Cut="7.6901794433593750e+01" cType="1" res="-9.9000000000000000e+01" rms="0.0000000000000000e+00" purity="4.9243280291557312e-01" nType="0">
          <Node pos="l" depth="2" NCoef="0" IVar="7" Cut="-1.9913086295127869e-01" cType="0" res="-9.9000000000000000e+01" rms="0.0000000000000000e+00" purity="4.9709075689315796e-01" nType="0">
            <Node pos="l" depth="3" NCoef="0" IVar="9" Cut="2.9219064712524414e+00" cType="1" res="-9.9000000000000000e+01" rms="0.0000000000000000e+00" purity="5.0240808725357056e-01" nType="0">
              <Node pos="l" depth="4" NCoef="0" IVar="-1" Cut="0.0000000000000000e+00" cType="1" res="-9.9000000000000000e+01" rms="0.0000000000000000e+00" purity="5.0869548320770264e-01" nType="1"/>
              <Node pos="r" depth="4" NCoef="0" IVar="-1" Cut="0.0000000000000000e+00" cType="1" res="-9.9000000000000000e+01" rms="0.0000000000000000e+00" purity="2.7749043703079224e-01" nType="-1"/>
            </Node>
            <Node pos="r" depth="3" NCoef="0" IVar="8" Cut="2.4304943159222603e-02" cType="1" res="-9.9000000000000000e+01" rms="0.0000000000000000e+00" purity="1.9096070528030396e-01" nType="0">
              <Node pos="l" depth="4" NCoef="0" IVar="-1" Cut="0.0000000000000000e+00" cType="1" res="-9.9000000000000000e+01" rms="0.0000000000000000e+00" purity="5.2466392517089844e-01" nType="1"/>
              <Node pos="r" depth="4" NCoef="0" IVar="-1" Cut="0.0000000000000000e+00" cType="1" res="-9.9000000000000000e+01" rms="0.0000000000000000e+00" purity="1.1481077969074249e-01" nType="-1"/>
            </Node>
          </Node>
          <Node pos="r" depth="2" NCoef="0" IVar="-1" Cut="2.5623204708099365e+00" cType="0" res="-9.9000000000000000e+01" rms="0.0000000000000000e+00" purity="1.0146268457174301e-01" nType="-1"/>
        </Node>
        <Node pos="r" depth="1" NCoef="0" IVar="0" Cut="3.3242864608764648e+00" cType="0" res="-9.9000000000000000e+01" rms="0.0000000000000000e+00" purity="9.1125071048736572e-02" nType="0">
          <Node pos="l" depth="2" NCoef="0" IVar="7" Cut="6.5411135554313660e-02" cType="0" res="-9.9000000000000000e+01" rms="0.0000000000000000e+00" purity="2.2065955400466919e-01" nType="0">
            <Node pos="l" depth="3" NCoef="0" IVar="5" Cut="6.9227630615234375e+01" cType="0" res="-9.9000000000000000e+01" rms="0.0000000000000000e+00" purity="4.8140627145767212e-01" nType="0">
              <Node pos="l" depth="4" NCoef="0" IVar="-1" Cut="0.0000000000000000e+00" cType="1" res="-9.9000000000000000e+01" rms="0.0000000000000000e+00" purity="6.9472163915634155e-01" nType="1"/>
              <Node pos="r" depth="4" NCoef="0" IVar="-1" Cut="0.0000000000000000e+00" cType="1" res="-9.9000000000000000e+01" rms="0.0000000000000000e+00" purity="1.6538223624229431e-01" nType="-1"/>
            </Node>
            <Node pos="r" depth="3" NCoef="0" IVar="-1" Cut="1.5921341896057129e+01" cType="1" res="-9.9000000000000000e+01" rms="0.0000000000000000e+00" purity="8.3874598145484924e-02" nType="-1"/>
          </Node>
          <Node pos="r" depth="2" NCoef="0" IVar="-1" Cut="7.9283287048339844e+01" cType="0" res="-9.9000000000000000e+01" rms="0.0000000000000000e+00" purity="4.6915132552385330e-03" nType="-1"/>
        </Node>
      </Node>
    </BinaryTree>
    <BinaryTree type="DecisionTree" boostWeight="5.2987603169957626e-02" itree="18">
      <Node pos="s" depth="0" NCoef="0" IVar="8" Cut="5.0849080085754395e-01" cType="1" res="-9.9000000000000000e+01" rms="0.0000000000000000e+00" purity="4.7398987412452698e-01" nType="0">
        <Node pos="l" depth="1" NCoef="0" IVar="4" Cut="7.6901794433593750e+01" cType="1" res="-9.9000000000000000e+01" rms="0.0000000000000000e+00" purity="4.7905614972114563e-01" nType="0">
          <Node pos="l" depth="2" NCoef="0" IVar="7" Cut="-1.9913086295127869e-01" cType="0" res="-9.9000000000000000e+01" rms="0.0000000000000000e+00" purity="4.8338830471038818e-01" nType="0">
            <Node pos="l" depth="3" NCoef="0" IVar="-1" Cut="3.5062854290008545e+00" cType="1" res="-9.9000000000000000e+01" rms="0.0000000000000000e+00" purity="4.8831477761268616e-01" nType="-1"/>
            <Node pos="r" depth="3" NCoef="0" IVar="8" Cut="2.4304943159222603e-02" cType="1" res="-9.9000000000000000e+01" rms="0.0000000000000000e+00" purity="1.9452905654907227e-01" nType="0">
              <Node pos="l" depth="4" NCoef="0" IVar="-1" Cut="0.0000000000000000e+00" cType="1" res="-9.9000000000000000e+01" rms="0.0000000000000000e+00" purity="5.0978505611419678e-01" nType="1"/>
              <Node pos="r" depth="4" NCoef="0" IVar="-1" Cut="0.0000000000000000e+00" cType="1" res="-9.9000000000000000e+01" rms="0.0000000000000000e+00" purity="1.2100730836391449e-01" nType="-1"/>
            </Node>
          </Node>
          <Node pos="r" depth="2" NCoef="0" IVar="-1" Cut="2.5623204708099365e+00" cType="0" res="-9.9000000000000000e+01" rms="0.0000000000000000e+00" purity="1.0702589899301529e-01" nType="-1"/>
        </Node>
        <Node pos="r" depth="1" NCoef="0" IVar="0" Cut="3.3242864608764648e+00" cType="0" res="-9.9000000000000000e+01" rms="0.0000000000000000e+00" purity="9.2876233160495758e-02" nType="0">
          <Node pos="l" depth="2" NCoef="0" IVar="7" Cut="6.5411135554313660e-02" cType="0" res="-9.9000000000000000e+01" rms="0.0000000000000000e+00" purity="2.2351518273353577e-01" nType="0">
            <Node pos="l" depth="3" NCoef="0" IVar="5" Cut="6.9227630615234375e+01" cType="0" res="-9.9000000000000000e+01" rms="0.0000000000000000e+00" purity="4.7819024324417114e-01" nType="0">
              <Node pos="l" depth="4" NCoef="0" IVar="-1" Cut="0.0000000000000000e+00" cType="1" res="-9.9000000000000000e+01" rms="0.0000000000000000e+00" purity="6.8193894624710083e-01" nType="1"/>
              <Node pos="r" depth="4" NCoef="0" IVar="-1" Cut="0.0000000000000000e+00" cType="1" res="-9.9000000000000000e+01" rms="0.0000000000000000e+00" purity="1.7377237975597382e-01" nType="-1"/>
            </Node>
            <Node pos="r" depth="3" NCoef="0" IVar="-1" Cut="1.5921341896057129e+01" cType="1" res="-9.9000000000000000e+01" rms="0.0000000000000000e+00" purity="8.8568501174449921e-02" nType="-1"/>
          </Node>
          <Node pos="r" depth="2" NCoef="0" IVar="-1" Cut="7.9283287048339844e+01" cType="0" res="-9.9000000000000000e+01" rms="0.0000000000000000e+00" purity="4.9781464040279388e-03" nType="-1"/>
        </Node>
      </Node>
    </BinaryTree>
    <BinaryTree type="DecisionTree" boostWeight="4.4277650189626074e-02" itree="19">
      <Node pos="s" depth="0" NCoef="0" IVar="8" Cut="5.0849080085754395e-01" cType="1" res="-9.9000000000000000e+01" rms="0.0000000000000000e+00" purity="4.8710465431213379e-01" nType="0">
        <Node pos="l" depth="1" NCoef="0" IVar="4" Cut="7.6901794433593750e+01" cType="1" res="-9.9000000000000000e+01" rms="0.0000000000000000e+00" purity="4.9220824241638184e-01" nType="0">
          <Node pos="l" depth="2" NCoef="0" IVar="7" Cut="-1.9913086295127869e-01" cType="0" res="-9.9000000000000000e+01" rms="0.0000000000000000e+00" purity="4.9654504656791687e-01" nType="0">
            <Node pos="l" depth="3" NCoef="0" IVar="9" Cut="3.5062854290008545e+00" cType="1" res="-9.9000000000000000e+01" rms="0.0000000000000000e+00" purity="5.0155955553054810e-01" nType="0">
              <Node pos="l" depth="4" NCoef="0" IVar="-1" Cut="0.0000000000000000e+00" cType="1" res="-9.9000000000000000e+01" rms="0.0000000000000000e+00" purity="5.0484818220138550e-01" nType="1"/>
              <Node pos="r" depth="4" NCoef="0" IVar="-1" Cut="0.0000000000000000e+00" cType="1" res="-9.9000000000000000e+01" rms="0.0000000000000000e+00" purity="1.1573637276887894e-01" nType="-1"/>
            </Node>
            <Node pos="r" depth="3" NCoef="0" IVar="-1" Cut="2.4304943159222603e-02" cType="1" res="-9.9000000000000000e+01" rms="0.0000000000000000e+00" purity="1.9781443476676941e-01" nType="-1"/>
          </Node>
          <Node pos="r" depth="2" NCoef="0" IVar="-1" Cut="2.5623204708099365e+00" cType="0" res="-9.9000000000000000e+01" rms="0.0000000000000000e+00" purity="1.1219645291566849e-01" nType="-1"/>
        </Node>
        <Node pos="r" depth="1" NCoef="0" IVar="-1" Cut="3.3242864608764648e+00" cType="0" res="-9.9000000000000000e+01" rms="0.0000000000000000e+00" purity="9.4511926174163818e-02" nType="-1"/>
      </Node>
    </BinaryTree>
    <BinaryTree type="DecisionTree" boostWeight="9.6200554894572576e-02" itree="20">
      <Node pos="s" depth="0" NCoef="0" IVar="8" Cut="5.0849080085754395e-01" cType="1" res="-9.9000000000000000e+01" rms="0.0000000000000000e+00" purity="4.7708144783973694e-01" nType="0">
        <Node pos="l" depth="1" NCoef="0" IVar="4" Cut="7.6901794433593750e+01" cType="1" res="-9.9000000000000000e+01" rms="0.0000000000000000e+00" purity="4.8191994428634644e-01" nType="0">
          <Node pos="l" depth="2" NCoef="0" IVar="7" Cut="-1.9913086295127869e-01" cType="0" res="-9.9000000000000000e+01" rms="0.0000000000000000e+00" purity="4.8601889610290527e-01" nType="0">
            <Node pos="l" depth="3" NCoef="0" IVar="7" Cut="7.9803600907325745e-02" cType="0" res="-9.9000000000000000e+01" rms="0.0000000000000000e+00" purity="4.9067571759223938e-01" nType="0">
              <Node pos="l" depth="4" NCoef="0" IVar="-1" Cut="0.0000000000000000e+00" cType="1" res="-9.9000000000000000e+01" rms="0.0000000000000000e+00" purity="5.3517705202102661e-01" nType="1"/>
              <Node pos="r" depth="4" NCoef="0" IVar="-1" Cut="0.0000000000000000e+00" cType="1" res="-9.9000000000000000e+01" rms="0.0000000000000000e+00" purity="4.6456721425056458e-01" nType="-1"/>
            </Node>
            <Node pos="r" depth="3" NCoef="0" IVar="8" Cut="2.4304943159222603e-02" cType="1" res="-9.9000000000000000e+01" rms="0.0000000000000000e+00" purity="2.0493470132350922e-01" nType="0">
              <Node pos="l" depth="4" NCoef="0" IVar="-1" Cut="0.0000000000000000e+00" cType="1" res="-9.9000000000000000e+01" rms="0.0000000000000000e+00" purity="5.0760829448699951e-01" nType="1"/>
              <Node pos="r" depth="4" NCoef="0" IVar="-1" Cut="0.0000000000000000e+00" cType="1" res="-9.9000000000000000e+01" rms="0.0000000000000000e+00" purity="1.3174006342887878e-01" nType="-1"/>
            </Node>
          </Node>
          <Node pos="r" depth="2" NCoef="0" IVar="-1" Cut="2.5623204708099365e+00" cType="0" res="-9.9000000000000000e+01" rms="0.0000000000000000e+00" purity="1.1668318510055542e-01" nType="-1"/>
        </Node>
        <Node pos="r" depth="1" NCoef="0" IVar="-1" Cut="3.3242864608764648e+00" cType="0" res="-9.9000000000000000e+01" rms="0.0000000000000000e+00" purity="9.8369836807250977e-02" nType="-1"/>
      </Node>
    </BinaryTree>
    <BinaryTree type="DecisionTree" boostWeight="7.6658806410712016e-02" itree="21">
      <Node pos="s" depth="0" NCoef="0" IVar="8" Cut="5.0849080085754395e-01" cType="1" res="-9.9000000000000000e+01" rms="0.0000000000000000e+00" purity="4.8381954431533813e-01" nType="0">
        <Node pos="l" depth="1" NCoef="0" IVar="4" Cut="7.6901794433593750e+01" cType="1" res="-9.9000000000000000e+01" rms="0.0000000000000000e+00" purity="4.8846447467803955e-01" nType="0">
          <Node pos="l" depth="2" NCoef="0" IVar="7" Cut="-1.9913086295127869e-01" cType="0" res="-9.9000000000000000e+01" rms="0.0000000000000000e+00" purity="4.9238687753677368e-01" nType="0">
            <Node pos="l" depth="3" NCoef="0" IVar="1" Cut="1.0472685098648071e+00" cType="0" res="-9.9000000000000000e+01" rms="0.0000000000000000e+00" purity="4.9692511558532715e-01" nType="0">
              <Node pos="l" depth="4" NCoef="0" IVar="-1" Cut="0.0000000000000000e+00" cType="1" res="-9.9000000000000000e+01" rms="0.0000000000000000e+00" purity="5.1394265890121460e-01" nType="1"/>
              <Node pos="r" depth="4" NCoef="0" IVar="-1" Cut="0.0000000000000000e+00" cType="1" res="-9.9000000000000000e+01" rms="0.0000000000000000e+00" purity="4.2479091882705688e-01" nType="-1"/>
            </Node>
            <Node pos="r" depth="3" NCoef="0" IVar="-1" Cut="2.4304943159222603e-02" cType="1" res="-9.9000000000000000e+01" rms="0.0000000000000000e+00" purity="2.1133700013160706e-01" nType="-1"/>
          </Node>
          <Node pos="r" depth="2" NCoef="0" IVar="-1" Cut="2.5623204708099365e+00" cType="0" res="-9.9000000000000000e+01" rms="0.0000000000000000e+00" purity="1.2696978449821472e-01" nType="-1"/>
        </Node>
        <Node pos="r" depth="1" NCoef="0" IVar="0" Cut="3.3242864608764648e+00" cType="0" res="-9.9000000000000000e+01" rms="0.0000000000000000e+00" purity="1.0723796486854553e-01" nType="0">
          <Node pos="l" depth="2" NCoef="0" IVar="7" Cut="2.1341005340218544e-02" cType="0" res="-9.9000000000000000e+01" rms="0.0000000000000000e+00" purity="2.5168213248252869e-01" nType="0">
            <Node pos="l" depth="3" NCoef="0" IVar="0" Cut="3.7664909362792969e+00" cType="1" res="-9.9000000000000000e+01" rms="0.0000000000000000e+00" purity="4.0735724568367004e-01" nType="0">
              <Node pos="l" depth="4" NCoef="0" IVar="-1" Cut="0.0000000000000000e+00" cType="1" res="-9.9000000000000000e+01" rms="0.0000000000000000e+00" purity="6.7347693443298340e-01" nType="1"/>
              <Node pos="r" depth="4" NCoef="0" IVar="-1" Cut="0.0000000000000000e+00" cType="1" res="-9.9000000000000000e+01" rms="0.0000000000000000e+00" purity="2.6436552405357361e-01" nType="-1"/>
            </Node>
            <Node pos="r" depth="3" NCoef="0" IVar="-1" Cut="0.0000000000000000e+00" cType="1" res="-9.9000000000000000e+01" rms="0.0000000000000000e+00" purity="0.0000000000000000e+00" nType="-1"/>
          </Node>
          <Node pos="r" depth="2" NCoef="0" IVar="-1" Cut="7.9283287048339844e+01" cType="0" res="-9.9000000000000000e+01" rms="0.0000000000000000e+00" purity="6.0343095101416111e-03" nType="-1"/>
        </Node>
      </Node>
    </BinaryTree>
    <BinaryTree type="DecisionTree" boostWeight="5.4160701398704589e-02" itree="22">
      <Node pos="s" depth="0" NCoef="0" IVar="8" Cut="5.0849080085754395e-01" cType="1" res="-9.9000000000000000e+01" rms="0.0000000000000000e+00" purity="4.7304424643516541e-01" nType="0">
        <Node pos="l" depth="1" NCoef="0" IVar="-1" Cut="7.6901794433593750e+01" cType="1" res="-9.9000000000000000e+01" rms="0.0000000000000000e+00" purity="4.7738391160964966e-01" nType="-1"/>
        <Node pos="r" depth="1" NCoef="0" IVar="0" Cut="3.3242864608764648e+00" cType="0" res="-9.9000000000000000e+01" rms="0.0000000000000000e+00" purity="1.1033680289983749e-01" nType="0">
          <Node pos="l" depth="2" NCoef="0" IVar="7" Cut="2.1341005340218544e-02" cType="0" res="-9.9000000000000000e+01" rms="0.0000000000000000e+00" purity="2.5653442740440369e-01" nType="0">
            <Node pos="l" depth="3" NCoef="0" IVar="2" Cut="2.4011619091033936e+00" cType="1" res="-9.9000000000000000e+01" rms="0.0000000000000000e+00" purity="4.1167467832565308e-01" nType="0">
              <Node pos="l" depth="4" NCoef="0" IVar="-1" Cut="0.0000000000000000e+00" cType="1" res="-9.9000000000000000e+01" rms="0.0000000000000000e+00" purity="5.2170884609222412e-01" nType="1"/>
              <Node pos="r" depth="4" NCoef="0" IVar="-1" Cut="0.0000000000000000e+00" cType="1" res="-9.9000000000000000e+01" rms="0.0000000000000000e+00" purity="1.0020614415407181e-01" nType="-1"/>
            </Node>
            <Node pos="r" depth="3" NCoef="0" IVar="-1" Cut="0.0000000000000000e+00" cType="1" res="-9.9000000000000000e+01" rms="0.0000000000000000e+00" purity="0.0000000000000000e+00" nType="-1"/>
          </Node>
          <Node pos="r" depth="2" NCoef="0" IVar="-1" Cut="7.9283287048339844e+01" cType="0" res="-9.9000000000000000e+01" rms="0.0000000000000000e+00" purity="6.5119541250169277e-03" nType="-1"/>
        </Node>
      </Node>
    </BinaryTree>
    <BinaryTree type="DecisionTree" boostWeight="4.5098812651390013e-02" itree="23">
      <Node pos="s" depth="0" NCoef="0" IVar="8" Cut="5.0849080085754395e-01" cType="1" res="-9.9000000000000000e+01" rms="0.0000000000000000e+00" purity="4.8650014400482178e-01" nType="0">
        <Node pos="l" depth="1" NCoef="0" IVar="4" Cut="7.6901794433593750e+01" cType="1" res="-9.9000000000000000e+01" rms="0.0000000000000000e+00" purity="4.9090966582298279e-01" nType="0">
          <Node pos="l" depth="2" NCoef="0" IVar="0" Cut="4.4082525372505188e-01" cType="0" res="-9.9000000000000000e+01" rms="0.0000000000000000e+00" purity="4.9452474713325500e-01" nType="0">
            <Node pos="l" depth="3" NCoef="0" IVar="9" Cut="3.5062854290008545e+00" cType="1" res="-9.9000000000000000e+01" rms="0.0000000000000000e+00" purity="5.0167971849441528e-01" nType="0">
              <Node pos="l" depth="4" NCoef="0" IVar="-1" Cut="0.0000000000000000e+00" cType="1" res="-9.9000000000000000e+01" rms="0.0000000000000000e+00" purity="5.0468730926513672e-01" nType="1"/>
              <Node pos="r" depth="4" NCoef="0" IVar="-1" Cut="0.0000000000000000e+00" cType="1" res="-9.9000000000000000e+01" rms="0.0000000000000000e+00" purity="1.3129019737243652e-01" nType="-1"/>
            </Node>
            <Node pos="r" depth="3" NCoef="0" IVar="-1" Cut="1.6468183994293213e+00" cType="0" res="-9.9000000000000000e+01" rms="0.0000000000000000e+00" purity="3.2964846491813660e-01" nType="-1"/>
          </Node>
          <Node pos="r" depth="2" NCoef="0" IVar="-1" Cut="2.5623204708099365e+00" cType="0" res="-9.9000000000000000e+01" rms="0.0000000000000000e+00" purity="1.4219208061695099e-01" nType="-1"/>
        </Node>
        <Node pos="r" depth="1" NCoef="0" IVar="0" Cut="3.3242864608764648e+00" cType="0" res="-9.9000000000000000e+01" rms="0.0000000000000000e+00" purity="1.1029910296201706e-01" nType="0">
          <Node pos="l" depth="2" NCoef="0" IVar="7" Cut="2.1341005340218544e-02" cType="0" res="-9.9000000000000000e+01" rms="0.0000000000000000e+00" purity="2.5409656763076782e-01" nType="0">
            <Node pos="l" depth="3" NCoef="0" IVar="0" Cut="3.7664909362792969e+00" cType="1" res="-9.9000000000000000e+01" rms="0.0000000000000000e+00" purity="4.0458333492279053e-01" nType="0">
              <Node pos="l" depth="4" NCoef="0" IVar="-1" Cut="0.0000000000000000e+00" cType="1" res="-9.9000000000000000e+01" rms="0.0000000000000000e+00" purity="6.4933693408966064e-01" nType="1"/>
              <Node pos="r" depth="4" NCoef="0" IVar="-1" Cut="0.0000000000000000e+00" cType="1" res="-9.9000000000000000e+01" rms="0.0000000000000000e+00" purity="2.7446547150611877e-01" nType="-1"/>
            </Node>
            <Node pos="r" depth="3" NCoef="0" IVar="-1" Cut="0.0000000000000000e+00" cType="1" res="-9.9000000000000000e+01" rms="0.0000000000000000e+00" purity="0.0000000000000000e+00" nType="-1"/>
          </Node>
          <Node pos="r" depth="2" NCoef="0" IVar="-1" Cut="7.9283287048339844e+01" cType="0" res="-9.9000000000000000e+01" rms="0.0000000000000000e+00" purity="6.8718814291059971e-03" nType="-1"/>
        </Node>
      </Node>
    </BinaryTree>
    <BinaryTree type="DecisionTree" boostWeight="8.5899214018721637e-02" itree="24">
      <Node pos="s" depth="0" NCoef="0" IVar="8" Cut="5.0849080085754395e-01" cType="1" res="-9.9000000000000000e+01" rms="0.0000000000000000e+00" purity="4.7675734758377075e-01" nType="0">
        <Node pos="l" depth="1" NCoef="0" IVar="4" Cut="7.6901794433593750e+01" cType="1" res="-9.9000000000000000e+01" rms="0.0000000000000000e+00" purity="4.8095312714576721e-01" nType="0">
          <Node pos="l" depth="2" NCoef="0" IVar="8" Cut="7.2587467730045319e-02" cType="1" res="-9.9000000000000000e+01" rms="0.0000000000000000e+00" purity="4.8435354232788086e-01" nType="0">
            <Node pos="l" depth="3" NCoef="0" IVar="-1" Cut="5.7274022102355957e+00" cType="0" res="-9.9000000000000000e+01" rms="0.0000000000000000e+00" purity="5.2468836307525635e-01" nType="1"/>
            <Node pos="r" depth="3" NCoef="0" IVar="-1" Cut="1.2934222221374512e+00" cType="0" res="-9.9000000000000000e+01" rms="0.0000000000000000e+00" purity="4.5693650841712952e-01" nType="-1"/>
          </Node>
          <Node pos="r" depth="2" NCoef="0" IVar="-1" Cut="2.5623204708099365e+00" cType="0" res="-9.9000000000000000e+01" rms="0.0000000000000000e+00" purity="1.4778219163417816e-01" nType="-1"/>
        </Node>
        <Node pos="r" depth="1" NCoef="0" IVar="0" Cut="3.3242864608764648e+00" cType="0" res="-9.9000000000000000e+01" rms="0.0000000000000000e+00" purity="1.1222550272941589e-01" nType="0">
          <Node pos="l" depth="2" NCoef="0" IVar="7" Cut="2.1341005340218544e-02" cType="0" res="-9.9000000000000000e+01" rms="0.0000000000000000e+00" purity="2.5704741477966309e-01" nType="0">
            <Node pos="l" depth="3" NCoef="0" IVar="2" Cut="2.4011619091033936e+00" cType="1" res="-9.9000000000000000e+01" rms="0.0000000000000000e+00" purity="4.0719744563102722e-01" nType="0">
              <Node pos="l" depth="4" NCoef="0" IVar="-1" Cut="0.0000000000000000e+00" cType="1" res="-9.9000000000000000e+01" rms="0.0000000000000000e+00" purity="5.1055973768234253e-01" nType="1"/>
              <Node pos="r" depth="4" NCoef="0" IVar="-1" Cut="0.0000000000000000e+00" cType="1" res="-9.9000000000000000e+01" rms="0.0000000000000000e+00" purity="1.0853186249732971e-01" nType="-1"/>
            </Node>
            <Node pos="r" depth="3" NCoef="0" IVar="-1" Cut="0.0000000000000000e+00" cType="1" res="-9.9000000000000000e+01" rms="0.0000000000000000e+00" purity="0.0000000000000000e+00" nType="-1"/>
          </Node>
          <Node pos="r" depth="2" NCoef="0" IVar="-1" Cut="7.9283287048339844e+01" cType="0" res="-9.9000000000000000e+01" rms="0.0000000000000000e+00" purity="7.1866116486489773e-03" nType="-1"/>
        </Node>
      </Node>
    </BinaryTree>
    <BinaryTree type="DecisionTree" boostWeight="6.7811796860368992e-02" itree="25">
      <Node pos="s" depth="0" NCoef="0" IVar="8" Cut="5.0849080085754395e-01" cType="1" res="-9.9000000000000000e+01" rms="0.0000000000000000e+00" purity="4.8105445504188538e-01" nType="0">
        <Node pos="l" depth="1" NCoef="0" IVar="4" Cut="7.6901794433593750e+01" cType="1" res="-9.9000000000000000e+01" rms="0.0000000000000000e+00" purity="4.8517113924026489e-01" nType="0">
          <Node pos="l" depth="2" NCoef="0" IVar="7" Cut="-1.9913086295127869e-01" cType="0" res="-9.9000000000000000e+01" rms="0.0000000000000000e+00" purity="4.8841005563735962e-01" nType="0">
            <Node pos="l" depth="3" NCoef="0" IVar="0" Cut="5.7274022102355957e+00" cType="0" res="-9.9000000000000000e+01" rms="0.0000000000000000e+00" purity="4.9246636033058167e-01" nType="0">
              <Node pos="l" depth="4" NCoef="0" IVar="-1" Cut="0.0000000000000000e+00" cType="1" res="-9.9000000000000000e+01" rms="0.0000000000000000e+00" purity="6.2250620126724243e-01" nType="1"/>
              <Node pos="r" depth="4" NCoef="0" IVar="-1" Cut="0.0000000000000000e+00" cType="1" res="-9.9000000000000000e+01" rms="0.0000000000000000e+00" purity="4.8387080430984497e-01" nType="-1"/>
            </Node>
            <Node pos="r" depth="3" NCoef="0" IVar="-1" Cut="1.8078912734985352e+01" cType="1" res="-9.9000000000000000e+01" rms="0.0000000000000000e+00" purity="2.2867080569267273e-01" nType="-1"/>
          </Node>
          <Node pos="r" depth="2" NCoef="0" IVar="-1" Cut="2.5623204708099365e+00" cType="0" res="-9.9000000000000000e+01" rms="0.0000000000000000e+00" purity="1.5893100202083588e-01" nType="-1"/>
        </Node>
        <Node pos="r" depth="1" NCoef="0" IVar="0" Cut="3.3242864608764648e+00" cType="0" res="-9.9000000000000000e+01" rms="0.0000000000000000e+00" purity="1.1217603832483292e-01" nType="0">
          <Node pos="l" depth="2" NCoef="0" IVar="7" Cut="2.1341005340218544e-02" cType="0" res="-9.9000000000000000e+01" rms="0.0000000000000000e+00" purity="2.5301849842071533e-01" nType="0">
            <Node pos="l" depth="3" NCoef="0" IVar="0" Cut="3.7664909362792969e+00" cType="1" res="-9.9000000000000000e+01" rms="0.0000000000000000e+00" purity="3.9580106735229492e-01" nType="0">
              <Node pos="l" depth="4" NCoef="0" IVar="-1" Cut="0.0000000000000000e+00" cType="1" res="-9.9000000000000000e+01" rms="0.0000000000000000e+00" purity="6.2717908620834351e-01" nType="1"/>
              <Node pos="r" depth="4" NCoef="0" IVar="-1" Cut="0.0000000000000000e+00" cType="1" res="-9.9000000000000000e+01" rms="0.0000000000000000e+00" purity="2.7531725168228149e-01" nType="-1"/>
            </Node>
            <Node pos="r" depth="3" NCoef="0" IVar="-1" Cut="0.0000000000000000e+00" cType="1" res="-9.9000000000000000e+01" rms="0.0000000000000000e+00" purity="0.0000000000000000e+00" nType="-1"/>
          </Node>
          <Node pos="r" depth="2" NCoef="0" IVar="-1" Cut="7.9283287048339844e+01" cType="0" res="-9.9000000000000000e+01" rms="0.0000000000000000e+00" purity="7.8261801972985268e-03" nType="-1"/>
        </Node>
      </Node>
    </BinaryTree>
    <BinaryTree type="DecisionTree" boostWeight="4.7139260260977089e-02" itree="26">
      <Node pos="s" depth="0" NCoef="0" IVar="8" Cut="5.0849080085754395e-01" cType="1" res="-9.9000000000000000e+01" rms="0.0000000000000000e+00" purity="4.9593058228492737e-01" nType="0">
        <Node pos="l" depth="1" NCoef="0" IVar="4" Cut="7.6901794433593750e+01" cType="1" res="-9.9000000000000000e+01" rms="0.0000000000000000e+00" purity="5.0006896257400513e-01" nType="0">
          <Node pos="l" depth="2" NCoef="0" IVar="7" Cut="-1.9913086295127869e-01" cType="0" res="-9.9000000000000000e+01" rms="0.0000000000000000e+00" purity="5.0329333543777466e-01" nType="0">
            <Node pos="l" depth="3" NCoef="0" IVar="9" Cut="3.5062854290008545e+00" cType="1" res="-9.9000000000000000e+01" rms="0.0000000000000000e+00" purity="5.0732266902923584e-01" nType="0">
              <Node pos="l" depth="4" NCoef="0" IVar="-1" Cut="0.0000000000000000e+00" cType="1" res="-9.9000000000000000e+01" rms="0.0000000000000000e+00" purity="5.1017439365386963e-01" nType="1"/>
              <Node pos="r" depth="4" NCoef="0" IVar="-1" Cut="0.0000000000000000e+00" cType="1" res="-9.9000000000000000e+01" rms="0.0000000000000000e+00" purity="1.4203466475009918e-01" nType="-1"/>
            </Node>
            <Node pos="r" depth="3" NCoef="0" IVar="-1" Cut="1.8078912734985352e+01" cType="1" res="-9.9000000000000000e+01" rms="0.0000000000000000e+00" purity="2.4085092544555664e-01" nType="-1"/>
          </Node>
          <Node pos="r" depth="2" NCoef="0" IVar="-1" Cut="2.5623204708099365e+00" cType="0" res="-9.9000000000000000e+01" rms="0.0000000000000000e+00" purity="1.6820652782917023e-01" nType="-1"/>
        </Node>
        <Node pos="r" depth="1" NCoef="0" IVar="-1" Cut="3.3242864608764648e+00" cType="0" res="-9.9000000000000000e+01" rms="0.0000000000000000e+00" purity="1.1523193120956421e-01" nType="-1"/>
      </Node>
    </BinaryTree>
    <BinaryTree type="DecisionTree" boostWeight="9.0745017817818602e-02" itree="27">
      <Node pos="s" depth="0" NCoef="0" IVar="8" Cut="5.0849080085754395e-01" cType="1" res="-9.9000000000000000e+01" rms="0.0000000000000000e+00" purity="4.8513442277908325e-01" nType="0">
        <Node pos="l" depth="1" NCoef="0" IVar="0" Cut="1.3218188285827637e+00" cType="0" res="-9.9000000000000000e+01" rms="0.0000000000000000e+00" purity="4.8903393745422363e-01" nType="0">
          <Node pos="l" depth="2" NCoef="0" IVar="3" Cut="1.0845130681991577e+00" cType="0" res="-9.9000000000000000e+01" rms="0.0000000000000000e+00" purity="5.0225937366485596e-01" nType="0">
            <Node pos="l" depth="3" NCoef="0" IVar="6" Cut="6.0824047088623047e+01" cType="0" res="-9.9000000000000000e+01" rms="0.0000000000000000e+00" purity="5.1254951953887939e-01" nType="0">
              <Node pos="l" depth="4" NCoef="0" IVar="-1" Cut="0.0000000000000000e+00" cType="1" res="-9.9000000000000000e+01" rms="0.0000000000000000e+00" purity="5.6624507904052734e-01" nType="1"/>
              <Node pos="r" depth="4" NCoef="0" IVar="-1" Cut="0.0000000000000000e+00" cType="1" res="-9.9000000000000000e+01" rms="0.0000000000000000e+00" purity="4.9241298437118530e-01" nType="-1"/>
            </Node>
            <Node pos="r" depth="3" NCoef="0" IVar="-1" Cut="1.7966507673263550e+00" cType="0" res="-9.9000000000000000e+01" rms="0.0000000000000000e+00" purity="4.0971845388412476e-01" nType="-1"/>
          </Node>
          <Node pos="r" depth="2" NCoef="0" IVar="9" Cut="1.2244272232055664e+00" cType="1" res="-9.9000000000000000e+01" rms="0.0000000000000000e+00" purity="4.1449806094169617e-01" nType="0">
            <Node pos="l" depth="3" NCoef="0" IVar="8" Cut="2.1779179573059082e-01" cType="1" res="-9.9000000000000000e+01" rms="0.0000000000000000e+00" purity="4.7844094038009644e-01" nType="0">
              <Node pos="l" depth="4" NCoef="0" IVar="-1" Cut="0.0000000000000000e+00" cType="1" res="-9.9000000000000000e+01" rms="0.0000000000000000e+00" purity="5.1739376783370972e-01" nType="1"/>
              <Node pos="r" depth="4" NCoef="0" IVar="-1" Cut="0.0000000000000000e+00" cType="1" res="-9.9000000000000000e+01" rms="0.0000000000000000e+00" purity="2.9124143719673157e-01" nType="-1"/>
            </Node>
            <Node pos="r" depth="3" NCoef="0" IVar="-1" Cut="2.4637203216552734e+00" cType="1" res="-9.9000000000000000e+01" rms="0.0000000000000000e+00" purity="2.6006579399108887e-01" nType="-1"/>
          </Node>
        </Node>
        <Node pos="r" depth="1" NCoef="0" IVar="0" Cut="3.3242864608764648e+00" cType="0" res="-9.9000000000000000e+01" rms="0.0000000000000000e+00" purity="1.2012580782175064e-01" nType="0">
          <Node pos="l" depth="2" NCoef="0" IVar="7" Cut="2.1341005340218544e-02" cType="0" res="-9.9000000000000000e+01" rms="0.0000000000000000e+00" purity="2.6668924093246460e-01" nType="0">
            <Node pos="l" depth="3" NCoef="0" IVar="2" Cut="2.4011619091033936e+00" cType="1" res="-9.9000000000000000e+01" rms="0.0000000000000000e+00" purity="4.1120669245719910e-01" nType="0">
              <Node pos="l" depth="4" NCoef="0" IVar="-1" Cut="0.0000000000000000e+00" cType="1" res="-9.9000000000000000e+01" rms="0.0000000000000000e+00" purity="5.0452625751495361e-01" nType="1"/>
              <Node pos="r" depth="4" NCoef="0" IVar="-1" Cut="0.0000000000000000e+00" cType="1" res="-9.9000000000000000e+01" rms="0.0000000000000000e+00" purity="1.2775957584381104e-01" nType="-1"/>
            </Node>
            <Node pos="r" depth="3" NCoef="0" IVar="-1" Cut="0.0000000000000000e+00" cType="1" res="-9.9000000000000000e+01" rms="0.0000000000000000e+00" purity="0.0000000000000000e+00" nType="-1"/>
          </Node>
          <Node pos="r" depth="2" NCoef="0" IVar="-1" Cut="7.9283287048339844e+01" cType="0" res="-9.9000000000000000e+01" rms="0.0000000000000000e+00" purity="8.7711922824382782e-03" nType="-1"/>
        </Node>
      </Node>
    </BinaryTree>
    <BinaryTree type="DecisionTree" boostWeight="1.0922560166438879e-01" itree="28">
      <Node pos="s" depth="0" NCoef="0" IVar="0" Cut="1.3218188285827637e+00" cType="0" res="-9.9000000000000000e+01" rms="0.0000000000000000e+00" purity="4.9437180161476135e-01" nType="0">
        <Node pos="l" depth="1" NCoef="0" IVar="8" Cut="5.0766843557357788e-01" cType="1" res="-9.9000000000000000e+01" rms="0.0000000000000000e+00" purity="5.1062154769897461e-01" nType="0">
          <Node pos="l" depth="2" NCoef="0" IVar="4" Cut="6.2205482482910156e+01" cType="1" res="-9.9000000000000000e+01" rms="0.0000000000000000e+00" purity="5.1376384496688843e-01" nType="0">
            <Node pos="l" depth="3" NCoef="0" IVar="3" Cut="1.7686456441879272e+00" cType="0" res="-9.9000000000000000e+01" rms="0.0000000000000000e+00" purity="5.1972717046737671e-01" nType="0">
              <Node pos="l" depth="4" NCoef="0" IVar="-1" Cut="0.0000000000000000e+00" cType="1" res="-9.9000000000000000e+01" rms="0.0000000000000000e+00" purity="5.3898400068283081e-01" nType="1"/>
              <Node pos="r" depth="4" NCoef="0" IVar="-1" Cut="0.0000000000000000e+00" cType="1" res="-9.9000000000000000e+01" rms="0.0000000000000000e+00" purity="4.7578701376914978e-01" nType="-1"/>
            </Node>
            <Node pos="r" depth="3" NCoef="0" IVar="-1" Cut="9.3800895690917969e+01" cType="1" res="-9.9000000000000000e+01" rms="0.0000000000000000e+00" purity="3.5649541020393372e-01" nType="-1"/>
          </Node>
          <Node pos="r" depth="2" NCoef="0" IVar="-1" Cut="1.9557237625122070e-02" cType="0" res="-9.9000000000000000e+01" rms="0.0000000000000000e+00" purity="1.7399111390113831e-01" nType="-1"/>
        </Node>
        <Node pos="r" depth="1" NCoef="0" IVar="9" Cut="1.2244272232055664e+00" cType="1" res="-9.9000000000000000e+01" rms="0.0000000000000000e+00" purity="4.0287601947784424e-01" nType="0">
          <Node pos="l" depth="2" NCoef="0" IVar="8" Cut="2.5434285402297974e-01" cType="1" res="-9.9000000000000000e+01" rms="0.0000000000000000e+00" purity="4.5615199208259583e-01" nType="0">
            <Node pos="l" depth="3" NCoef="0" IVar="0" Cut="4.4066354632377625e-01" cType="0" res="-9.9000000000000000e+01" rms="0.0000000000000000e+00" purity="4.8453560471534729e-01" nType="0">
              <Node pos="l" depth="4" NCoef="0" IVar="-1" Cut="0.0000000000000000e+00" cType="1" res="-9.9000000000000000e+01" rms="0.0000000000000000e+00" purity="5.3483438491821289e-01" nType="1"/>
              <Node pos="r" depth="4" NCoef="0" IVar="-1" Cut="0.0000000000000000e+00" cType="1" res="-9.9000000000000000e+01" rms="0.0000000000000000e+00" purity="3.3439129590988159e-01" nType="-1"/>
            </Node>
            <Node pos="r" depth="3" NCoef="0" IVar="-1" Cut="7.5760871171951294e-01" cType="0" res="-9.9000000000000000e+01" rms="0.0000000000000000e+00" purity="2.7635559439659119e-01" nType="-1"/>
          </Node>
          <Node pos="r" depth="2" NCoef="0" IVar="-1" Cut="2.4636631011962891e+00" cType="1" res="-9.9000000000000000e+01" rms="0.0000000000000000e+00" purity="2.7246424555778503e-01" nType="-1"/>
        </Node>
      </Node>
    </BinaryTree>
    <BinaryTree type="DecisionTree" boostWeight="1.4124431232289361e-01" itree="29">
      <Node pos="s" depth="0" NCoef="0" IVar="8" Cut="5.0849080085754395e-01" cType="1" res="-9.9000000000000000e+01" rms="0.0000000000000000e+00" purity="4.8704585433006287e-01" nType="0">
        <Node pos="l" depth="1" NCoef="0" IVar="0" Cut="1.3218188285827637e+00" cType="0" res="-9.9000000000000000e+01" rms="0.0000000000000000e+00" purity="4.9058765172958374e-01" nType="0">
          <Node pos="l" depth="2" NCoef="0" IVar="1" Cut="1.7952070236206055e+00" cType="0" res="-9.9000000000000000e+01" rms="0.0000000000000000e+00" purity="5.0459587574005127e-01" nType="0">
            <Node pos="l" depth="3" NCoef="0" IVar="5" Cut="2.0737788391113281e+02" cType="1" res="-9.9000000000000000e+01" rms="0.0000000000000000e+00" purity="5.2780687808990479e-01" nType="0">
              <Node pos="l" depth="4" NCoef="0" IVar="-1" Cut="0.0000000000000000e+00" cType="1" res="-9.9000000000000000e+01" rms="0.0000000000000000e+00" purity="5.3810763359069824e-01" nType="1"/>
              <Node pos="r" depth="4" NCoef="0" IVar="-1" Cut="0.0000000000000000e+00" cType="1" res="-9.9000000000000000e+01" rms="0.0000000000000000e+00" purity="3.4563446044921875e-01" nType="-1"/>
            </Node>
            <Node pos="r" depth="3" NCoef="0" IVar="6" Cut="4.4052665710449219e+01" cType="0" res="-9.9000000000000000e+01" rms="0.0000000000000000e+00" purity="4.6784090995788574e-01" nType="0">
              <Node pos="l" depth="4" NCoef="0" IVar="-1" Cut="0.0000000000000000e+00" cType="1" res="-9.9000000000000000e+01" rms="0.0000000000000000e+00" purity="5.6480884552001953e-01" nType="1"/>
