<?xml version="1.0"?>
<MethodSetup Method="BDT::BDT">
  <GeneralInfo>
    <Info name="TMVA Release" value="4.2.0 [262656]"/>
    <Info name="ROOT Release" value="6.02/05 [393733]"/>
    <Info name="Creator" value="milee"/>
    <Info name="Date" value="Fri Oct 11 10:13:09 2019"/>
    <Info name="Host" value="Linux vocms029.cern.ch 2.6.32-504.12.2.el6.x86_64 #1 SMP Thu Mar 12 07:33:00 CET 2015 x86_64 x86_64 x86_64 GNU/Linux"/>
    <Info name="Dir" value="/afs/cern.ch/work/m/milee/MYcode"/>
    <Info name="Training events" value="67143"/>
    <Info name="TrainingTime" value="9.07615211e+01"/>
    <Info name="AnalysisType" value="Classification"/>
  </GeneralInfo>
  <Options>
    <Option name="V" modified="Yes">False</Option>
    <Option name="VerbosityLevel" modified="No">Default</Option>
    <Option name="VarTransform" modified="No">None</Option>
    <Option name="H" modified="Yes">False</Option>
    <Option name="CreateMVAPdfs" modified="No">False</Option>
    <Option name="IgnoreNegWeightsInTraining" modified="Yes">True</Option>
    <Option name="NTrees" modified="Yes">1000</Option>
    <Option name="MaxDepth" modified="Yes">4</Option>
    <Option name="MinNodeSize" modified="No">0.0595743.2</Option>
    <Option name="nCuts" modified="Yes">20</Option>
    <Option name="BoostType" modified="Yes">AdaBoost</Option>
    <Option name="AdaBoostR2Loss" modified="No">quadratic</Option>
    <Option name="UseBaggedBoost" modified="No">False</Option>
    <Option name="Shrinkage" modified="No">1.000000e+00</Option>
    <Option name="AdaBoostBeta" modified="Yes">5.000000e-01</Option>
    <Option name="UseRandomisedTrees" modified="No">False</Option>
    <Option name="UseNvars" modified="No">3</Option>
    <Option name="UsePoissonNvars" modified="No">True</Option>
    <Option name="BaggedSampleFraction" modified="No">6.000000e-01</Option>
    <Option name="UseYesNoLeaf" modified="No">True</Option>
    <Option name="NegWeightTreatment" modified="No">inverseboostnegweights</Option>
    <Option name="Css" modified="No">1.000000e+00</Option>
    <Option name="Cts_sb" modified="No">1.000000e+00</Option>
    <Option name="Ctb_ss" modified="No">1.000000e+00</Option>
    <Option name="Cbb" modified="No">1.000000e+00</Option>
    <Option name="NodePurityLimit" modified="No">5.000000e-01</Option>
    <Option name="SeparationType" modified="Yes">giniindex</Option>
    <Option name="DoBoostMonitor" modified="No">False</Option>
    <Option name="UseFisherCuts" modified="No">False</Option>
    <Option name="MinLinCorrForFisher" modified="No">8.000000e-01</Option>
    <Option name="UseExclusiveVars" modified="No">False</Option>
    <Option name="DoPreselection" modified="No">False</Option>
    <Option name="SigToBkgFraction" modified="No">1.000000e+00</Option>
    <Option name="PruneMethod" modified="No">nopruning</Option>
    <Option name="PruneStrength" modified="No">0.000000e+00</Option>
    <Option name="PruningValFraction" modified="Yes">6.000000e-01</Option>
    <Option name="nEventsMin" modified="Yes">40</Option>
    <Option name="UseBaggedGrad" modified="No">False</Option>
    <Option name="GradBaggingFraction" modified="No">6.000000e-01</Option>
    <Option name="UseNTrainEvents" modified="No">0</Option>
    <Option name="NNodesMax" modified="No">0</Option>
  </Options>
  <Variables NVar="10">
    <Variable VarIndex="0" Expression="absdEta_jj" Label="absdEta_jj" Title="#Delta#eta_{jj}" Unit="" Internal="absdEta_jj" Type="F" Min="0.00000000e+00" Max="9.25178719e+00"/>
    <Variable VarIndex="1" Expression="absdPhi_jj" Label="absdPhi_jj" Title="#Delta#phi_{jj}" Unit="" Internal="absdPhi_jj" Type="F" Min="0.00000000e+00" Max="3.14157462e+00"/>
    <Variable VarIndex="2" Expression="absdPhi_Zgjj" Label="absdPhi_Zgjj" Title="#Delta#phi_{Z#gammajj}" Unit="" Internal="absdPhi_Zgjj" Type="F" Min="3.30653638e-05" Max="3.14158511e+00"/>
    <Variable VarIndex="3" Expression="dR_phojet" Label="dR_phojet" Title="#Delta R(#gamma,j)" Unit="" Internal="dR_phojet" Type="F" Min="4.00033593e-01" Max="6.95136833e+00"/>
    <Variable VarIndex="4" Expression="ZgPTt" Label="ZgPTt" Title="pT_{t}^{Z#gamma}" Unit="" Internal="ZgPTt" Type="F" Min="2.69433949e-03" Max="1.59310471e+02"/>
    <Variable VarIndex="5" Expression="VBFPt1" Label="VBFPt1" Title="pT_{j1}" Unit="" Internal="VBFPt1" Type="F" Min="3.01136703e+01" Max="1.85107312e+03"/>
    <Variable VarIndex="6" Expression="VBFPt2" Label="VBFPt2" Title="pT_{j2}" Unit="" Internal="VBFPt2" Type="F" Min="3.00000858e+01" Max="1.60751672e+03"/>
    <Variable VarIndex="7" Expression="HZgMVA" Label="HZgMVA" Title="kinematic MVA" Unit="" Internal="HZgMVA" Type="F" Min="-7.62973368e-01" Max="8.40251207e-01"/>
    <Variable VarIndex="8" Expression="abssysbal" Label="abssysbal" Title="system balance" Unit="" Internal="abssysbal" Type="F" Min="1.28944412e-05" Max="1.38083637e+00"/>
    <Variable VarIndex="9" Expression="absZeppen_pho" Label="absZeppen_pho" Title="Zeppenfeld #gamma" Unit="" Internal="absZeppen_pho" Type="F" Min="1.34855509e-05" Max="6.75770950e+00"/>
  </Variables>
  <Spectators NSpec="0"/>
  <Classes NClass="2">
    <Class Name="Signal" Index="0"/>
    <Class Name="Background" Index="1"/>
  </Classes>
  <Transformations NTransformations="0"/>
  <MVAPdfs/>
  <Weights NTrees="1000" AnalysisType="0">
    <BinaryTree type="DecisionTree" boostWeight="8.7340404238621017e-01" itree="0">
      <Node pos="s" depth="0" NCoef="0" IVar="0" Cut="2.6433677673339844e+00" cType="0" res="-9.9000000000000000e+01" rms="0.0000000000000000e+00" purity="5.0000000000000000e-01" nType="0">
        <Node pos="l" depth="1" NCoef="0" IVar="7" Cut="1.4495356008410454e-02" cType="0" res="-9.9000000000000000e+01" rms="0.0000000000000000e+00" purity="7.6339727640151978e-01" nType="0">
          <Node pos="l" depth="2" NCoef="0" IVar="8" Cut="2.5394400954246521e-01" cType="1" res="-9.9000000000000000e+01" rms="0.0000000000000000e+00" purity="8.6475104093551636e-01" nType="0">
            <Node pos="l" depth="3" NCoef="0" IVar="-1" Cut="3.2728137969970703e+00" cType="0" res="-9.9000000000000000e+01" rms="0.0000000000000000e+00" purity="8.9950233697891235e-01" nType="1"/>
            <Node pos="r" depth="3" NCoef="0" IVar="8" Cut="4.5956355333328247e-01" cType="1" res="-9.9000000000000000e+01" rms="0.0000000000000000e+00" purity="4.5037174224853516e-01" nType="0">
              <Node pos="l" depth="4" NCoef="0" IVar="-1" Cut="0.0000000000000000e+00" cType="1" res="-9.9000000000000000e+01" rms="0.0000000000000000e+00" purity="5.4028892517089844e-01" nType="1"/>
              <Node pos="r" depth="4" NCoef="0" IVar="-1" Cut="0.0000000000000000e+00" cType="1" res="-9.9000000000000000e+01" rms="0.0000000000000000e+00" purity="1.2927480041980743e-01" nType="-1"/>
            </Node>
          </Node>
          <Node pos="r" depth="2" NCoef="0" IVar="8" Cut="2.3843649029731750e-01" cType="1" res="-9.9000000000000000e+01" rms="0.0000000000000000e+00" purity="4.4321352243423462e-01" nType="0">
            <Node pos="l" depth="3" NCoef="0" IVar="0" Cut="4.4508867263793945e+00" cType="0" res="-9.9000000000000000e+01" rms="0.0000000000000000e+00" purity="5.3755038976669312e-01" nType="0">
              <Node pos="l" depth="4" NCoef="0" IVar="-1" Cut="0.0000000000000000e+00" cType="1" res="-9.9000000000000000e+01" rms="0.0000000000000000e+00" purity="7.2679066658020020e-01" nType="1"/>
              <Node pos="r" depth="4" NCoef="0" IVar="-1" Cut="0.0000000000000000e+00" cType="1" res="-9.9000000000000000e+01" rms="0.0000000000000000e+00" purity="3.8549789786338806e-01" nType="-1"/>
            </Node>
            <Node pos="r" depth="3" NCoef="0" IVar="-1" Cut="2.0945389270782471e+00" cType="0" res="-9.9000000000000000e+01" rms="0.0000000000000000e+00" purity="1.3926114141941071e-01" nType="-1"/>
          </Node>
        </Node>
        <Node pos="r" depth="1" NCoef="0" IVar="0" Cut="1.7622290849685669e+00" cType="0" res="-9.9000000000000000e+01" rms="0.0000000000000000e+00" purity="1.5832908451557159e-01" nType="0">
          <Node pos="l" depth="2" NCoef="0" IVar="7" Cut="6.2656506896018982e-02" cType="0" res="-9.9000000000000000e+01" rms="0.0000000000000000e+00" purity="3.5128501057624817e-01" nType="0">
            <Node pos="l" depth="3" NCoef="0" IVar="9" Cut="1.4466949701309204e+00" cType="1" res="-9.9000000000000000e+01" rms="0.0000000000000000e+00" purity="5.6437844038009644e-01" nType="0">
              <Node pos="l" depth="4" NCoef="0" IVar="-1" Cut="0.0000000000000000e+00" cType="1" res="-9.9000000000000000e+01" rms="0.0000000000000000e+00" purity="6.3712108135223389e-01" nType="1"/>
              <Node pos="r" depth="4" NCoef="0" IVar="-1" Cut="0.0000000000000000e+00" cType="1" res="-9.9000000000000000e+01" rms="0.0000000000000000e+00" purity="2.8894600272178650e-01" nType="-1"/>
            </Node>
            <Node pos="r" depth="3" NCoef="0" IVar="-1" Cut="1.8098147213459015e-01" cType="1" res="-9.9000000000000000e+01" rms="0.0000000000000000e+00" purity="2.0170001685619354e-01" nType="-1"/>
          </Node>
          <Node pos="r" depth="2" NCoef="0" IVar="-1" Cut="7.6810933649539948e-02" cType="0" res="-9.9000000000000000e+01" rms="0.0000000000000000e+00" purity="6.8880848586559296e-02" nType="-1"/>
        </Node>
      </Node>
    </BinaryTree>
    <BinaryTree type="DecisionTree" boostWeight="6.3886790450119979e-01" itree="1">
      <Node pos="s" depth="0" NCoef="0" IVar="0" Cut="2.2028064727783203e+00" cType="0" res="-9.9000000000000000e+01" rms="0.0000000000000000e+00" purity="4.9260383844375610e-01" nType="0">
        <Node pos="l" depth="1" NCoef="0" IVar="2" Cut="2.8424952030181885e+00" cType="0" res="-9.9000000000000000e+01" rms="0.0000000000000000e+00" purity="6.5585267543792725e-01" nType="0">
          <Node pos="l" depth="2" NCoef="0" IVar="0" Cut="3.8137447834014893e+00" cType="0" res="-9.9000000000000000e+01" rms="0.0000000000000000e+00" purity="7.8100407123565674e-01" nType="0">
            <Node pos="l" depth="3" NCoef="0" IVar="-1" Cut="2.1503915786743164e+00" cType="1" res="-9.9000000000000000e+01" rms="0.0000000000000000e+00" purity="8.7991851568222046e-01" nType="1"/>
            <Node pos="r" depth="3" NCoef="0" IVar="9" Cut="1.7825334072113037e+00" cType="1" res="-9.9000000000000000e+01" rms="0.0000000000000000e+00" purity="6.3415402173995972e-01" nType="0">
              <Node pos="l" depth="4" NCoef="0" IVar="-1" Cut="0.0000000000000000e+00" cType="1" res="-9.9000000000000000e+01" rms="0.0000000000000000e+00" purity="7.0166957378387451e-01" nType="1"/>
              <Node pos="r" depth="4" NCoef="0" IVar="-1" Cut="0.0000000000000000e+00" cType="1" res="-9.9000000000000000e+01" rms="0.0000000000000000e+00" purity="3.1475308537483215e-01" nType="-1"/>
            </Node>
          </Node>
          <Node pos="r" depth="2" NCoef="0" IVar="9" Cut="1.8593873977661133e+00" cType="1" res="-9.9000000000000000e+01" rms="0.0000000000000000e+00" purity="4.3606981635093689e-01" nType="0">
            <Node pos="l" depth="3" NCoef="0" IVar="1" Cut="1.9449077844619751e+00" cType="0" res="-9.9000000000000000e+01" rms="0.0000000000000000e+00" purity="5.1163572072982788e-01" nType="0">
              <Node pos="l" depth="4" NCoef="0" IVar="-1" Cut="0.0000000000000000e+00" cType="1" res="-9.9000000000000000e+01" rms="0.0000000000000000e+00" purity="5.9648895263671875e-01" nType="1"/>
              <Node pos="r" depth="4" NCoef="0" IVar="-1" Cut="0.0000000000000000e+00" cType="1" res="-9.9000000000000000e+01" rms="0.0000000000000000e+00" purity="2.7884429693222046e-01" nType="-1"/>
            </Node>
            <Node pos="r" depth="3" NCoef="0" IVar="-1" Cut="4.3451404571533203e+01" cType="0" res="-9.9000000000000000e+01" rms="0.0000000000000000e+00" purity="1.7914994060993195e-01" nType="-1"/>
          </Node>
        </Node>
        <Node pos="r" depth="1" NCoef="0" IVar="0" Cut="1.1538376808166504e+00" cType="0" res="-9.9000000000000000e+01" rms="0.0000000000000000e+00" purity="1.8562974035739899e-01" nType="0">
          <Node pos="l" depth="2" NCoef="0" IVar="8" Cut="2.3555867373943329e-01" cType="1" res="-9.9000000000000000e+01" rms="0.0000000000000000e+00" purity="2.9115238785743713e-01" nType="0">
            <Node pos="l" depth="3" NCoef="0" IVar="7" Cut="1.9745621085166931e-01" cType="0" res="-9.9000000000000000e+01" rms="0.0000000000000000e+00" purity="3.5247206687927246e-01" nType="0">
              <Node pos="l" depth="4" NCoef="0" IVar="-1" Cut="0.0000000000000000e+00" cType="1" res="-9.9000000000000000e+01" rms="0.0000000000000000e+00" purity="6.2906110286712646e-01" nType="1"/>
              <Node pos="r" depth="4" NCoef="0" IVar="-1" Cut="0.0000000000000000e+00" cType="1" res="-9.9000000000000000e+01" rms="0.0000000000000000e+00" purity="3.1218266487121582e-01" nType="-1"/>
            </Node>
            <Node pos="r" depth="3" NCoef="0" IVar="-1" Cut="3.7857949733734131e-01" cType="1" res="-9.9000000000000000e+01" rms="0.0000000000000000e+00" purity="9.0682700276374817e-02" nType="-1"/>
          </Node>
          <Node pos="r" depth="2" NCoef="0" IVar="-1" Cut="7.6810933649539948e-02" cType="0" res="-9.9000000000000000e+01" rms="0.0000000000000000e+00" purity="8.8395096361637115e-02" nType="-1"/>
        </Node>
      </Node>
    </BinaryTree>
    <BinaryTree type="DecisionTree" boostWeight="4.9588722562541682e-01" itree="2">
      <Node pos="s" depth="0" NCoef="0" IVar="0" Cut="3.5244903564453125e+00" cType="0" res="-9.9000000000000000e+01" rms="0.0000000000000000e+00" purity="4.7715970873832703e-01" nType="0">
        <Node pos="l" depth="1" NCoef="0" IVar="7" Cut="7.6429747045040131e-02" cType="0" res="-9.9000000000000000e+01" rms="0.0000000000000000e+00" purity="6.7248058319091797e-01" nType="0">
          <Node pos="l" depth="2" NCoef="0" IVar="8" Cut="2.5332108139991760e-01" cType="1" res="-9.9000000000000000e+01" rms="0.0000000000000000e+00" purity="8.5198074579238892e-01" nType="0">
            <Node pos="l" depth="3" NCoef="0" IVar="4" Cut="6.6191520690917969e+01" cType="1" res="-9.9000000000000000e+01" rms="0.0000000000000000e+00" purity="8.7864744663238525e-01" nType="0">
              <Node pos="l" depth="4" NCoef="0" IVar="-1" Cut="0.0000000000000000e+00" cType="1" res="-9.9000000000000000e+01" rms="0.0000000000000000e+00" purity="8.8762718439102173e-01" nType="1"/>
              <Node pos="r" depth="4" NCoef="0" IVar="-1" Cut="0.0000000000000000e+00" cType="1" res="-9.9000000000000000e+01" rms="0.0000000000000000e+00" purity="2.8515955805778503e-01" nType="-1"/>
            </Node>
            <Node pos="r" depth="3" NCoef="0" IVar="7" Cut="2.1935528516769409e-01" cType="0" res="-9.9000000000000000e+01" rms="0.0000000000000000e+00" purity="4.9507379531860352e-01" nType="0">
              <Node pos="l" depth="4" NCoef="0" IVar="-1" Cut="0.0000000000000000e+00" cType="1" res="-9.9000000000000000e+01" rms="0.0000000000000000e+00" purity="8.8395649194717407e-01" nType="1"/>
              <Node pos="r" depth="4" NCoef="0" IVar="-1" Cut="0.0000000000000000e+00" cType="1" res="-9.9000000000000000e+01" rms="0.0000000000000000e+00" purity="4.0925976634025574e-01" nType="-1"/>
            </Node>
          </Node>
          <Node pos="r" depth="2" NCoef="0" IVar="5" Cut="5.3609790802001953e+01" cType="0" res="-9.9000000000000000e+01" rms="0.0000000000000000e+00" purity="5.1146405935287476e-01" nType="0">
            <Node pos="l" depth="3" NCoef="0" IVar="8" Cut="1.9046649336814880e-01" cType="1" res="-9.9000000000000000e+01" rms="0.0000000000000000e+00" purity="6.2887138128280640e-01" nType="0">
              <Node pos="l" depth="4" NCoef="0" IVar="-1" Cut="0.0000000000000000e+00" cType="1" res="-9.9000000000000000e+01" rms="0.0000000000000000e+00" purity="6.9454187154769897e-01" nType="1"/>
              <Node pos="r" depth="4" NCoef="0" IVar="-1" Cut="0.0000000000000000e+00" cType="1" res="-9.9000000000000000e+01" rms="0.0000000000000000e+00" purity="4.0411090850830078e-01" nType="-1"/>
            </Node>
            <Node pos="r" depth="3" NCoef="0" IVar="-1" Cut="2.6930515766143799e+00" cType="0" res="-9.9000000000000000e+01" rms="0.0000000000000000e+00" purity="3.1519261002540588e-01" nType="-1"/>
          </Node>
        </Node>
        <Node pos="r" depth="1" NCoef="0" IVar="8" Cut="1.9592684507369995e-01" cType="1" res="-9.9000000000000000e+01" rms="0.0000000000000000e+00" purity="3.4425920248031616e-01" nType="0">
          <Node pos="l" depth="2" NCoef="0" IVar="0" Cut="1.1747817993164062e+00" cType="0" res="-9.9000000000000000e+01" rms="0.0000000000000000e+00" purity="4.1781225800514221e-01" nType="0">
            <Node pos="l" depth="3" NCoef="0" IVar="5" Cut="6.9348815917968750e+01" cType="0" res="-9.9000000000000000e+01" rms="0.0000000000000000e+00" purity="4.9262925982475281e-01" nType="0">
              <Node pos="l" depth="4" NCoef="0" IVar="-1" Cut="0.0000000000000000e+00" cType="1" res="-9.9000000000000000e+01" rms="0.0000000000000000e+00" purity="5.6546133756637573e-01" nType="1"/>
              <Node pos="r" depth="4" NCoef="0" IVar="-1" Cut="0.0000000000000000e+00" cType="1" res="-9.9000000000000000e+01" rms="0.0000000000000000e+00" purity="3.5557827353477478e-01" nType="-1"/>
            </Node>
            <Node pos="r" depth="3" NCoef="0" IVar="-1" Cut="6.6876620054244995e-02" cType="0" res="-9.9000000000000000e+01" rms="0.0000000000000000e+00" purity="2.0390458405017853e-01" nType="-1"/>
          </Node>
          <Node pos="r" depth="2" NCoef="0" IVar="7" Cut="2.0239813625812531e-01" cType="0" res="-9.9000000000000000e+01" rms="0.0000000000000000e+00" purity="1.5607443451881409e-01" nType="0">
            <Node pos="l" depth="3" NCoef="0" IVar="0" Cut="2.0119023323059082e+00" cType="0" res="-9.9000000000000000e+01" rms="0.0000000000000000e+00" purity="4.9273633956909180e-01" nType="0">
              <Node pos="l" depth="4" NCoef="0" IVar="-1" Cut="0.0000000000000000e+00" cType="1" res="-9.9000000000000000e+01" rms="0.0000000000000000e+00" purity="6.5939021110534668e-01" nType="1"/>
              <Node pos="r" depth="4" NCoef="0" IVar="-1" Cut="0.0000000000000000e+00" cType="1" res="-9.9000000000000000e+01" rms="0.0000000000000000e+00" purity="3.0894264578819275e-01" nType="-1"/>
            </Node>
            <Node pos="r" depth="3" NCoef="0" IVar="-1" Cut="1.1746803522109985e+00" cType="0" res="-9.9000000000000000e+01" rms="0.0000000000000000e+00" purity="1.3859920203685760e-01" nType="-1"/>
          </Node>
        </Node>
      </Node>
    </BinaryTree>
    <BinaryTree type="DecisionTree" boostWeight="3.6560120317768663e-01" itree="3">
      <Node pos="s" depth="0" NCoef="0" IVar="0" Cut="3.0839290618896484e+00" cType="0" res="-9.9000000000000000e+01" rms="0.0000000000000000e+00" purity="4.7632297873497009e-01" nType="0">
        <Node pos="l" depth="1" NCoef="0" IVar="7" Cut="7.6429747045040131e-02" cType="0" res="-9.9000000000000000e+01" rms="0.0000000000000000e+00" purity="6.1831188201904297e-01" nType="0">
          <Node pos="l" depth="2" NCoef="0" IVar="2" Cut="2.9934151172637939e+00" cType="0" res="-9.9000000000000000e+01" rms="0.0000000000000000e+00" purity="7.7625674009323120e-01" nType="0">
            <Node pos="l" depth="3" NCoef="0" IVar="-1" Cut="3.9161367416381836e+00" cType="0" res="-9.9000000000000000e+01" rms="0.0000000000000000e+00" purity="8.5993313789367676e-01" nType="1"/>
            <Node pos="r" depth="3" NCoef="0" IVar="9" Cut="1.1946252584457397e+00" cType="1" res="-9.9000000000000000e+01" rms="0.0000000000000000e+00" purity="6.4928758144378662e-01" nType="0">
              <Node pos="l" depth="4" NCoef="0" IVar="-1" Cut="0.0000000000000000e+00" cType="1" res="-9.9000000000000000e+01" rms="0.0000000000000000e+00" purity="7.4343919754028320e-01" nType="1"/>
              <Node pos="r" depth="4" NCoef="0" IVar="-1" Cut="0.0000000000000000e+00" cType="1" res="-9.9000000000000000e+01" rms="0.0000000000000000e+00" purity="4.7698664665222168e-01" nType="-1"/>
            </Node>
          </Node>
          <Node pos="r" depth="2" NCoef="0" IVar="7" Cut="-7.7956035733222961e-02" cType="0" res="-9.9000000000000000e+01" rms="0.0000000000000000e+00" purity="4.9705496430397034e-01" nType="0">
            <Node pos="l" depth="3" NCoef="0" IVar="9" Cut="2.1103885173797607e+00" cType="1" res="-9.9000000000000000e+01" rms="0.0000000000000000e+00" purity="5.4635971784591675e-01" nType="0">
              <Node pos="l" depth="4" NCoef="0" IVar="-1" Cut="0.0000000000000000e+00" cType="1" res="-9.9000000000000000e+01" rms="0.0000000000000000e+00" purity="5.9204155206680298e-01" nType="1"/>
              <Node pos="r" depth="4" NCoef="0" IVar="-1" Cut="0.0000000000000000e+00" cType="1" res="-9.9000000000000000e+01" rms="0.0000000000000000e+00" purity="3.0115833878517151e-01" nType="-1"/>
            </Node>
            <Node pos="r" depth="3" NCoef="0" IVar="-1" Cut="-1.7206014692783356e-01" cType="0" res="-9.9000000000000000e+01" rms="0.0000000000000000e+00" purity="2.4709774553775787e-01" nType="-1"/>
          </Node>
        </Node>
        <Node pos="r" depth="1" NCoef="0" IVar="-1" Cut="2.6122832298278809e-01" cType="1" res="-9.9000000000000000e+01" rms="0.0000000000000000e+00" purity="3.4579831361770630e-01" nType="-1"/>
      </Node>
    </BinaryTree>
    <BinaryTree type="DecisionTree" boostWeight="3.0111386094820575e-01" itree="4">
      <Node pos="s" depth="0" NCoef="0" IVar="2" Cut="2.5431942939758301e+00" cType="0" res="-9.9000000000000000e+01" rms="0.0000000000000000e+00" purity="4.9989393353462219e-01" nType="0">
        <Node pos="l" depth="1" NCoef="0" IVar="0" Cut="5.2867355346679688e+00" cType="0" res="-9.9000000000000000e+01" rms="0.0000000000000000e+00" purity="5.5962967872619629e-01" nType="0">
          <Node pos="l" depth="2" NCoef="0" IVar="7" Cut="-1.2284125201404095e-02" cType="0" res="-9.9000000000000000e+01" rms="0.0000000000000000e+00" purity="8.2318955659866333e-01" nType="0">
            <Node pos="l" depth="3" NCoef="0" IVar="9" Cut="2.9239506721496582e+00" cType="1" res="-9.9000000000000000e+01" rms="0.0000000000000000e+00" purity="8.7788379192352295e-01" nType="0">
              <Node pos="l" depth="4" NCoef="0" IVar="-1" Cut="0.0000000000000000e+00" cType="1" res="-9.9000000000000000e+01" rms="0.0000000000000000e+00" purity="8.9039593935012817e-01" nType="1"/>
              <Node pos="r" depth="4" NCoef="0" IVar="-1" Cut="0.0000000000000000e+00" cType="1" res="-9.9000000000000000e+01" rms="0.0000000000000000e+00" purity="4.7986054420471191e-01" nType="-1"/>
            </Node>
            <Node pos="r" depth="3" NCoef="0" IVar="7" Cut="-1.9128522276878357e-01" cType="0" res="-9.9000000000000000e+01" rms="0.0000000000000000e+00" purity="5.3487598896026611e-01" nType="0">
              <Node pos="l" depth="4" NCoef="0" IVar="-1" Cut="0.0000000000000000e+00" cType="1" res="-9.9000000000000000e+01" rms="0.0000000000000000e+00" purity="5.7637840509414673e-01" nType="1"/>
              <Node pos="r" depth="4" NCoef="0" IVar="-1" Cut="0.0000000000000000e+00" cType="1" res="-9.9000000000000000e+01" rms="0.0000000000000000e+00" purity="6.5921172499656677e-02" nType="-1"/>
            </Node>
          </Node>
          <Node pos="r" depth="2" NCoef="0" IVar="4" Cut="6.0693073272705078e+01" cType="1" res="-9.9000000000000000e+01" rms="0.0000000000000000e+00" purity="5.1897072792053223e-01" nType="0">
            <Node pos="l" depth="3" NCoef="0" IVar="7" Cut="-8.5809670388698578e-02" cType="0" res="-9.9000000000000000e+01" rms="0.0000000000000000e+00" purity="5.4238212108612061e-01" nType="0">
              <Node pos="l" depth="4" NCoef="0" IVar="-1" Cut="0.0000000000000000e+00" cType="1" res="-9.9000000000000000e+01" rms="0.0000000000000000e+00" purity="5.7008332014083862e-01" nType="1"/>
              <Node pos="r" depth="4" NCoef="0" IVar="-1" Cut="0.0000000000000000e+00" cType="1" res="-9.9000000000000000e+01" rms="0.0000000000000000e+00" purity="2.3325698077678680e-01" nType="-1"/>
            </Node>
            <Node pos="r" depth="3" NCoef="0" IVar="-1" Cut="6.5393180847167969e+01" cType="1" res="-9.9000000000000000e+01" rms="0.0000000000000000e+00" purity="1.7125652730464935e-01" nType="-1"/>
          </Node>
        </Node>
        <Node pos="r" depth="1" NCoef="0" IVar="-1" Cut="2.2439818382263184e+00" cType="0" res="-9.9000000000000000e+01" rms="0.0000000000000000e+00" purity="3.1180426478385925e-01" nType="-1"/>
      </Node>
    </BinaryTree>
    <BinaryTree type="DecisionTree" boostWeight="1.9140073437805802e-01" itree="5">
      <Node pos="s" depth="0" NCoef="0" IVar="0" Cut="5.2867355346679688e+00" cType="0" res="-9.9000000000000000e+01" rms="0.0000000000000000e+00" purity="4.7443452477455139e-01" nType="0">
        <Node pos="l" depth="1" NCoef="0" IVar="7" Cut="2.5621226057410240e-02" cType="0" res="-9.9000000000000000e+01" rms="0.0000000000000000e+00" purity="7.2248589992523193e-01" nType="0">
          <Node pos="l" depth="2" NCoef="0" IVar="6" Cut="4.0311012268066406e+01" cType="0" res="-9.9000000000000000e+01" rms="0.0000000000000000e+00" purity="8.3405786752700806e-01" nType="0">
            <Node pos="l" depth="3" NCoef="0" IVar="-1" Cut="2.0999588966369629e+00" cType="0" res="-9.9000000000000000e+01" rms="0.0000000000000000e+00" purity="9.0895104408264160e-01" nType="1"/>
            <Node pos="r" depth="3" NCoef="0" IVar="1" Cut="3.0281901359558105e-01" cType="0" res="-9.9000000000000000e+01" rms="0.0000000000000000e+00" purity="7.2030419111251831e-01" nType="0">
              <Node pos="l" depth="4" NCoef="0" IVar="-1" Cut="0.0000000000000000e+00" cType="1" res="-9.9000000000000000e+01" rms="0.0000000000000000e+00" purity="7.6645845174789429e-01" nType="1"/>
              <Node pos="r" depth="4" NCoef="0" IVar="-1" Cut="0.0000000000000000e+00" cType="1" res="-9.9000000000000000e+01" rms="0.0000000000000000e+00" purity="4.2238855361938477e-01" nType="-1"/>
            </Node>
          </Node>
          <Node pos="r" depth="2" NCoef="0" IVar="5" Cut="4.5744403839111328e+01" cType="0" res="-9.9000000000000000e+01" rms="0.0000000000000000e+00" purity="5.1918023824691772e-01" nType="0">
            <Node pos="l" depth="3" NCoef="0" IVar="4" Cut="6.3009891510009766e+01" cType="1" res="-9.9000000000000000e+01" rms="0.0000000000000000e+00" purity="6.0222852230072021e-01" nType="0">
              <Node pos="l" depth="4" NCoef="0" IVar="-1" Cut="0.0000000000000000e+00" cType="1" res="-9.9000000000000000e+01" rms="0.0000000000000000e+00" purity="6.3198649883270264e-01" nType="1"/>
              <Node pos="r" depth="4" NCoef="0" IVar="-1" Cut="0.0000000000000000e+00" cType="1" res="-9.9000000000000000e+01" rms="0.0000000000000000e+00" purity="7.0749022066593170e-02" nType="-1"/>
            </Node>
            <Node pos="r" depth="3" NCoef="0" IVar="6" Cut="3.4810432434082031e+01" cType="0" res="-9.9000000000000000e+01" rms="0.0000000000000000e+00" purity="3.3622533082962036e-01" nType="0">
              <Node pos="l" depth="4" NCoef="0" IVar="-1" Cut="0.0000000000000000e+00" cType="1" res="-9.9000000000000000e+01" rms="0.0000000000000000e+00" purity="6.0109508037567139e-01" nType="1"/>
              <Node pos="r" depth="4" NCoef="0" IVar="-1" Cut="0.0000000000000000e+00" cType="1" res="-9.9000000000000000e+01" rms="0.0000000000000000e+00" purity="2.4287842214107513e-01" nType="-1"/>
            </Node>
          </Node>
        </Node>
        <Node pos="r" depth="1" NCoef="0" IVar="8" Cut="2.6122832298278809e-01" cType="1" res="-9.9000000000000000e+01" rms="0.0000000000000000e+00" purity="4.4016310572624207e-01" nType="0">
          <Node pos="l" depth="2" NCoef="0" IVar="4" Cut="6.8279029846191406e+01" cType="1" res="-9.9000000000000000e+01" rms="0.0000000000000000e+00" purity="4.7271299362182617e-01" nType="0">
            <Node pos="l" depth="3" NCoef="0" IVar="9" Cut="2.5743739604949951e+00" cType="1" res="-9.9000000000000000e+01" rms="0.0000000000000000e+00" purity="4.8740962147712708e-01" nType="0">
              <Node pos="l" depth="4" NCoef="0" IVar="-1" Cut="0.0000000000000000e+00" cType="1" res="-9.9000000000000000e+01" rms="0.0000000000000000e+00" purity="5.0578004121780396e-01" nType="1"/>
              <Node pos="r" depth="4" NCoef="0" IVar="-1" Cut="0.0000000000000000e+00" cType="1" res="-9.9000000000000000e+01" rms="0.0000000000000000e+00" purity="1.7926052212715149e-01" nType="-1"/>
            </Node>
            <Node pos="r" depth="3" NCoef="0" IVar="-1" Cut="7.6950309753417969e+01" cType="1" res="-9.9000000000000000e+01" rms="0.0000000000000000e+00" purity="9.3193136155605316e-02" nType="-1"/>
          </Node>
          <Node pos="r" depth="2" NCoef="0" IVar="-1" Cut="2.5426094532012939e+00" cType="0" res="-9.9000000000000000e+01" rms="0.0000000000000000e+00" purity="2.5203463435173035e-01" nType="-1"/>
        </Node>
      </Node>
    </BinaryTree>
    <BinaryTree type="DecisionTree" boostWeight="2.7734339803879793e-01" itree="6">
      <Node pos="s" depth="0" NCoef="0" IVar="0" Cut="5.2867355346679688e+00" cType="0" res="-9.9000000000000000e+01" rms="0.0000000000000000e+00" purity="4.4615301489830017e-01" nType="0">
        <Node pos="l" depth="1" NCoef="0" IVar="7" Cut="2.5621226057410240e-02" cType="0" res="-9.9000000000000000e+01" rms="0.0000000000000000e+00" purity="6.9769901037216187e-01" nType="0">
          <Node pos="l" depth="2" NCoef="0" IVar="-1" Cut="4.0311012268066406e+01" cType="0" res="-9.9000000000000000e+01" rms="0.0000000000000000e+00" purity="8.1180161237716675e-01" nType="1"/>
          <Node pos="r" depth="2" NCoef="0" IVar="7" Cut="-1.2722830474376678e-01" cType="0" res="-9.9000000000000000e+01" rms="0.0000000000000000e+00" purity="4.9687948822975159e-01" nType="0">
            <Node pos="l" depth="3" NCoef="0" IVar="4" Cut="6.3009891510009766e+01" cType="1" res="-9.9000000000000000e+01" rms="0.0000000000000000e+00" purity="5.3963989019393921e-01" nType="0">
              <Node pos="l" depth="4" NCoef="0" IVar="-1" Cut="0.0000000000000000e+00" cType="1" res="-9.9000000000000000e+01" rms="0.0000000000000000e+00" purity="5.6529730558395386e-01" nType="1"/>
              <Node pos="r" depth="4" NCoef="0" IVar="-1" Cut="0.0000000000000000e+00" cType="1" res="-9.9000000000000000e+01" rms="0.0000000000000000e+00" purity="6.4425885677337646e-02" nType="-1"/>
            </Node>
            <Node pos="r" depth="3" NCoef="0" IVar="-1" Cut="3.7105552673339844e+01" cType="0" res="-9.9000000000000000e+01" rms="0.0000000000000000e+00" purity="1.6784235835075378e-01" nType="-1"/>
          </Node>
        </Node>
        <Node pos="r" depth="1" NCoef="0" IVar="0" Cut="7.5521051883697510e-01" cType="0" res="-9.9000000000000000e+01" rms="0.0000000000000000e+00" purity="4.1282469034194946e-01" nType="0">
          <Node pos="l" depth="2" NCoef="0" IVar="7" Cut="1.2789668142795563e-01" cType="0" res="-9.9000000000000000e+01" rms="0.0000000000000000e+00" purity="4.3888080120086670e-01" nType="0">
            <Node pos="l" depth="3" NCoef="0" IVar="0" Cut="3.3445138931274414e+00" cType="0" res="-9.9000000000000000e+01" rms="0.0000000000000000e+00" purity="5.6883054971694946e-01" nType="0">
              <Node pos="l" depth="4" NCoef="0" IVar="-1" Cut="0.0000000000000000e+00" cType="1" res="-9.9000000000000000e+01" rms="0.0000000000000000e+00" purity="7.2298306226730347e-01" nType="1"/>
              <Node pos="r" depth="4" NCoef="0" IVar="-1" Cut="0.0000000000000000e+00" cType="1" res="-9.9000000000000000e+01" rms="0.0000000000000000e+00" purity="4.7794371843338013e-01" nType="-1"/>
            </Node>
            <Node pos="r" depth="3" NCoef="0" IVar="-1" Cut="1.7952299118041992e+00" cType="0" res="-9.9000000000000000e+01" rms="0.0000000000000000e+00" purity="3.9972382783889771e-01" nType="-1"/>
          </Node>
          <Node pos="r" depth="2" NCoef="0" IVar="-1" Cut="1.2875126600265503e+00" cType="1" res="-9.9000000000000000e+01" rms="0.0000000000000000e+00" purity="1.9522298872470856e-01" nType="-1"/>
        </Node>
      </Node>
    </BinaryTree>
    <BinaryTree type="DecisionTree" boostWeight="2.0839950617382791e-01" itree="7">
      <Node pos="s" depth="0" NCoef="0" IVar="0" Cut="8.8112258911132812e-01" cType="0" res="-9.9000000000000000e+01" rms="0.0000000000000000e+00" purity="4.9016541242599487e-01" nType="0">
        <Node pos="l" depth="1" NCoef="0" IVar="4" Cut="6.8277458190917969e+01" cType="1" res="-9.9000000000000000e+01" rms="0.0000000000000000e+00" purity="5.1674544811248779e-01" nType="0">
          <Node pos="l" depth="2" NCoef="0" IVar="4" Cut="3.9014671325683594e+01" cType="0" res="-9.9000000000000000e+01" rms="0.0000000000000000e+00" purity="5.2844607830047607e-01" nType="0">
            <Node pos="l" depth="3" NCoef="0" IVar="7" Cut="-8.2442248240113258e-03" cType="0" res="-9.9000000000000000e+01" rms="0.0000000000000000e+00" purity="6.3343083858489990e-01" nType="0">
              <Node pos="l" depth="4" NCoef="0" IVar="-1" Cut="0.0000000000000000e+00" cType="1" res="-9.9000000000000000e+01" rms="0.0000000000000000e+00" purity="6.8510854244232178e-01" nType="1"/>
              <Node pos="r" depth="4" NCoef="0" IVar="-1" Cut="0.0000000000000000e+00" cType="1" res="-9.9000000000000000e+01" rms="0.0000000000000000e+00" purity="3.9152672886848450e-01" nType="-1"/>
            </Node>
            <Node pos="r" depth="3" NCoef="0" IVar="-1" Cut="2.9073183536529541e+00" cType="1" res="-9.9000000000000000e+01" rms="0.0000000000000000e+00" purity="4.7642347216606140e-01" nType="-1"/>
          </Node>
          <Node pos="r" depth="2" NCoef="0" IVar="4" Cut="8.1285057067871094e+01" cType="1" res="-9.9000000000000000e+01" rms="0.0000000000000000e+00" purity="1.1992117762565613e-01" nType="0">
            <Node pos="l" depth="3" NCoef="0" IVar="7" Cut="1.6325733065605164e-01" cType="0" res="-9.9000000000000000e+01" rms="0.0000000000000000e+00" purity="1.9426135718822479e-01" nType="0">
              <Node pos="l" depth="4" NCoef="0" IVar="-1" Cut="0.0000000000000000e+00" cType="1" res="-9.9000000000000000e+01" rms="0.0000000000000000e+00" purity="5.6390362977981567e-01" nType="1"/>
              <Node pos="r" depth="4" NCoef="0" IVar="-1" Cut="0.0000000000000000e+00" cType="1" res="-9.9000000000000000e+01" rms="0.0000000000000000e+00" purity="1.4198531210422516e-01" nType="-1"/>
            </Node>
            <Node pos="r" depth="3" NCoef="0" IVar="-1" Cut="9.5771931111812592e-02" cType="1" res="-9.9000000000000000e+01" rms="0.0000000000000000e+00" purity="3.0440019443631172e-02" nType="-1"/>
          </Node>
        </Node>
        <Node pos="r" depth="1" NCoef="0" IVar="3" Cut="2.2722728252410889e+00" cType="1" res="-9.9000000000000000e+01" rms="0.0000000000000000e+00" purity="2.6554766297340393e-01" nType="0">
          <Node pos="l" depth="2" NCoef="0" IVar="7" Cut="3.2848171889781952e-02" cType="0" res="-9.9000000000000000e+01" rms="0.0000000000000000e+00" purity="3.3707460761070251e-01" nType="0">
            <Node pos="l" depth="3" NCoef="0" IVar="8" Cut="1.2822902202606201e-01" cType="1" res="-9.9000000000000000e+01" rms="0.0000000000000000e+00" purity="4.7021421790122986e-01" nType="0">
              <Node pos="l" depth="4" NCoef="0" IVar="-1" Cut="0.0000000000000000e+00" cType="1" res="-9.9000000000000000e+01" rms="0.0000000000000000e+00" purity="5.8701145648956299e-01" nType="1"/>
              <Node pos="r" depth="4" NCoef="0" IVar="-1" Cut="0.0000000000000000e+00" cType="1" res="-9.9000000000000000e+01" rms="0.0000000000000000e+00" purity="2.3155999183654785e-01" nType="-1"/>
            </Node>
            <Node pos="r" depth="3" NCoef="0" IVar="-1" Cut="2.3934502601623535e+00" cType="0" res="-9.9000000000000000e+01" rms="0.0000000000000000e+00" purity="2.0202724635601044e-01" nType="-1"/>
          </Node>
          <Node pos="r" depth="2" NCoef="0" IVar="0" Cut="8.3854901790618896e-01" cType="0" res="-9.9000000000000000e+01" rms="0.0000000000000000e+00" purity="6.3678644597530365e-02" nType="0">
            <Node pos="l" depth="3" NCoef="0" IVar="6" Cut="4.6248428344726562e+01" cType="0" res="-9.9000000000000000e+01" rms="0.0000000000000000e+00" purity="3.6710205674171448e-01" nType="0">
              <Node pos="l" depth="4" NCoef="0" IVar="-1" Cut="0.0000000000000000e+00" cType="1" res="-9.9000000000000000e+01" rms="0.0000000000000000e+00" purity="6.9877517223358154e-01" nType="1"/>
              <Node pos="r" depth="4" NCoef="0" IVar="-1" Cut="0.0000000000000000e+00" cType="1" res="-9.9000000000000000e+01" rms="0.0000000000000000e+00" purity="0.0000000000000000e+00" nType="-1"/>
            </Node>
            <Node pos="r" depth="3" NCoef="0" IVar="-1" Cut="2.2949898242950439e-01" cType="0" res="-9.9000000000000000e+01" rms="0.0000000000000000e+00" purity="4.8648063093423843e-02" nType="-1"/>
          </Node>
        </Node>
      </Node>
    </BinaryTree>
    <BinaryTree type="DecisionTree" boostWeight="2.2962151400025757e-01" itree="8">
      <Node pos="s" depth="0" NCoef="0" IVar="0" Cut="8.8112258911132812e-01" cType="0" res="-9.9000000000000000e+01" rms="0.0000000000000000e+00" purity="5.1477873325347900e-01" nType="0">
        <Node pos="l" depth="1" NCoef="0" IVar="4" Cut="6.0691371917724609e+01" cType="1" res="-9.9000000000000000e+01" rms="0.0000000000000000e+00" purity="5.4162871837615967e-01" nType="0">
          <Node pos="l" depth="2" NCoef="0" IVar="7" Cut="-1.7163789272308350e-01" cType="0" res="-9.9000000000000000e+01" rms="0.0000000000000000e+00" purity="5.5727696418762207e-01" nType="0">
            <Node pos="l" depth="3" NCoef="0" IVar="9" Cut="2.9073028564453125e+00" cType="1" res="-9.9000000000000000e+01" rms="0.0000000000000000e+00" purity="5.6819373369216919e-01" nType="0">
              <Node pos="l" depth="4" NCoef="0" IVar="-1" Cut="0.0000000000000000e+00" cType="1" res="-9.9000000000000000e+01" rms="0.0000000000000000e+00" purity="5.7851028442382812e-01" nType="1"/>
              <Node pos="r" depth="4" NCoef="0" IVar="-1" Cut="0.0000000000000000e+00" cType="1" res="-9.9000000000000000e+01" rms="0.0000000000000000e+00" purity="2.2055214643478394e-01" nType="-1"/>
            </Node>
            <Node pos="r" depth="3" NCoef="0" IVar="-1" Cut="2.8426649570465088e+00" cType="0" res="-9.9000000000000000e+01" rms="0.0000000000000000e+00" purity="2.0070762932300568e-01" nType="-1"/>
          </Node>
          <Node pos="r" depth="2" NCoef="0" IVar="4" Cut="6.5388870239257812e+01" cType="1" res="-9.9000000000000000e+01" rms="0.0000000000000000e+00" purity="2.4571377038955688e-01" nType="0">
            <Node pos="l" depth="3" NCoef="0" IVar="4" Cut="6.1808353424072266e+01" cType="1" res="-9.9000000000000000e+01" rms="0.0000000000000000e+00" purity="4.3596768379211426e-01" nType="0">
              <Node pos="l" depth="4" NCoef="0" IVar="-1" Cut="0.0000000000000000e+00" cType="1" res="-9.9000000000000000e+01" rms="0.0000000000000000e+00" purity="6.6000890731811523e-01" nType="1"/>
              <Node pos="r" depth="4" NCoef="0" IVar="-1" Cut="0.0000000000000000e+00" cType="1" res="-9.9000000000000000e+01" rms="0.0000000000000000e+00" purity="3.4424668550491333e-01" nType="-1"/>
            </Node>
            <Node pos="r" depth="3" NCoef="0" IVar="-1" Cut="7.8808349609375000e+01" cType="1" res="-9.9000000000000000e+01" rms="0.0000000000000000e+00" purity="1.5145465731620789e-01" nType="-1"/>
          </Node>
        </Node>
        <Node pos="r" depth="1" NCoef="0" IVar="-1" Cut="2.2722728252410889e+00" cType="1" res="-9.9000000000000000e+01" rms="0.0000000000000000e+00" purity="2.7793440222740173e-01" nType="-1"/>
      </Node>
    </BinaryTree>
    <BinaryTree type="DecisionTree" boostWeight="2.2257760391210824e-01" itree="9">
      <Node pos="s" depth="0" NCoef="0" IVar="8" Cut="6.5314829349517822e-02" cType="1" res="-9.9000000000000000e+01" rms="0.0000000000000000e+00" purity="4.7900593280792236e-01" nType="0">
        <Node pos="l" depth="1" NCoef="0" IVar="0" Cut="4.6925816535949707e+00" cType="0" res="-9.9000000000000000e+01" rms="0.0000000000000000e+00" purity="5.6119447946548462e-01" nType="0">
          <Node pos="l" depth="2" NCoef="0" IVar="7" Cut="-1.2910707155242562e-03" cType="0" res="-9.9000000000000000e+01" rms="0.0000000000000000e+00" purity="6.9331264495849609e-01" nType="0">
            <Node pos="l" depth="3" NCoef="0" IVar="-1" Cut="4.0988029479980469e+01" cType="0" res="-9.9000000000000000e+01" rms="0.0000000000000000e+00" purity="8.0805140733718872e-01" nType="1"/>
            <Node pos="r" depth="3" NCoef="0" IVar="9" Cut="1.1491923332214355e+00" cType="1" res="-9.9000000000000000e+01" rms="0.0000000000000000e+00" purity="3.8409775495529175e-01" nType="0">
              <Node pos="l" depth="4" NCoef="0" IVar="-1" Cut="0.0000000000000000e+00" cType="1" res="-9.9000000000000000e+01" rms="0.0000000000000000e+00" purity="5.4725140333175659e-01" nType="1"/>
              <Node pos="r" depth="4" NCoef="0" IVar="-1" Cut="0.0000000000000000e+00" cType="1" res="-9.9000000000000000e+01" rms="0.0000000000000000e+00" purity="2.3115879297256470e-01" nType="-1"/>
            </Node>
          </Node>
          <Node pos="r" depth="2" NCoef="0" IVar="9" Cut="1.1629291772842407e+00" cType="1" res="-9.9000000000000000e+01" rms="0.0000000000000000e+00" purity="5.2952927350997925e-01" nType="0">
            <Node pos="l" depth="3" NCoef="0" IVar="4" Cut="6.6052749633789062e+01" cType="1" res="-9.9000000000000000e+01" rms="0.0000000000000000e+00" purity="5.7158130407333374e-01" nType="0">
              <Node pos="l" depth="4" NCoef="0" IVar="-1" Cut="0.0000000000000000e+00" cType="1" res="-9.9000000000000000e+01" rms="0.0000000000000000e+00" purity="5.8314722776412964e-01" nType="1"/>
              <Node pos="r" depth="4" NCoef="0" IVar="-1" Cut="0.0000000000000000e+00" cType="1" res="-9.9000000000000000e+01" rms="0.0000000000000000e+00" purity="2.3497699201107025e-01" nType="-1"/>
            </Node>
            <Node pos="r" depth="3" NCoef="0" IVar="6" Cut="5.1607776641845703e+01" cType="0" res="-9.9000000000000000e+01" rms="0.0000000000000000e+00" purity="4.5013874769210815e-01" nType="0">
              <Node pos="l" depth="4" NCoef="0" IVar="-1" Cut="0.0000000000000000e+00" cType="1" res="-9.9000000000000000e+01" rms="0.0000000000000000e+00" purity="5.6857806444168091e-01" nType="1"/>
              <Node pos="r" depth="4" NCoef="0" IVar="-1" Cut="0.0000000000000000e+00" cType="1" res="-9.9000000000000000e+01" rms="0.0000000000000000e+00" purity="3.7399449944496155e-01" nType="-1"/>
            </Node>
          </Node>
        </Node>
        <Node pos="r" depth="1" NCoef="0" IVar="6" Cut="6.1078323364257812e+01" cType="0" res="-9.9000000000000000e+01" rms="0.0000000000000000e+00" purity="4.3093320727348328e-01" nType="0">
          <Node pos="l" depth="2" NCoef="0" IVar="0" Cut="3.3121192455291748e+00" cType="0" res="-9.9000000000000000e+01" rms="0.0000000000000000e+00" purity="5.3927308320999146e-01" nType="0">
            <Node pos="l" depth="3" NCoef="0" IVar="5" Cut="1.9479809570312500e+02" cType="1" res="-9.9000000000000000e+01" rms="0.0000000000000000e+00" purity="6.6156280040740967e-01" nType="0">
              <Node pos="l" depth="4" NCoef="0" IVar="-1" Cut="0.0000000000000000e+00" cType="1" res="-9.9000000000000000e+01" rms="0.0000000000000000e+00" purity="6.9208019971847534e-01" nType="1"/>
              <Node pos="r" depth="4" NCoef="0" IVar="-1" Cut="0.0000000000000000e+00" cType="1" res="-9.9000000000000000e+01" rms="0.0000000000000000e+00" purity="3.9518231153488159e-01" nType="-1"/>
            </Node>
            <Node pos="r" depth="3" NCoef="0" IVar="-1" Cut="4.9931710958480835e-01" cType="1" res="-9.9000000000000000e+01" rms="0.0000000000000000e+00" purity="4.8091825842857361e-01" nType="-1"/>
          </Node>
          <Node pos="r" depth="2" NCoef="0" IVar="-1" Cut="3.4439788818359375e+01" cType="0" res="-9.9000000000000000e+01" rms="0.0000000000000000e+00" purity="3.9155682921409607e-01" nType="-1"/>
        </Node>
      </Node>
    </BinaryTree>
    <BinaryTree type="DecisionTree" boostWeight="1.6854549295254576e-01" itree="10">
      <Node pos="s" depth="0" NCoef="0" IVar="7" Cut="2.2949898242950439e-01" cType="0" res="-9.9000000000000000e+01" rms="0.0000000000000000e+00" purity="4.9681481719017029e-01" nType="0">
        <Node pos="l" depth="1" NCoef="0" IVar="0" Cut="3.9824385643005371e+00" cType="0" res="-9.9000000000000000e+01" rms="0.0000000000000000e+00" purity="6.7776334285736084e-01" nType="0">
          <Node pos="l" depth="2" NCoef="0" IVar="1" Cut="2.0928606986999512e+00" cType="1" res="-9.9000000000000000e+01" rms="0.0000000000000000e+00" purity="8.5295337438583374e-01" nType="0">
            <Node pos="l" depth="3" NCoef="0" IVar="4" Cut="6.1289482116699219e+01" cType="1" res="-9.9000000000000000e+01" rms="0.0000000000000000e+00" purity="9.0611284971237183e-01" nType="0">
              <Node pos="l" depth="4" NCoef="0" IVar="-1" Cut="0.0000000000000000e+00" cType="1" res="-9.9000000000000000e+01" rms="0.0000000000000000e+00" purity="9.2329084873199463e-01" nType="1"/>
              <Node pos="r" depth="4" NCoef="0" IVar="-1" Cut="0.0000000000000000e+00" cType="1" res="-9.9000000000000000e+01" rms="0.0000000000000000e+00" purity="4.3466368317604065e-01" nType="-1"/>
            </Node>
            <Node pos="r" depth="3" NCoef="0" IVar="0" Cut="4.7639460563659668e+00" cType="0" res="-9.9000000000000000e+01" rms="0.0000000000000000e+00" purity="6.3429647684097290e-01" nType="0">
              <Node pos="l" depth="4" NCoef="0" IVar="-1" Cut="0.0000000000000000e+00" cType="1" res="-9.9000000000000000e+01" rms="0.0000000000000000e+00" purity="9.2784762382507324e-01" nType="1"/>
              <Node pos="r" depth="4" NCoef="0" IVar="-1" Cut="0.0000000000000000e+00" cType="1" res="-9.9000000000000000e+01" rms="0.0000000000000000e+00" purity="4.2500892281532288e-01" nType="-1"/>
            </Node>
          </Node>
          <Node pos="r" depth="2" NCoef="0" IVar="4" Cut="3.0838634490966797e+01" cType="0" res="-9.9000000000000000e+01" rms="0.0000000000000000e+00" purity="6.0453319549560547e-01" nType="0">
            <Node pos="l" depth="3" NCoef="0" IVar="4" Cut="6.3732604980468750e+01" cType="1" res="-9.9000000000000000e+01" rms="0.0000000000000000e+00" purity="7.0319104194641113e-01" nType="0">
              <Node pos="l" depth="4" NCoef="0" IVar="-1" Cut="0.0000000000000000e+00" cType="1" res="-9.9000000000000000e+01" rms="0.0000000000000000e+00" purity="7.2541695833206177e-01" nType="1"/>
              <Node pos="r" depth="4" NCoef="0" IVar="-1" Cut="0.0000000000000000e+00" cType="1" res="-9.9000000000000000e+01" rms="0.0000000000000000e+00" purity="3.7418222427368164e-01" nType="-1"/>
            </Node>
            <Node pos="r" depth="3" NCoef="0" IVar="7" Cut="3.8431358337402344e-01" cType="0" res="-9.9000000000000000e+01" rms="0.0000000000000000e+00" purity="5.1598054170608521e-01" nType="0">
              <Node pos="l" depth="4" NCoef="0" IVar="-1" Cut="0.0000000000000000e+00" cType="1" res="-9.9000000000000000e+01" rms="0.0000000000000000e+00" purity="9.3803167343139648e-01" nType="1"/>
              <Node pos="r" depth="4" NCoef="0" IVar="-1" Cut="0.0000000000000000e+00" cType="1" res="-9.9000000000000000e+01" rms="0.0000000000000000e+00" purity="4.9334040284156799e-01" nType="-1"/>
            </Node>
          </Node>
        </Node>
        <Node pos="r" depth="1" NCoef="0" IVar="1" Cut="1.0471915006637573e+00" cType="0" res="-9.9000000000000000e+01" rms="0.0000000000000000e+00" purity="4.7939318418502808e-01" nType="0">
          <Node pos="l" depth="2" NCoef="0" IVar="4" Cut="6.8280197143554688e+01" cType="1" res="-9.9000000000000000e+01" rms="0.0000000000000000e+00" purity="5.0991594791412354e-01" nType="0">
            <Node pos="l" depth="3" NCoef="0" IVar="7" Cut="-1.9584773480892181e-01" cType="0" res="-9.9000000000000000e+01" rms="0.0000000000000000e+00" purity="5.1917898654937744e-01" nType="0">
              <Node pos="l" depth="4" NCoef="0" IVar="-1" Cut="0.0000000000000000e+00" cType="1" res="-9.9000000000000000e+01" rms="0.0000000000000000e+00" purity="5.2774232625961304e-01" nType="1"/>
              <Node pos="r" depth="4" NCoef="0" IVar="-1" Cut="0.0000000000000000e+00" cType="1" res="-9.9000000000000000e+01" rms="0.0000000000000000e+00" purity="1.7267216742038727e-01" nType="-1"/>
            </Node>
            <Node pos="r" depth="3" NCoef="0" IVar="-1" Cut="7.6957633972167969e+01" cType="1" res="-9.9000000000000000e+01" rms="0.0000000000000000e+00" purity="1.6092944145202637e-01" nType="-1"/>
          </Node>
          <Node pos="r" depth="2" NCoef="0" IVar="7" Cut="8.8820032775402069e-02" cType="0" res="-9.9000000000000000e+01" rms="0.0000000000000000e+00" purity="3.3802458643913269e-01" nType="0">
            <Node pos="l" depth="3" NCoef="0" IVar="2" Cut="2.9958217144012451e+00" cType="0" res="-9.9000000000000000e+01" rms="0.0000000000000000e+00" purity="4.8485475778579712e-01" nType="0">
              <Node pos="l" depth="4" NCoef="0" IVar="-1" Cut="0.0000000000000000e+00" cType="1" res="-9.9000000000000000e+01" rms="0.0000000000000000e+00" purity="5.8590936660766602e-01" nType="1"/>
              <Node pos="r" depth="4" NCoef="0" IVar="-1" Cut="0.0000000000000000e+00" cType="1" res="-9.9000000000000000e+01" rms="0.0000000000000000e+00" purity="3.1584960222244263e-01" nType="-1"/>
            </Node>
            <Node pos="r" depth="3" NCoef="0" IVar="-1" Cut="2.8426682949066162e+00" cType="0" res="-9.9000000000000000e+01" rms="0.0000000000000000e+00" purity="2.1076928079128265e-01" nType="-1"/>
          </Node>
        </Node>
      </Node>
    </BinaryTree>
    <BinaryTree type="DecisionTree" boostWeight="1.6832748845347159e-01" itree="11">
      <Node pos="s" depth="0" NCoef="0" IVar="7" Cut="2.2949898242950439e-01" cType="0" res="-9.9000000000000000e+01" rms="0.0000000000000000e+00" purity="4.7020369768142700e-01" nType="0">
        <Node pos="l" depth="1" NCoef="0" IVar="0" Cut="4.7789263725280762e+00" cType="0" res="-9.9000000000000000e+01" rms="0.0000000000000000e+00" purity="6.7643904685974121e-01" nType="0">
          <Node pos="l" depth="2" NCoef="0" IVar="8" Cut="1.9785754382610321e-01" cType="1" res="-9.9000000000000000e+01" rms="0.0000000000000000e+00" purity="9.1918879747390747e-01" nType="0">
            <Node pos="l" depth="3" NCoef="0" IVar="-1" Cut="2.0006217956542969e+00" cType="1" res="-9.9000000000000000e+01" rms="0.0000000000000000e+00" purity="9.4759804010391235e-01" nType="1"/>
            <Node pos="r" depth="3" NCoef="0" IVar="0" Cut="5.3963942527770996e+00" cType="0" res="-9.9000000000000000e+01" rms="0.0000000000000000e+00" purity="6.6835606098175049e-01" nType="0">
              <Node pos="l" depth="4" NCoef="0" IVar="-1" Cut="0.0000000000000000e+00" cType="1" res="-9.9000000000000000e+01" rms="0.0000000000000000e+00" purity="8.8857489824295044e-01" nType="1"/>
              <Node pos="r" depth="4" NCoef="0" IVar="-1" Cut="0.0000000000000000e+00" cType="1" res="-9.9000000000000000e+01" rms="0.0000000000000000e+00" purity="4.3711221218109131e-01" nType="-1"/>
            </Node>
          </Node>
          <Node pos="r" depth="2" NCoef="0" IVar="7" Cut="3.1675484776496887e-01" cType="0" res="-9.9000000000000000e+01" rms="0.0000000000000000e+00" purity="6.2965989112854004e-01" nType="0">
            <Node pos="l" depth="3" NCoef="0" IVar="-1" Cut="3.6661693453788757e-01" cType="0" res="-9.9000000000000000e+01" rms="0.0000000000000000e+00" purity="7.7448219060897827e-01" nType="1"/>
            <Node pos="r" depth="3" NCoef="0" IVar="2" Cut="2.9987120628356934e+00" cType="0" res="-9.9000000000000000e+01" rms="0.0000000000000000e+00" purity="5.8619815111160278e-01" nType="0">
              <Node pos="l" depth="4" NCoef="0" IVar="-1" Cut="0.0000000000000000e+00" cType="1" res="-9.9000000000000000e+01" rms="0.0000000000000000e+00" purity="6.4031589031219482e-01" nType="1"/>
              <Node pos="r" depth="4" NCoef="0" IVar="-1" Cut="0.0000000000000000e+00" cType="1" res="-9.9000000000000000e+01" rms="0.0000000000000000e+00" purity="4.9946227669715881e-01" nType="-1"/>
            </Node>
          </Node>
        </Node>
        <Node pos="r" depth="1" NCoef="0" IVar="8" Cut="3.9182889461517334e-01" cType="1" res="-9.9000000000000000e+01" rms="0.0000000000000000e+00" purity="4.5075666904449463e-01" nType="0">
          <Node pos="l" depth="2" NCoef="0" IVar="9" Cut="1.6089887619018555e+00" cType="1" res="-9.9000000000000000e+01" rms="0.0000000000000000e+00" purity="4.6280658245086670e-01" nType="0">
            <Node pos="l" depth="3" NCoef="0" IVar="0" Cut="4.4056129455566406e+00" cType="0" res="-9.9000000000000000e+01" rms="0.0000000000000000e+00" purity="4.8940008878707886e-01" nType="0">
              <Node pos="l" depth="4" NCoef="0" IVar="-1" Cut="0.0000000000000000e+00" cType="1" res="-9.9000000000000000e+01" rms="0.0000000000000000e+00" purity="5.8195710182189941e-01" nType="1"/>
              <Node pos="r" depth="4" NCoef="0" IVar="-1" Cut="0.0000000000000000e+00" cType="1" res="-9.9000000000000000e+01" rms="0.0000000000000000e+00" purity="4.6455723047256470e-01" nType="-1"/>
            </Node>
            <Node pos="r" depth="3" NCoef="0" IVar="-1" Cut="1.2811039686203003e+00" cType="0" res="-9.9000000000000000e+01" rms="0.0000000000000000e+00" purity="3.7450411915779114e-01" nType="-1"/>
          </Node>
          <Node pos="r" depth="2" NCoef="0" IVar="-1" Cut="2.0931284427642822e+00" cType="0" res="-9.9000000000000000e+01" rms="0.0000000000000000e+00" purity="2.3636674880981445e-01" nType="-1"/>
        </Node>
      </Node>
    </BinaryTree>
    <BinaryTree type="DecisionTree" boostWeight="1.8336354276243180e-01" itree="12">
      <Node pos="s" depth="0" NCoef="0" IVar="7" Cut="2.2949898242950439e-01" cType="0" res="-9.9000000000000000e+01" rms="0.0000000000000000e+00" purity="4.9491611123085022e-01" nType="0">
        <Node pos="l" depth="1" NCoef="0" IVar="0" Cut="3.9824385643005371e+00" cType="0" res="-9.9000000000000000e+01" rms="0.0000000000000000e+00" purity="6.6073101758956909e-01" nType="0">
          <Node pos="l" depth="2" NCoef="0" IVar="1" Cut="2.0928606986999512e+00" cType="1" res="-9.9000000000000000e+01" rms="0.0000000000000000e+00" purity="8.3388346433639526e-01" nType="0">
            <Node pos="l" depth="3" NCoef="0" IVar="4" Cut="6.1289482116699219e+01" cType="1" res="-9.9000000000000000e+01" rms="0.0000000000000000e+00" purity="8.8528299331665039e-01" nType="0">
              <Node pos="l" depth="4" NCoef="0" IVar="-1" Cut="0.0000000000000000e+00" cType="1" res="-9.9000000000000000e+01" rms="0.0000000000000000e+00" purity="9.0373575687408447e-01" nType="1"/>
              <Node pos="r" depth="4" NCoef="0" IVar="-1" Cut="0.0000000000000000e+00" cType="1" res="-9.9000000000000000e+01" rms="0.0000000000000000e+00" purity="4.4093123078346252e-01" nType="-1"/>
            </Node>
            <Node pos="r" depth="3" NCoef="0" IVar="0" Cut="4.7639460563659668e+00" cType="0" res="-9.9000000000000000e+01" rms="0.0000000000000000e+00" purity="6.3312584161758423e-01" nType="0">
              <Node pos="l" depth="4" NCoef="0" IVar="-1" Cut="0.0000000000000000e+00" cType="1" res="-9.9000000000000000e+01" rms="0.0000000000000000e+00" purity="9.0392875671386719e-01" nType="1"/>
              <Node pos="r" depth="4" NCoef="0" IVar="-1" Cut="0.0000000000000000e+00" cType="1" res="-9.9000000000000000e+01" rms="0.0000000000000000e+00" purity="4.5821094512939453e-01" nType="-1"/>
            </Node>
          </Node>
          <Node pos="r" depth="2" NCoef="0" IVar="7" Cut="3.7492111325263977e-01" cType="0" res="-9.9000000000000000e+01" rms="0.0000000000000000e+00" purity="5.9409272670745850e-01" nType="0">
            <Node pos="l" depth="3" NCoef="0" IVar="-1" Cut="1.1598157882690430e+00" cType="1" res="-9.9000000000000000e+01" rms="0.0000000000000000e+00" purity="8.9949107170104980e-01" nType="1"/>
            <Node pos="r" depth="3" NCoef="0" IVar="5" Cut="2.9054452514648438e+02" cType="1" res="-9.9000000000000000e+01" rms="0.0000000000000000e+00" purity="5.7725757360458374e-01" nType="0">
              <Node pos="l" depth="4" NCoef="0" IVar="-1" Cut="0.0000000000000000e+00" cType="1" res="-9.9000000000000000e+01" rms="0.0000000000000000e+00" purity="5.9260910749435425e-01" nType="1"/>
              <Node pos="r" depth="4" NCoef="0" IVar="-1" Cut="0.0000000000000000e+00" cType="1" res="-9.9000000000000000e+01" rms="0.0000000000000000e+00" purity="3.1253957748413086e-01" nType="-1"/>
            </Node>
          </Node>
        </Node>
        <Node pos="r" depth="1" NCoef="0" IVar="1" Cut="2.2439818382263184e+00" cType="0" res="-9.9000000000000000e+01" rms="0.0000000000000000e+00" purity="4.7955498099327087e-01" nType="0">
          <Node pos="l" depth="2" NCoef="0" IVar="4" Cut="7.5867988586425781e+01" cType="1" res="-9.9000000000000000e+01" rms="0.0000000000000000e+00" purity="5.3232371807098389e-01" nType="0">
            <Node pos="l" depth="3" NCoef="0" IVar="7" Cut="-2.3424290120601654e-01" cType="0" res="-9.9000000000000000e+01" rms="0.0000000000000000e+00" purity="5.3775686025619507e-01" nType="0">
              <Node pos="l" depth="4" NCoef="0" IVar="-1" Cut="0.0000000000000000e+00" cType="1" res="-9.9000000000000000e+01" rms="0.0000000000000000e+00" purity="5.4273855686187744e-01" nType="1"/>
              <Node pos="r" depth="4" NCoef="0" IVar="-1" Cut="0.0000000000000000e+00" cType="1" res="-9.9000000000000000e+01" rms="0.0000000000000000e+00" purity="1.5965192019939423e-01" nType="-1"/>
            </Node>
            <Node pos="r" depth="3" NCoef="0" IVar="3" Cut="3.0749697685241699e+00" cType="0" res="-9.9000000000000000e+01" rms="0.0000000000000000e+00" purity="1.4679718017578125e-01" nType="0">
              <Node pos="l" depth="4" NCoef="0" IVar="-1" Cut="0.0000000000000000e+00" cType="1" res="-9.9000000000000000e+01" rms="0.0000000000000000e+00" purity="5.6713700294494629e-01" nType="1"/>
              <Node pos="r" depth="4" NCoef="0" IVar="-1" Cut="0.0000000000000000e+00" cType="1" res="-9.9000000000000000e+01" rms="0.0000000000000000e+00" purity="1.0328747332096100e-01" nType="-1"/>
            </Node>
          </Node>
          <Node pos="r" depth="2" NCoef="0" IVar="2" Cut="2.5433428287506104e+00" cType="0" res="-9.9000000000000000e+01" rms="0.0000000000000000e+00" purity="4.2560616135597229e-01" nType="0">
            <Node pos="l" depth="3" NCoef="0" IVar="6" Cut="4.1980228424072266e+01" cType="0" res="-9.9000000000000000e+01" rms="0.0000000000000000e+00" purity="4.5950156450271606e-01" nType="0">
              <Node pos="l" depth="4" NCoef="0" IVar="-1" Cut="0.0000000000000000e+00" cType="1" res="-9.9000000000000000e+01" rms="0.0000000000000000e+00" purity="5.4873573780059814e-01" nType="1"/>
              <Node pos="r" depth="4" NCoef="0" IVar="-1" Cut="0.0000000000000000e+00" cType="1" res="-9.9000000000000000e+01" rms="0.0000000000000000e+00" purity="3.7892729043960571e-01" nType="-1"/>
            </Node>
            <Node pos="r" depth="3" NCoef="0" IVar="-1" Cut="5.2964572906494141e+01" cType="0" res="-9.9000000000000000e+01" rms="0.0000000000000000e+00" purity="1.9656832516193390e-01" nType="-1"/>
          </Node>
        </Node>
      </Node>
    </BinaryTree>
    <BinaryTree type="DecisionTree" boostWeight="1.2489563877192107e-01" itree="13">
      <Node pos="s" depth="0" NCoef="0" IVar="0" Cut="4.4056129455566406e-01" cType="0" res="-9.9000000000000000e+01" rms="0.0000000000000000e+00" purity="4.7475889325141907e-01" nType="0">
        <Node pos="l" depth="1" NCoef="0" IVar="7" Cut="2.7036759257316589e-01" cType="0" res="-9.9000000000000000e+01" rms="0.0000000000000000e+00" purity="4.8518747091293335e-01" nType="0">
          <Node pos="l" depth="2" NCoef="0" IVar="-1" Cut="3.7186462879180908e+00" cType="0" res="-9.9000000000000000e+01" rms="0.0000000000000000e+00" purity="6.8396151065826416e-01" nType="1"/>
          <Node pos="r" depth="2" NCoef="0" IVar="9" Cut="9.6539860963821411e-01" cType="1" res="-9.9000000000000000e+01" rms="0.0000000000000000e+00" purity="4.7537505626678467e-01" nType="0">
            <Node pos="l" depth="3" NCoef="0" IVar="8" Cut="5.0788098573684692e-01" cType="1" res="-9.9000000000000000e+01" rms="0.0000000000000000e+00" purity="5.1566064357757568e-01" nType="0">
              <Node pos="l" depth="4" NCoef="0" IVar="-1" Cut="0.0000000000000000e+00" cType="1" res="-9.9000000000000000e+01" rms="0.0000000000000000e+00" purity="5.2122163772583008e-01" nType="1"/>
              <Node pos="r" depth="4" NCoef="0" IVar="-1" Cut="0.0000000000000000e+00" cType="1" res="-9.9000000000000000e+01" rms="0.0000000000000000e+00" purity="2.0128652453422546e-01" nType="-1"/>
            </Node>
            <Node pos="r" depth="3" NCoef="0" IVar="-1" Cut="2.8961892127990723e+00" cType="1" res="-9.9000000000000000e+01" rms="0.0000000000000000e+00" purity="4.3051260709762573e-01" nType="-1"/>
          </Node>
        </Node>
        <Node pos="r" depth="1" NCoef="0" IVar="1" Cut="1.6454970836639404e+00" cType="0" res="-9.9000000000000000e+01" rms="0.0000000000000000e+00" purity="2.4858151376247406e-01" nType="0">
          <Node pos="l" depth="2" NCoef="0" IVar="-1" Cut="1.5151797533035278e+00" cType="1" res="-9.9000000000000000e+01" rms="0.0000000000000000e+00" purity="3.2585772871971130e-01" nType="-1"/>
          <Node pos="r" depth="2" NCoef="0" IVar="9" Cut="3.1680664420127869e-01" cType="1" res="-9.9000000000000000e+01" rms="0.0000000000000000e+00" purity="7.8587494790554047e-02" nType="0">
            <Node pos="l" depth="3" NCoef="0" IVar="6" Cut="4.7154464721679688e+01" cType="0" res="-9.9000000000000000e+01" rms="0.0000000000000000e+00" purity="3.3681964874267578e-01" nType="0">
              <Node pos="l" depth="4" NCoef="0" IVar="-1" Cut="0.0000000000000000e+00" cType="1" res="-9.9000000000000000e+01" rms="0.0000000000000000e+00" purity="5.8732277154922485e-01" nType="1"/>
              <Node pos="r" depth="4" NCoef="0" IVar="-1" Cut="0.0000000000000000e+00" cType="1" res="-9.9000000000000000e+01" rms="0.0000000000000000e+00" purity="0.0000000000000000e+00" nType="-1"/>
            </Node>
            <Node pos="r" depth="3" NCoef="0" IVar="-1" Cut="0.0000000000000000e+00" cType="1" res="-9.9000000000000000e+01" rms="0.0000000000000000e+00" purity="0.0000000000000000e+00" nType="-1"/>
          </Node>
        </Node>
      </Node>
    </BinaryTree>
    <BinaryTree type="DecisionTree" boostWeight="1.4643402621359319e-01" itree="14">
      <Node pos="s" depth="0" NCoef="0" IVar="0" Cut="4.4056129455566406e-01" cType="0" res="-9.9000000000000000e+01" rms="0.0000000000000000e+00" purity="4.7340336441993713e-01" nType="0">
        <Node pos="l" depth="1" NCoef="0" IVar="8" Cut="3.8090956211090088e-01" cType="1" res="-9.9000000000000000e+01" rms="0.0000000000000000e+00" purity="4.8255202174186707e-01" nType="0">
          <Node pos="l" depth="2" NCoef="0" IVar="4" Cut="6.0691371917724609e+01" cType="1" res="-9.9000000000000000e+01" rms="0.0000000000000000e+00" purity="4.9185183644294739e-01" nType="0">
            <Node pos="l" depth="3" NCoef="0" IVar="4" Cut="3.1791458129882812e+01" cType="0" res="-9.9000000000000000e+01" rms="0.0000000000000000e+00" purity="5.0074148178100586e-01" nType="0">
              <Node pos="l" depth="4" NCoef="0" IVar="-1" Cut="0.0000000000000000e+00" cType="1" res="-9.9000000000000000e+01" rms="0.0000000000000000e+00" purity="5.5595880746841431e-01" nType="1"/>
              <Node pos="r" depth="4" NCoef="0" IVar="-1" Cut="0.0000000000000000e+00" cType="1" res="-9.9000000000000000e+01" rms="0.0000000000000000e+00" purity="4.5147502422332764e-01" nType="-1"/>
            </Node>
            <Node pos="r" depth="3" NCoef="0" IVar="-1" Cut="7.9477111816406250e+01" cType="1" res="-9.9000000000000000e+01" rms="0.0000000000000000e+00" purity="3.1134948134422302e-01" nType="-1"/>
          </Node>
          <Node pos="r" depth="2" NCoef="0" IVar="5" Cut="6.2457923889160156e+01" cType="0" res="-9.9000000000000000e+01" rms="0.0000000000000000e+00" purity="3.0662930011749268e-01" nType="0">
            <Node pos="l" depth="3" NCoef="0" IVar="0" Cut="2.2107665538787842e+00" cType="0" res="-9.9000000000000000e+01" rms="0.0000000000000000e+00" purity="3.9235523343086243e-01" nType="0">
              <Node pos="l" depth="4" NCoef="0" IVar="-1" Cut="0.0000000000000000e+00" cType="1" res="-9.9000000000000000e+01" rms="0.0000000000000000e+00" purity="5.0539231300354004e-01" nType="1"/>
              <Node pos="r" depth="4" NCoef="0" IVar="-1" Cut="0.0000000000000000e+00" cType="1" res="-9.9000000000000000e+01" rms="0.0000000000000000e+00" purity="1.6452446579933167e-01" nType="-1"/>
            </Node>
            <Node pos="r" depth="3" NCoef="0" IVar="-1" Cut="3.8776481628417969e+01" cType="0" res="-9.9000000000000000e+01" rms="0.0000000000000000e+00" purity="2.1710500121116638e-01" nType="-1"/>
          </Node>
        </Node>
        <Node pos="r" depth="1" NCoef="0" IVar="1" Cut="1.6454970836639404e+00" cType="0" res="-9.9000000000000000e+01" rms="0.0000000000000000e+00" purity="2.6972568035125732e-01" nType="0">
          <Node pos="l" depth="2" NCoef="0" IVar="-1" Cut="1.7971764802932739e+00" cType="0" res="-9.9000000000000000e+01" rms="0.0000000000000000e+00" purity="3.5386690497398376e-01" nType="-1"/>
          <Node pos="r" depth="2" NCoef="0" IVar="9" Cut="3.1680664420127869e-01" cType="1" res="-9.9000000000000000e+01" rms="0.0000000000000000e+00" purity="7.8014418482780457e-02" nType="0">
            <Node pos="l" depth="3" NCoef="0" IVar="6" Cut="4.7154464721679688e+01" cType="0" res="-9.9000000000000000e+01" rms="0.0000000000000000e+00" purity="3.2653909921646118e-01" nType="0">
              <Node pos="l" depth="4" NCoef="0" IVar="-1" Cut="0.0000000000000000e+00" cType="1" res="-9.9000000000000000e+01" rms="0.0000000000000000e+00" purity="5.5675756931304932e-01" nType="1"/>
              <Node pos="r" depth="4" NCoef="0" IVar="-1" Cut="0.0000000000000000e+00" cType="1" res="-9.9000000000000000e+01" rms="0.0000000000000000e+00" purity="0.0000000000000000e+00" nType="-1"/>
            </Node>
            <Node pos="r" depth="3" NCoef="0" IVar="-1" Cut="0.0000000000000000e+00" cType="1" res="-9.9000000000000000e+01" rms="0.0000000000000000e+00" purity="0.0000000000000000e+00" nType="-1"/>
          </Node>
        </Node>
      </Node>
    </BinaryTree>
    <BinaryTree type="DecisionTree" boostWeight="1.4373599328749406e-01" itree="15">
      <Node pos="s" depth="0" NCoef="0" IVar="7" Cut="7.6810933649539948e-02" cType="0" res="-9.9000000000000000e+01" rms="0.0000000000000000e+00" purity="4.7853082418441772e-01" nType="0">
        <Node pos="l" depth="1" NCoef="0" IVar="0" Cut="3.9650516510009766e+00" cType="0" res="-9.9000000000000000e+01" rms="0.0000000000000000e+00" purity="5.3074938058853149e-01" nType="0">
          <Node pos="l" depth="2" NCoef="0" IVar="-1" Cut="4.1195861816406250e+01" cType="0" res="-9.9000000000000000e+01" rms="0.0000000000000000e+00" purity="6.6263157129287720e-01" nType="1"/>
          <Node pos="r" depth="2" NCoef="0" IVar="0" Cut="1.6992595195770264e+00" cType="1" res="-9.9000000000000000e+01" rms="0.0000000000000000e+00" purity="4.8103159666061401e-01" nType="0">
            <Node pos="l" depth="3" NCoef="0" IVar="9" Cut="1.7688776254653931e+00" cType="1" res="-9.9000000000000000e+01" rms="0.0000000000000000e+00" purity="5.4677963256835938e-01" nType="0">
              <Node pos="l" depth="4" NCoef="0" IVar="-1" Cut="0.0000000000000000e+00" cType="1" res="-9.9000000000000000e+01" rms="0.0000000000000000e+00" purity="5.7363075017929077e-01" nType="1"/>
              <Node pos="r" depth="4" NCoef="0" IVar="-1" Cut="0.0000000000000000e+00" cType="1" res="-9.9000000000000000e+01" rms="0.0000000000000000e+00" purity="3.4067374467849731e-01" nType="-1"/>
            </Node>
            <Node pos="r" depth="3" NCoef="0" IVar="-1" Cut="1.8628450632095337e+00" cType="0" res="-9.9000000000000000e+01" rms="0.0000000000000000e+00" purity="4.5288002490997314e-01" nType="-1"/>
          </Node>
        </Node>
        <Node pos="r" depth="1" NCoef="0" IVar="1" Cut="1.7951854467391968e+00" cType="0" res="-9.9000000000000000e+01" rms="0.0000000000000000e+00" purity="4.4335642457008362e-01" nType="0">
          <Node pos="l" depth="2" NCoef="0" IVar="7" Cut="-2.3712603747844696e-01" cType="0" res="-9.9000000000000000e+01" rms="0.0000000000000000e+00" purity="4.8887985944747925e-01" nType="0">
            <Node pos="l" depth="3" NCoef="0" IVar="4" Cut="6.2848678588867188e+01" cType="1" res="-9.9000000000000000e+01" rms="0.0000000000000000e+00" purity="4.9482524394989014e-01" nType="0">
              <Node pos="l" depth="4" NCoef="0" IVar="-1" Cut="0.0000000000000000e+00" cType="1" res="-9.9000000000000000e+01" rms="0.0000000000000000e+00" purity="5.0313723087310791e-01" nType="1"/>
              <Node pos="r" depth="4" NCoef="0" IVar="-1" Cut="0.0000000000000000e+00" cType="1" res="-9.9000000000000000e+01" rms="0.0000000000000000e+00" purity="2.7870562672615051e-01" nType="-1"/>
            </Node>
            <Node pos="r" depth="3" NCoef="0" IVar="-1" Cut="3.0367956161499023e+00" cType="0" res="-9.9000000000000000e+01" rms="0.0000000000000000e+00" purity="1.5271352231502533e-01" nType="-1"/>
          </Node>
          <Node pos="r" depth="2" NCoef="0" IVar="-1" Cut="1.2797949314117432e+00" cType="0" res="-9.9000000000000000e+01" rms="0.0000000000000000e+00" purity="3.0902770161628723e-01" nType="-1"/>
        </Node>
      </Node>
    </BinaryTree>
    <BinaryTree type="DecisionTree" boostWeight="1.3614159038599138e-01" itree="16">
      <Node pos="s" depth="0" NCoef="0" IVar="7" Cut="7.6810933649539948e-02" cType="0" res="-9.9000000000000000e+01" rms="0.0000000000000000e+00" purity="4.7033515572547913e-01" nType="0">
        <Node pos="l" depth="1" NCoef="0" IVar="0" Cut="4.8461742401123047e+00" cType="0" res="-9.9000000000000000e+01" rms="0.0000000000000000e+00" purity="5.3357708454132080e-01" nType="0">
          <Node pos="l" depth="2" NCoef="0" IVar="8" Cut="4.5830700546503067e-02" cType="1" res="-9.9000000000000000e+01" rms="0.0000000000000000e+00" purity="6.9135230779647827e-01" nType="0">
            <Node pos="l" depth="3" NCoef="0" IVar="2" Cut="2.7573850154876709e+00" cType="0" res="-9.9000000000000000e+01" rms="0.0000000000000000e+00" purity="8.8605791330337524e-01" nType="0">
              <Node pos="l" depth="4" NCoef="0" IVar="-1" Cut="0.0000000000000000e+00" cType="1" res="-9.9000000000000000e+01" rms="0.0000000000000000e+00" purity="9.0817373991012573e-01" nType="1"/>
              <Node pos="r" depth="4" NCoef="0" IVar="-1" Cut="0.0000000000000000e+00" cType="1" res="-9.9000000000000000e+01" rms="0.0000000000000000e+00" purity="4.3865785002708435e-01" nType="-1"/>
            </Node>
            <Node pos="r" depth="3" NCoef="0" IVar="7" Cut="1.0232830047607422e-01" cType="0" res="-9.9000000000000000e+01" rms="0.0000000000000000e+00" purity="6.1617177724838257e-01" nType="0">
              <Node pos="l" depth="4" NCoef="0" IVar="-1" Cut="0.0000000000000000e+00" cType="1" res="-9.9000000000000000e+01" rms="0.0000000000000000e+00" purity="6.8516200780868530e-01" nType="1"/>
              <Node pos="r" depth="4" NCoef="0" IVar="-1" Cut="0.0000000000000000e+00" cType="1" res="-9.9000000000000000e+01" rms="0.0000000000000000e+00" purity="4.5060259103775024e-01" nType="-1"/>
            </Node>
          </Node>
          <Node pos="r" depth="2" NCoef="0" IVar="7" Cut="3.6764568090438843e-01" cType="0" res="-9.9000000000000000e+01" rms="0.0000000000000000e+00" purity="5.0594282150268555e-01" nType="0">
            <Node pos="l" depth="3" NCoef="0" IVar="-1" Cut="2.0749647617340088e+00" cType="0" res="-9.9000000000000000e+01" rms="0.0000000000000000e+00" purity="8.9276325702667236e-01" nType="1"/>
            <Node pos="r" depth="3" NCoef="0" IVar="3" Cut="1.3969925642013550e+00" cType="0" res="-9.9000000000000000e+01" rms="0.0000000000000000e+00" purity="5.0120896100997925e-01" nType="0">
              <Node pos="l" depth="4" NCoef="0" IVar="-1" Cut="0.0000000000000000e+00" cType="1" res="-9.9000000000000000e+01" rms="0.0000000000000000e+00" purity="5.1831108331680298e-01" nType="1"/>
              <Node pos="r" depth="4" NCoef="0" IVar="-1" Cut="0.0000000000000000e+00" cType="1" res="-9.9000000000000000e+01" rms="0.0000000000000000e+00" purity="4.0577369928359985e-01" nType="-1"/>
            </Node>
          </Node>
        </Node>
        <Node pos="r" depth="1" NCoef="0" IVar="-1" Cut="1.2811039686203003e+00" cType="0" res="-9.9000000000000000e+01" rms="0.0000000000000000e+00" purity="4.2789316177368164e-01" nType="-1"/>
      </Node>
    </BinaryTree>
    <BinaryTree type="DecisionTree" boostWeight="1.3526455776067517e-01" itree="17">
      <Node pos="s" depth="0" NCoef="0" IVar="0" Cut="1.3216838836669922e+00" cType="0" res="-9.9000000000000000e+01" rms="0.0000000000000000e+00" purity="4.8125469684600830e-01" nType="0">
        <Node pos="l" depth="1" NCoef="0" IVar="2" Cut="2.9919874668121338e+00" cType="0" res="-9.9000000000000000e+01" rms="0.0000000000000000e+00" purity="4.9990823864936829e-01" nType="0">
          <Node pos="l" depth="2" NCoef="0" IVar="0" Cut="5.3267936706542969e+00" cType="0" res="-9.9000000000000000e+01" rms="0.0000000000000000e+00" purity="5.4954504966735840e-01" nType="0">
            <Node pos="l" depth="3" NCoef="0" IVar="7" Cut="-4.0749445557594299e-02" cType="0" res="-9.9000000000000000e+01" rms="0.0000000000000000e+00" purity="7.3905295133590698e-01" nType="0">
              <Node pos="l" depth="4" NCoef="0" IVar="-1" Cut="0.0000000000000000e+00" cType="1" res="-9.9000000000000000e+01" rms="0.0000000000000000e+00" purity="7.8312581777572632e-01" nType="1"/>
              <Node pos="r" depth="4" NCoef="0" IVar="-1" Cut="0.0000000000000000e+00" cType="1" res="-9.9000000000000000e+01" rms="0.0000000000000000e+00" purity="3.9479687809944153e-01" nType="-1"/>
            </Node>
            <Node pos="r" depth="3" NCoef="0" IVar="9" Cut="3.1934757232666016e+00" cType="1" res="-9.9000000000000000e+01" rms="0.0000000000000000e+00" purity="5.2213197946548462e-01" nType="0">
              <Node pos="l" depth="4" NCoef="0" IVar="-1" Cut="0.0000000000000000e+00" cType="1" res="-9.9000000000000000e+01" rms="0.0000000000000000e+00" purity="5.2954965829849243e-01" nType="1"/>
              <Node pos="r" depth="4" NCoef="0" IVar="-1" Cut="0.0000000000000000e+00" cType="1" res="-9.9000000000000000e+01" rms="0.0000000000000000e+00" purity="7.4180535972118378e-02" nType="-1"/>
            </Node>
          </Node>
          <Node pos="r" depth="2" NCoef="0" IVar="1" Cut="1.0471943616867065e+00" cType="0" res="-9.9000000000000000e+01" rms="0.0000000000000000e+00" purity="4.7094318270683289e-01" nType="0">
            <Node pos="l" depth="3" NCoef="0" IVar="5" Cut="1.6311878967285156e+02" cType="1" res="-9.9000000000000000e+01" rms="0.0000000000000000e+00" purity="4.8880982398986816e-01" nType="0">
              <Node pos="l" depth="4" NCoef="0" IVar="-1" Cut="0.0000000000000000e+00" cType="1" res="-9.9000000000000000e+01" rms="0.0000000000000000e+00" purity="5.0520253181457520e-01" nType="1"/>
              <Node pos="r" depth="4" NCoef="0" IVar="-1" Cut="0.0000000000000000e+00" cType="1" res="-9.9000000000000000e+01" rms="0.0000000000000000e+00" purity="3.0875977873802185e-01" nType="-1"/>
            </Node>
            <Node pos="r" depth="3" NCoef="0" IVar="-1" Cut="7.5968109071254730e-02" cType="0" res="-9.9000000000000000e+01" rms="0.0000000000000000e+00" purity="3.2716777920722961e-01" nType="-1"/>
          </Node>
        </Node>
        <Node pos="r" depth="1" NCoef="0" IVar="9" Cut="1.9308050870895386e+00" cType="1" res="-9.9000000000000000e+01" rms="0.0000000000000000e+00" purity="3.7981215119361877e-01" nType="0">
          <Node pos="l" depth="2" NCoef="0" IVar="1" Cut="1.7950876951217651e+00" cType="0" res="-9.9000000000000000e+01" rms="0.0000000000000000e+00" purity="4.1397875547409058e-01" nType="0">
            <Node pos="l" depth="3" NCoef="0" IVar="7" Cut="3.5572372376918793e-02" cType="0" res="-9.9000000000000000e+01" rms="0.0000000000000000e+00" purity="4.7720050811767578e-01" nType="0">
              <Node pos="l" depth="4" NCoef="0" IVar="-1" Cut="0.0000000000000000e+00" cType="1" res="-9.9000000000000000e+01" rms="0.0000000000000000e+00" purity="5.7852709293365479e-01" nType="1"/>
              <Node pos="r" depth="4" NCoef="0" IVar="-1" Cut="0.0000000000000000e+00" cType="1" res="-9.9000000000000000e+01" rms="0.0000000000000000e+00" purity="3.5409688949584961e-01" nType="-1"/>
            </Node>
            <Node pos="r" depth="3" NCoef="0" IVar="-1" Cut="1.5315495431423187e-01" cType="0" res="-9.9000000000000000e+01" rms="0.0000000000000000e+00" purity="2.8339347243309021e-01" nType="-1"/>
          </Node>
          <Node pos="r" depth="2" NCoef="0" IVar="6" Cut="8.9299018859863281e+01" cType="0" res="-9.9000000000000000e+01" rms="0.0000000000000000e+00" purity="1.2540319561958313e-01" nType="0">
            <Node pos="l" depth="3" NCoef="0" IVar="1" Cut="2.3844389915466309e+00" cType="1" res="-9.9000000000000000e+01" rms="0.0000000000000000e+00" purity="4.0330395102500916e-01" nType="0">
              <Node pos="l" depth="4" NCoef="0" IVar="-1" Cut="0.0000000000000000e+00" cType="1" res="-9.9000000000000000e+01" rms="0.0000000000000000e+00" purity="7.2267496585845947e-01" nType="1"/>
              <Node pos="r" depth="4" NCoef="0" IVar="-1" Cut="0.0000000000000000e+00" cType="1" res="-9.9000000000000000e+01" rms="0.0000000000000000e+00" purity="6.0289868997642770e-05" nType="-1"/>
            </Node>
            <Node pos="r" depth="3" NCoef="0" IVar="-1" Cut="2.3906965255737305e+00" cType="1" res="-9.9000000000000000e+01" rms="0.0000000000000000e+00" purity="9.5102101564407349e-02" nType="-1"/>
          </Node>
        </Node>
      </Node>
    </BinaryTree>
    <BinaryTree type="DecisionTree" boostWeight="1.0436489025589313e-01" itree="18">
      <Node pos="s" depth="0" NCoef="0" IVar="8" Cut="3.9182448387145996e-01" cType="1" res="-9.9000000000000000e+01" rms="0.0000000000000000e+00" purity="4.6139836311340332e-01" nType="0">
        <Node pos="l" depth="1" NCoef="0" IVar="9" Cut="2.8961689472198486e+00" cType="1" res="-9.9000000000000000e+01" rms="0.0000000000000000e+00" purity="4.6951457858085632e-01" nType="0">
          <Node pos="l" depth="2" NCoef="0" IVar="4" Cut="8.3449623107910156e+01" cType="1" res="-9.9000000000000000e+01" rms="0.0000000000000000e+00" purity="4.7534191608428955e-01" nType="0">
            <Node pos="l" depth="3" NCoef="0" IVar="7" Cut="2.7036759257316589e-01" cType="0" res="-9.9000000000000000e+01" rms="0.0000000000000000e+00" purity="4.7828990221023560e-01" nType="0">
              <Node pos="l" depth="4" NCoef="0" IVar="-1" Cut="0.0000000000000000e+00" cType="1" res="-9.9000000000000000e+01" rms="0.0000000000000000e+00" purity="6.2851780652999878e-01" nType="1"/>
              <Node pos="r" depth="4" NCoef="0" IVar="-1" Cut="0.0000000000000000e+00" cType="1" res="-9.9000000000000000e+01" rms="0.0000000000000000e+00" purity="4.7077694535255432e-01" nType="-1"/>
            </Node>
            <Node pos="r" depth="3" NCoef="0" IVar="-1" Cut="9.4298255920410156e+01" cType="1" res="-9.9000000000000000e+01" rms="0.0000000000000000e+00" purity="9.0922966599464417e-02" nType="-1"/>
          </Node>
          <Node pos="r" depth="2" NCoef="0" IVar="0" Cut="5.5706787109375000e+00" cType="0" res="-9.9000000000000000e+01" rms="0.0000000000000000e+00" purity="2.6143598556518555e-01" nType="0">
            <Node pos="l" depth="3" NCoef="0" IVar="-1" Cut="1.4953594207763672e+00" cType="0" res="-9.9000000000000000e+01" rms="0.0000000000000000e+00" purity="6.8321758508682251e-01" nType="1"/>
            <Node pos="r" depth="3" NCoef="0" IVar="-1" Cut="1.1188860237598419e-01" cType="1" res="-9.9000000000000000e+01" rms="0.0000000000000000e+00" purity="2.0211756229400635e-01" nType="-1"/>
          </Node>
        </Node>
        <Node pos="r" depth="1" NCoef="0" IVar="0" Cut="2.5351517200469971e+00" cType="0" res="-9.9000000000000000e+01" rms="0.0000000000000000e+00" purity="2.9268506169319153e-01" nType="0">
          <Node pos="l" depth="2" NCoef="0" IVar="5" Cut="5.1477905273437500e+01" cType="0" res="-9.9000000000000000e+01" rms="0.0000000000000000e+00" purity="3.7726405262947083e-01" nType="0">
            <Node pos="l" depth="3" NCoef="0" IVar="8" Cut="6.1597001552581787e-01" cType="1" res="-9.9000000000000000e+01" rms="0.0000000000000000e+00" purity="4.7103846073150635e-01" nType="0">
              <Node pos="l" depth="4" NCoef="0" IVar="-1" Cut="0.0000000000000000e+00" cType="1" res="-9.9000000000000000e+01" rms="0.0000000000000000e+00" purity="5.2128720283508301e-01" nType="1"/>
              <Node pos="r" depth="4" NCoef="0" IVar="-1" Cut="0.0000000000000000e+00" cType="1" res="-9.9000000000000000e+01" rms="0.0000000000000000e+00" purity="9.4778247177600861e-02" nType="-1"/>
            </Node>
            <Node pos="r" depth="3" NCoef="0" IVar="6" Cut="3.6542461395263672e+01" cType="0" res="-9.9000000000000000e+01" rms="0.0000000000000000e+00" purity="2.3527398705482483e-01" nType="0">
              <Node pos="l" depth="4" NCoef="0" IVar="-1" Cut="0.0000000000000000e+00" cType="1" res="-9.9000000000000000e+01" rms="0.0000000000000000e+00" purity="5.3540897369384766e-01" nType="1"/>
              <Node pos="r" depth="4" NCoef="0" IVar="-1" Cut="0.0000000000000000e+00" cType="1" res="-9.9000000000000000e+01" rms="0.0000000000000000e+00" purity="2.0610982552170753e-02" nType="-1"/>
            </Node>
          </Node>
          <Node pos="r" depth="2" NCoef="0" IVar="-1" Cut="9.6515673398971558e-01" cType="0" res="-9.9000000000000000e+01" rms="0.0000000000000000e+00" purity="1.6722080111503601e-01" nType="-1"/>
        </Node>
      </Node>
    </BinaryTree>
    <BinaryTree type="DecisionTree" boostWeight="7.9315393962265834e-02" itree="19">
      <Node pos="s" depth="0" NCoef="0" IVar="8" Cut="3.9182448387145996e-01" cType="1" res="-9.9000000000000000e+01" rms="0.0000000000000000e+00" purity="4.8392817378044128e-01" nType="0">
        <Node pos="l" depth="1" NCoef="0" IVar="9" Cut="2.8961689472198486e+00" cType="1" res="-9.9000000000000000e+01" rms="0.0000000000000000e+00" purity="4.9297806620597839e-01" nType="0">
          <Node pos="l" depth="2" NCoef="0" IVar="4" Cut="8.3449623107910156e+01" cType="1" res="-9.9000000000000000e+01" rms="0.0000000000000000e+00" purity="4.9894121289253235e-01" nType="0">
            <Node pos="l" depth="3" NCoef="0" IVar="3" Cut="1.0842156410217285e+00" cType="0" res="-9.9000000000000000e+01" rms="0.0000000000000000e+00" purity="5.0188100337982178e-01" nType="0">
              <Node pos="l" depth="4" NCoef="0" IVar="-1" Cut="0.0000000000000000e+00" cType="1" res="-9.9000000000000000e+01" rms="0.0000000000000000e+00" purity="5.1391094923019409e-01" nType="1"/>
              <Node pos="r" depth="4" NCoef="0" IVar="-1" Cut="0.0000000000000000e+00" cType="1" res="-9.9000000000000000e+01" rms="0.0000000000000000e+00" purity="4.1846728324890137e-01" nType="-1"/>
            </Node>
            <Node pos="r" depth="3" NCoef="0" IVar="-1" Cut="9.4298255920410156e+01" cType="1" res="-9.9000000000000000e+01" rms="0.0000000000000000e+00" purity="9.9925540387630463e-02" nType="-1"/>
          </Node>
          <Node pos="r" depth="2" NCoef="0" IVar="0" Cut="5.5706787109375000e+00" cType="0" res="-9.9000000000000000e+01" rms="0.0000000000000000e+00" purity="2.7440080046653748e-01" nType="0">
            <Node pos="l" depth="3" NCoef="0" IVar="1" Cut="1.4953594207763672e+00" cType="0" res="-9.9000000000000000e+01" rms="0.0000000000000000e+00" purity="6.6021066904067993e-01" nType="0">
              <Node pos="l" depth="4" NCoef="0" IVar="-1" Cut="0.0000000000000000e+00" cType="1" res="-9.9000000000000000e+01" rms="0.0000000000000000e+00" purity="7.7222388982772827e-01" nType="1"/>
              <Node pos="r" depth="4" NCoef="0" IVar="-1" Cut="0.0000000000000000e+00" cType="1" res="-9.9000000000000000e+01" rms="0.0000000000000000e+00" purity="4.7823816537857056e-01" nType="-1"/>
            </Node>
            <Node pos="r" depth="3" NCoef="0" IVar="-1" Cut="1.1188860237598419e-01" cType="1" res="-9.9000000000000000e+01" rms="0.0000000000000000e+00" purity="2.1947187185287476e-01" nType="-1"/>
          </Node>
        </Node>
        <Node pos="r" depth="1" NCoef="0" IVar="-1" Cut="8.4505051374435425e-01" cType="0" res="-9.9000000000000000e+01" rms="0.0000000000000000e+00" purity="2.9210305213928223e-01" nType="-1"/>
      </Node>
    </BinaryTree>
    <BinaryTree type="DecisionTree" boostWeight="9.5175623869424478e-02" itree="20">
      <Node pos="s" depth="0" NCoef="0" IVar="8" Cut="3.9182448387145996e-01" cType="1" res="-9.9000000000000000e+01" rms="0.0000000000000000e+00" purity="4.7161370515823364e-01" nType="0">
        <Node pos="l" depth="1" NCoef="0" IVar="0" Cut="5.7272968292236328e+00" cType="0" res="-9.9000000000000000e+01" rms="0.0000000000000000e+00" purity="4.7918871045112610e-01" nType="0">
          <Node pos="l" depth="2" NCoef="0" IVar="7" Cut="-1.2920677661895752e-02" cType="0" res="-9.9000000000000000e+01" rms="0.0000000000000000e+00" purity="5.9822857379913330e-01" nType="0">
            <Node pos="l" depth="3" NCoef="0" IVar="2" Cut="2.4011590480804443e+00" cType="0" res="-9.9000000000000000e+01" rms="0.0000000000000000e+00" purity="6.8312305212020874e-01" nType="0">
              <Node pos="l" depth="4" NCoef="0" IVar="-1" Cut="0.0000000000000000e+00" cType="1" res="-9.9000000000000000e+01" rms="0.0000000000000000e+00" purity="7.2626662254333496e-01" nType="1"/>
              <Node pos="r" depth="4" NCoef="0" IVar="-1" Cut="0.0000000000000000e+00" cType="1" res="-9.9000000000000000e+01" rms="0.0000000000000000e+00" purity="3.5436123609542847e-01" nType="-1"/>
            </Node>
            <Node pos="r" depth="3" NCoef="0" IVar="-1" Cut="5.5989936828613281e+01" cType="1" res="-9.9000000000000000e+01" rms="0.0000000000000000e+00" purity="3.7395390868186951e-01" nType="-1"/>
          </Node>
          <Node pos="r" depth="2" NCoef="0" IVar="-1" Cut="2.8961689472198486e+00" cType="1" res="-9.9000000000000000e+01" rms="0.0000000000000000e+00" purity="4.7040325403213501e-01" nType="-1"/>
        </Node>
        <Node pos="r" depth="1" NCoef="0" IVar="-1" Cut="8.4505051374435425e-01" cType="0" res="-9.9000000000000000e+01" rms="0.0000000000000000e+00" purity="3.0876988172531128e-01" nType="-1"/>
      </Node>
    </BinaryTree>
    <BinaryTree type="DecisionTree" boostWeight="5.4010237098825527e-02" itree="21">
      <Node pos="s" depth="0" NCoef="0" IVar="8" Cut="3.9182448387145996e-01" cType="1" res="-9.9000000000000000e+01" rms="0.0000000000000000e+00" purity="4.9335706233978271e-01" nType="0">
        <Node pos="l" depth="1" NCoef="0" IVar="4" Cut="8.3449623107910156e+01" cType="1" res="-9.9000000000000000e+01" rms="0.0000000000000000e+00" purity="5.0087231397628784e-01" nType="0">
          <Node pos="l" depth="2" NCoef="0" IVar="9" Cut="3.2179639339447021e+00" cType="1" res="-9.9000000000000000e+01" rms="0.0000000000000000e+00" purity="5.0363701581954956e-01" nType="0">
            <Node pos="l" depth="3" NCoef="0" IVar="7" Cut="-2.2828057408332825e-01" cType="0" res="-9.9000000000000000e+01" rms="0.0000000000000000e+00" purity="5.0744789838790894e-01" nType="0">
              <Node pos="l" depth="4" NCoef="0" IVar="-1" Cut="0.0000000000000000e+00" cType="1" res="-9.9000000000000000e+01" rms="0.0000000000000000e+00" purity="5.1064765453338623e-01" nType="1"/>
              <Node pos="r" depth="4" NCoef="0" IVar="-1" Cut="0.0000000000000000e+00" cType="1" res="-9.9000000000000000e+01" rms="0.0000000000000000e+00" purity="2.0965819060802460e-01" nType="-1"/>
            </Node>
            <Node pos="r" depth="3" NCoef="0" IVar="0" Cut="5.1874465942382812e+00" cType="0" res="-9.9000000000000000e+01" rms="0.0000000000000000e+00" purity="2.3608355224132538e-01" nType="0">
              <Node pos="l" depth="4" NCoef="0" IVar="-1" Cut="0.0000000000000000e+00" cType="1" res="-9.9000000000000000e+01" rms="0.0000000000000000e+00" purity="6.9847303628921509e-01" nType="1"/>
              <Node pos="r" depth="4" NCoef="0" IVar="-1" Cut="0.0000000000000000e+00" cType="1" res="-9.9000000000000000e+01" rms="0.0000000000000000e+00" purity="1.7548021674156189e-01" nType="-1"/>
            </Node>
          </Node>
          <Node pos="r" depth="2" NCoef="0" IVar="-1" Cut="9.4298255920410156e+01" cType="1" res="-9.9000000000000000e+01" rms="0.0000000000000000e+00" purity="1.1052539199590683e-01" nType="-1"/>
        </Node>
        <Node pos="r" depth="1" NCoef="0" IVar="-1" Cut="8.4505051374435425e-01" cType="0" res="-9.9000000000000000e+01" rms="0.0000000000000000e+00" purity="3.2944399118423462e-01" nType="-1"/>
      </Node>
    </BinaryTree>
    <BinaryTree type="DecisionTree" boostWeight="4.4207093871139955e-02" itree="22">
      <Node pos="s" depth="0" NCoef="0" IVar="9" Cut="2.8961689472198486e+00" cType="1" res="-9.9000000000000000e+01" rms="0.0000000000000000e+00" purity="4.8178333044052124e-01" nType="0">
        <Node pos="l" depth="1" NCoef="0" IVar="4" Cut="8.3449623107910156e+01" cType="1" res="-9.9000000000000000e+01" rms="0.0000000000000000e+00" purity="4.8708871006965637e-01" nType="0">
          <Node pos="l" depth="2" NCoef="0" IVar="7" Cut="-1.5222114324569702e-01" cType="0" res="-9.9000000000000000e+01" rms="0.0000000000000000e+00" purity="4.8964414000511169e-01" nType="0">
            <Node pos="l" depth="3" NCoef="0" IVar="0" Cut="4.4056129455566406e-01" cType="0" res="-9.9000000000000000e+01" rms="0.0000000000000000e+00" purity="4.9522680044174194e-01" nType="0">
              <Node pos="l" depth="4" NCoef="0" IVar="-1" Cut="0.0000000000000000e+00" cType="1" res="-9.9000000000000000e+01" rms="0.0000000000000000e+00" purity="5.0097030401229858e-01" nType="1"/>
              <Node pos="r" depth="4" NCoef="0" IVar="-1" Cut="0.0000000000000000e+00" cType="1" res="-9.9000000000000000e+01" rms="0.0000000000000000e+00" purity="3.5197684168815613e-01" nType="-1"/>
            </Node>
            <Node pos="r" depth="3" NCoef="0" IVar="1" Cut="2.8422222137451172e+00" cType="0" res="-9.9000000000000000e+01" rms="0.0000000000000000e+00" purity="3.3010679483413696e-01" nType="0">
              <Node pos="l" depth="4" NCoef="0" IVar="-1" Cut="0.0000000000000000e+00" cType="1" res="-9.9000000000000000e+01" rms="0.0000000000000000e+00" purity="5.5162805318832397e-01" nType="1"/>
              <Node pos="r" depth="4" NCoef="0" IVar="-1" Cut="0.0000000000000000e+00" cType="1" res="-9.9000000000000000e+01" rms="0.0000000000000000e+00" purity="2.4044017493724823e-01" nType="-1"/>
            </Node>
          </Node>
          <Node pos="r" depth="2" NCoef="0" IVar="-1" Cut="2.3935005664825439e+00" cType="0" res="-9.9000000000000000e+01" rms="0.0000000000000000e+00" purity="1.1503896117210388e-01" nType="-1"/>
        </Node>
        <Node pos="r" depth="1" NCoef="0" IVar="0" Cut="5.5706787109375000e+00" cType="0" res="-9.9000000000000000e+01" rms="0.0000000000000000e+00" purity="2.8236982226371765e-01" nType="0">
          <Node pos="l" depth="2" NCoef="0" IVar="1" Cut="1.7881606817245483e+00" cType="0" res="-9.9000000000000000e+01" rms="0.0000000000000000e+00" purity="6.4016151428222656e-01" nType="0">
            <Node pos="l" depth="3" NCoef="0" IVar="-1" Cut="0.0000000000000000e+00" cType="1" res="-9.9000000000000000e+01" rms="0.0000000000000000e+00" purity="8.9675039052963257e-01" nType="1"/>
            <Node pos="r" depth="3" NCoef="0" IVar="-1" Cut="0.0000000000000000e+00" cType="1" res="-9.9000000000000000e+01" rms="0.0000000000000000e+00" purity="4.1526731848716736e-01" nType="-1"/>
          </Node>
          <Node pos="r" depth="2" NCoef="0" IVar="-1" Cut="1.3027887046337128e-01" cType="1" res="-9.9000000000000000e+01" rms="0.0000000000000000e+00" purity="2.3344744741916656e-01" nType="-1"/>
        </Node>
      </Node>
    </BinaryTree>
    <BinaryTree type="DecisionTree" boostWeight="8.5730275887721363e-02" itree="23">
      <Node pos="s" depth="0" NCoef="0" IVar="4" Cut="6.8277458190917969e+01" cType="1" res="-9.9000000000000000e+01" rms="0.0000000000000000e+00" purity="4.7270500659942627e-01" nType="0">
        <Node pos="l" depth="1" NCoef="0" IVar="9" Cut="3.2179639339447021e+00" cType="1" res="-9.9000000000000000e+01" rms="0.0000000000000000e+00" purity="4.7717797756195068e-01" nType="0">
          <Node pos="l" depth="2" NCoef="0" IVar="7" Cut="-2.2856517136096954e-01" cType="0" res="-9.9000000000000000e+01" rms="0.0000000000000000e+00" purity="4.8073008656501770e-01" nType="0">
            <Node pos="l" depth="3" NCoef="0" IVar="2" Cut="2.9919874668121338e+00" cType="0" res="-9.9000000000000000e+01" rms="0.0000000000000000e+00" purity="4.8367437720298767e-01" nType="0">
              <Node pos="l" depth="4" NCoef="0" IVar="-1" Cut="0.0000000000000000e+00" cType="1" res="-9.9000000000000000e+01" rms="0.0000000000000000e+00" purity="5.1975977420806885e-01" nType="1"/>
              <Node pos="r" depth="4" NCoef="0" IVar="-1" Cut="0.0000000000000000e+00" cType="1" res="-9.9000000000000000e+01" rms="0.0000000000000000e+00" purity="4.6310642361640930e-01" nType="-1"/>
            </Node>
            <Node pos="r" depth="3" NCoef="0" IVar="-1" Cut="2.9576768875122070e+00" cType="0" res="-9.9000000000000000e+01" rms="0.0000000000000000e+00" purity="2.0868715643882751e-01" nType="-1"/>
          </Node>
          <Node pos="r" depth="2" NCoef="0" IVar="0" Cut="5.1874465942382812e+00" cType="0" res="-9.9000000000000000e+01" rms="0.0000000000000000e+00" purity="2.3113822937011719e-01" nType="0">
            <Node pos="l" depth="3" NCoef="0" IVar="-1" Cut="0.0000000000000000e+00" cType="1" res="-9.9000000000000000e+01" rms="0.0000000000000000e+00" purity="6.5404075384140015e-01" nType="1"/>
            <Node pos="r" depth="3" NCoef="0" IVar="-1" Cut="1.6195874661207199e-02" cType="0" res="-9.9000000000000000e+01" rms="0.0000000000000000e+00" purity="1.7652902007102966e-01" nType="-1"/>
          </Node>
        </Node>
        <Node pos="r" depth="1" NCoef="0" IVar="8" Cut="1.6496525704860687e-01" cType="1" res="-9.9000000000000000e+01" rms="0.0000000000000000e+00" purity="2.7094823122024536e-01" nType="0">
          <Node pos="l" depth="2" NCoef="0" IVar="4" Cut="7.6956230163574219e+01" cType="1" res="-9.9000000000000000e+01" rms="0.0000000000000000e+00" purity="3.5059067606925964e-01" nType="0">
            <Node pos="l" depth="3" NCoef="0" IVar="4" Cut="7.1174026489257812e+01" cType="0" res="-9.9000000000000000e+01" rms="0.0000000000000000e+00" purity="5.0375550985336304e-01" nType="0">
              <Node pos="l" depth="4" NCoef="0" IVar="-1" Cut="0.0000000000000000e+00" cType="1" res="-9.9000000000000000e+01" rms="0.0000000000000000e+00" purity="6.0714727640151978e-01" nType="1"/>
              <Node pos="r" depth="4" NCoef="0" IVar="-1" Cut="0.0000000000000000e+00" cType="1" res="-9.9000000000000000e+01" rms="0.0000000000000000e+00" purity="2.3977136611938477e-01" nType="-1"/>
            </Node>
            <Node pos="r" depth="3" NCoef="0" IVar="-1" Cut="2.5622079372406006e+00" cType="0" res="-9.9000000000000000e+01" rms="0.0000000000000000e+00" purity="1.8703530728816986e-01" nType="-1"/>
          </Node>
          <Node pos="r" depth="2" NCoef="0" IVar="-1" Cut="1.4829194545745850e-01" cType="0" res="-9.9000000000000000e+01" rms="0.0000000000000000e+00" purity="3.7190597504377365e-02" nType="-1"/>
        </Node>
      </Node>
    </BinaryTree>
    <BinaryTree type="DecisionTree" boostWeight="4.4422039202883574e-02" itree="24">
      <Node pos="s" depth="0" NCoef="0" IVar="4" Cut="6.8277458190917969e+01" cType="1" res="-9.9000000000000000e+01" rms="0.0000000000000000e+00" purity="4.7888350486755371e-01" nType="0">
        <Node pos="l" depth="1" NCoef="0" IVar="-1" Cut="3.5397589206695557e+00" cType="1" res="-9.9000000000000000e+01" rms="0.0000000000000000e+00" purity="4.8330718278884888e-01" nType="-1"/>
        <Node pos="r" depth="1" NCoef="0" IVar="8" Cut="1.6496525704860687e-01" cType="1" res="-9.9000000000000000e+01" rms="0.0000000000000000e+00" purity="2.7495095133781433e-01" nType="0">
          <Node pos="l" depth="2" NCoef="0" IVar="4" Cut="7.6956230163574219e+01" cType="1" res="-9.9000000000000000e+01" rms="0.0000000000000000e+00" purity="3.5323521494865417e-01" nType="0">
            <Node pos="l" depth="3" NCoef="0" IVar="1" Cut="2.9911344051361084e+00" cType="0" res="-9.9000000000000000e+01" rms="0.0000000000000000e+00" purity="4.9431923031806946e-01" nType="0">
              <Node pos="l" depth="4" NCoef="0" IVar="-1" Cut="0.0000000000000000e+00" cType="1" res="-9.9000000000000000e+01" rms="0.0000000000000000e+00" purity="8.0225187540054321e-01" nType="1"/>
              <Node pos="r" depth="4" NCoef="0" IVar="-1" Cut="0.0000000000000000e+00" cType="1" res="-9.9000000000000000e+01" rms="0.0000000000000000e+00" purity="4.0956097841262817e-01" nType="-1"/>
            </Node>
            <Node pos="r" depth="3" NCoef="0" IVar="-1" Cut="2.5622079372406006e+00" cType="0" res="-9.9000000000000000e+01" rms="0.0000000000000000e+00" purity="2.0042183995246887e-01" nType="-1"/>
          </Node>
          <Node pos="r" depth="2" NCoef="0" IVar="-1" Cut="1.4829194545745850e-01" cType="0" res="-9.9000000000000000e+01" rms="0.0000000000000000e+00" purity="4.0385179221630096e-02" nType="-1"/>
        </Node>
      </Node>
    </BinaryTree>
    <BinaryTree type="DecisionTree" boostWeight="5.4975249877822263e-02" itree="25">
      <Node pos="s" depth="0" NCoef="0" IVar="4" Cut="6.8277458190917969e+01" cType="1" res="-9.9000000000000000e+01" rms="0.0000000000000000e+00" purity="4.8993760347366333e-01" nType="0">
        <Node pos="l" depth="1" NCoef="0" IVar="9" Cut="3.5397589206695557e+00" cType="1" res="-9.9000000000000000e+01" rms="0.0000000000000000e+00" purity="4.9440672993659973e-01" nType="0">
          <Node pos="l" depth="2" NCoef="0" IVar="1" Cut="4.4879636168479919e-01" cType="0" res="-9.9000000000000000e+01" rms="0.0000000000000000e+00" purity="4.9673157930374146e-01" nType="0">
            <Node pos="l" depth="3" NCoef="0" IVar="7" Cut="-1.6889859735965729e-01" cType="0" res="-9.9000000000000000e+01" rms="0.0000000000000000e+00" purity="5.0447279214859009e-01" nType="0">
              <Node pos="l" depth="4" NCoef="0" IVar="-1" Cut="0.0000000000000000e+00" cType="1" res="-9.9000000000000000e+01" rms="0.0000000000000000e+00" purity="5.0931584835052490e-01" nType="1"/>
              <Node pos="r" depth="4" NCoef="0" IVar="-1" Cut="0.0000000000000000e+00" cType="1" res="-9.9000000000000000e+01" rms="0.0000000000000000e+00" purity="3.2329332828521729e-01" nType="-1"/>
            </Node>
            <Node pos="r" depth="3" NCoef="0" IVar="-1" Cut="5.1322947256267071e-03" cType="0" res="-9.9000000000000000e+01" rms="0.0000000000000000e+00" purity="3.9907443523406982e-01" nType="-1"/>
          </Node>
          <Node pos="r" depth="2" NCoef="0" IVar="-1" Cut="4.1334796905517578e+01" cType="0" res="-9.9000000000000000e+01" rms="0.0000000000000000e+00" purity="1.3087819516658783e-01" nType="-1"/>
        </Node>
        <Node pos="r" depth="1" NCoef="0" IVar="8" Cut="1.6496525704860687e-01" cType="1" res="-9.9000000000000000e+01" rms="0.0000000000000000e+00" purity="2.8150847554206848e-01" nType="0">
